strict digraph Tree {
	graph [bb="0,0,6393,2078"];
	node [color=black,
		fontname=helvetica,
		label="\N",
		shape=box,
		style="filled, rounded"
	];
	edge [fontname=helvetica];
	0	 [fillcolor=mistyrose,
		height=1.1528,
		label="ISCH\ngini = 0.535\nsamples = 711\nvalue = [270, 16, 1, 402, 22]\nclass = 4",
		pos="3437,2036.5",
		width=3.0833];
	1	 [fillcolor=palegreen,
		height=1.1528,
		label="ARRH\ngini = 0.504\nsamples = 315\nvalue = [207, 13, 1, 77, 17]\nclass = 1",
		pos="2222,1902.5",
		width=2.9583];
	0 -> 1	 [label="<= 0.5",
		labelangle=45,
		labeldistance=2.5,
		lp="2892,1969.5",
		op="<=",
		param=0.5,
		pos="e,2328.9,1914.3 3326,2024.3 3096.8,1999 2573.4,1941.3 2339.1,1915.4",
		style=solid];
	74	 [fillcolor=mistyrose,
		height=1.1528,
		label="CABG\ngini = 0.301\nsamples = 396\nvalue = [63, 3, 0, 325, 5]\nclass = 4",
		pos="4623,1902.5",
		width=2.7083];
	0 -> 74	 [label="> 0.5",
		labelangle=-45,
		labeldistance=2.5,
		lp="4086,1969.5",
		op=">",
		param=0.5,
		pos="e,4525.5,1913.5 3548,2024 3775.3,1998.3 4291,1940 4515.3,1914.7",
		style=solid];
	2	 [fillcolor=palegreen,
		height=1.1528,
		label="TotalHospDays\ngini = 0.374\nsamples = 215\nvalue = [168, 13, 1, 16, 17]\nclass = 1",
		pos="1307,1768.5",
		width=2.9583];
	1 -> 2	 [label="<= 0.5",
		lp="1818,1835.5",
		op="<=",
		param=0.5,
		pos="e,1413.8,1784.1 2115.2,1886.9 1942.4,1861.6 1602.8,1811.8 1423.8,1785.6",
		style=solid];
	53	 [fillcolor=mistyrose,
		height=1.1528,
		label="HTN\ngini = 0.476\nsamples = 100\nvalue = [39, 0, 0, 61, 0]\nclass = 4",
		pos="2222,1768.5",
		width=2.5833];
	1 -> 53	 [label="> 0.5",
		lp="2242,1835.5",
		op=">",
		param=0.5,
		pos="e,2222,1810.1 2222,1860.8 2222,1848 2222,1833.7 2222,1820.2",
		style=solid];
	3	 [fillcolor=lightcoral,
		height=0.94444,
		label="gini = 0.0\nsamples = 14\nvalue = [0, 0, 0, 0, 14]\nclass = 5",
		pos="1099,1634.5",
		width=2.4583];
	2 -> 3	 [label="<= 0.5",
		lp="1236,1701.5",
		op="<=",
		param=0.5,
		pos="e,1151.8,1668.5 1242.3,1726.8 1216.2,1710 1186.2,1690.6 1160.4,1674",
		style=solid];
	4	 [fillcolor=palegreen,
		height=1.1528,
		label="BMI\ngini = 0.291\nsamples = 201\nvalue = [168, 13, 1, 16, 3]\nclass = 1",
		pos="1307,1634.5",
		width=2.8333];
	2 -> 4	 [label="> 0.5",
		lp="1327,1701.5",
		op=">",
		param=0.5,
		pos="e,1307,1676.1 1307,1726.8 1307,1714 1307,1699.7 1307,1686.2",
		style=solid];
	5	 [fillcolor=palegreen,
		height=1.1528,
		label="BET\ngini = 0.59\nsamples = 20\nvalue = [9, 9, 1, 0, 1]\nclass = 1",
		pos="731,1500.5",
		width=2.3333];
	4 -> 5	 [label="<= 18.325",
		lp="1161.5,1567.5",
		op="<=",
		param=18.325,
		pos="e,815.12,1513 1205,1595.7 1202,1594.7 1199,1593.8 1196,1593 1069.6,1557 919.95,1530 825.25,1514.7",
		style=solid];
	18	 [fillcolor=palegreen,
		height=1.1528,
		label="EjF\ngini = 0.22\nsamples = 181\nvalue = [159, 4, 0, 16, 2]\nclass = 1",
		pos="1307,1500.5",
		width=2.7083];
	4 -> 18	 [label="> 18.325",
		lp="1340.5,1567.5",
		op=">",
		param=18.325,
		pos="e,1307,1542.1 1307,1592.8 1307,1580 1307,1565.7 1307,1552.2",
		style=solid];
	6	 [fillcolor=palegreen,
		height=1.1528,
		label="PPRatio\ngini = 0.48\nsamples = 10\nvalue = [7, 1, 1, 0, 1]\nclass = 1",
		pos="456,1366.5",
		width=2.3333];
	5 -> 6	 [label="<= 0.5",
		lp="628,1433.5",
		op="<=",
		param=0.5,
		pos="e,540.44,1407.6 647,1459.6 616.23,1444.6 581.23,1427.5 549.67,1412.1",
		style=dashed];
	13	 [fillcolor=honeydew,
		height=1.1528,
		label="SOD\ngini = 0.32\nsamples = 10\nvalue = [2, 8, 0, 0, 0]\nclass = 2",
		pos="731,1366.5",
		width=2.3333];
	5 -> 13	 [label="> 0.5",
		lp="751,1433.5",
		op=">",
		param=0.5,
		pos="e,731,1408.1 731,1458.8 731,1446 731,1431.7 731,1418.2",
		style=dashed];
	7	 [fillcolor=palegreen,
		height=1.1528,
		label="ACE\ngini = 0.219\nsamples = 8\nvalue = [7, 0, 1, 0, 0]\nclass = 1",
		pos="270,1232.5",
		width=2.3333];
	6 -> 7	 [label="<= 0.342",
		lp="404,1299.5",
		op="<=",
		param=0.342,
		pos="e,327.8,1274.1 398.17,1324.8 378.49,1310.7 356.34,1294.7 336.06,1280.1",
		style=dashed];
	10	 [fillcolor=honeydew,
		height=1.1528,
		label="MLHFS\ngini = 0.5\nsamples = 2\nvalue = [0, 1, 0, 0, 1]\nclass = 2",
		pos="456,1232.5",
		width=2.3333];
	6 -> 10	 [label="> 0.342",
		lp="485,1299.5",
		op=">",
		param=0.342,
		pos="e,456,1274.1 456,1324.8 456,1312 456,1297.7 456,1284.2",
		style=solid];
	8	 [fillcolor=lightyellow,
		height=0.94444,
		label="gini = 0.0\nsamples = 1\nvalue = [0, 0, 1, 0, 0]\nclass = 3",
		pos="84,1098.5",
		width=2.3333];
	7 -> 8	 [label="<= 0.5",
		lp="209,1165.5",
		op="<=",
		param=0.5,
		pos="e,131.2,1132.5 212.17,1190.8 188.99,1174.1 162.4,1155 139.47,1138.5",
		style=solid];
	9	 [fillcolor=palegreen,
		height=0.94444,
		label="gini = 0.0\nsamples = 7\nvalue = [7, 0, 0, 0, 0]\nclass = 1",
		pos="270,1098.5",
		width=2.3333];
	7 -> 9	 [label="> 0.5",
		lp="290,1165.5",
		op=">",
		param=0.5,
		pos="e,270,1132.5 270,1190.8 270,1175.6 270,1158.3 270,1142.9",
		style=solid];
	11	 [fillcolor=lightcoral,
		height=0.94444,
		label="gini = 0.0\nsamples = 1\nvalue = [0, 0, 0, 0, 1]\nclass = 5",
		pos="456,1098.5",
		width=2.3333];
	10 -> 11	 [label="<= 70.0",
		lp="486.5,1165.5",
		op="<=",
		param=70.0,
		pos="e,456,1132.5 456,1190.8 456,1175.6 456,1158.3 456,1142.9",
		style=solid];
	12	 [fillcolor=honeydew,
		height=0.94444,
		label="gini = 0.0\nsamples = 1\nvalue = [0, 1, 0, 0, 0]\nclass = 2",
		pos="642,1098.5",
		width=2.3333];
	10 -> 12	 [label="> 70.0",
		lp="579.5,1165.5",
		op=">",
		param=70.0,
		pos="e,594.8,1132.5 513.83,1190.8 537.01,1174.1 563.6,1155 586.53,1138.5",
		style=solid];
	14	 [fillcolor=honeydew,
		height=0.94444,
		label="gini = 0.0\nsamples = 7\nvalue = [0, 7, 0, 0, 0]\nclass = 2",
		pos="642,1232.5",
		width=2.3333];
	13 -> 14	 [label="<= 135.5",
		lp="725,1299.5",
		op="<=",
		param=135.5,
		pos="e,663.76,1266.8 702.16,1325 698.05,1319 693.9,1312.8 690,1307 683.2,1296.8 675.98,1285.7 669.27,1275.3",
		style=solid];
	15	 [fillcolor=palegreen,
		height=1.1528,
		label="SOD\ngini = 0.444\nsamples = 3\nvalue = [2, 1, 0, 0, 0]\nclass = 1",
		pos="828,1232.5",
		width=2.3333];
	13 -> 15	 [label="> 135.5",
		lp="812,1299.5",
		op=">",
		param=135.5,
		pos="e,797.86,1274.1 761.16,1324.8 770.92,1311.3 781.85,1296.3 791.99,1282.2",
		style=solid];
	16	 [fillcolor=palegreen,
		height=0.94444,
		label="gini = 0.0\nsamples = 2\nvalue = [2, 0, 0, 0, 0]\nclass = 1",
		pos="828,1098.5",
		width=2.3333];
	15 -> 16	 [label="<= 137.5",
		lp="863,1165.5",
		op="<=",
		param=137.5,
		pos="e,828,1132.5 828,1190.8 828,1175.6 828,1158.3 828,1142.9",
		style=solid];
	17	 [fillcolor=honeydew,
		height=0.94444,
		label="gini = 0.0\nsamples = 1\nvalue = [0, 1, 0, 0, 0]\nclass = 2",
		pos="1014,1098.5",
		width=2.3333];
	15 -> 17	 [label="> 137.5",
		lp="956,1165.5",
		op=">",
		param=137.5,
		pos="e,966.8,1132.5 885.83,1190.8 909.01,1174.1 935.6,1155 958.53,1138.5",
		style=solid];
	19	 [fillcolor=palegreen,
		height=1.1528,
		label="NYHA\ngini = 0.174\nsamples = 171\nvalue = [155, 4, 0, 10, 2]\nclass = 1",
		pos="1207,1366.5",
		width=2.7083];
	18 -> 19	 [label="<= 29.5",
		lp="1290.5,1433.5",
		op="<=",
		param=29.5,
		pos="e,1238.1,1408.1 1275.9,1458.8 1265.8,1445.3 1254.6,1430.3 1244.1,1416.2",
		style=solid];
	50	 [fillcolor=mistyrose,
		height=1.1528,
		label="HTN\ngini = 0.48\nsamples = 10\nvalue = [4, 0, 0, 6, 0]\nclass = 4",
		pos="1406,1366.5",
		width=2.3333];
	18 -> 50	 [label="> 29.5",
		lp="1384.5,1433.5",
		op=">",
		param=29.5,
		pos="e,1375.2,1408.1 1337.8,1458.8 1347.7,1445.3 1358.9,1430.3 1369.2,1416.2",
		style=solid];
	20	 [fillcolor=mistyrose,
		height=0.94444,
		label="gini = 0.0\nsamples = 2\nvalue = [0, 0, 0, 2, 0]\nclass = 4",
		pos="1014,1232.5",
		width=2.3333];
	19 -> 20	 [label="<= 0.5",
		lp="1143,1299.5",
		op="<=",
		param=0.5,
		pos="e,1063,1266.5 1147,1324.8 1122.8,1308.1 1095.1,1288.8 1071.2,1272.2",
		style=solid];
	21	 [fillcolor=palegreen,
		height=1.1528,
		label="BPDIAS\ngini = 0.156\nsamples = 169\nvalue = [155, 4, 0, 8, 2]\nclass = 1",
		pos="1209,1232.5",
		width=2.5833];
	19 -> 21	 [label="> 0.5",
		lp="1229,1299.5",
		op=">",
		param=0.5,
		pos="e,1208.4,1274.1 1207.6,1324.8 1207.8,1312 1208,1297.7 1208.2,1284.2",
		style=dashed];
	22	 [fillcolor=palegreen,
		height=1.1528,
		label="ACE\ngini = 0.146\nsamples = 168\nvalue = [155, 4, 0, 7, 2]\nclass = 1",
		pos="1209,1098.5",
		width=2.5833];
	21 -> 22	 [label="<= 97.0",
		lp="1239.5,1165.5",
		op="<=",
		param=97.0,
		pos="e,1209,1140.1 1209,1190.8 1209,1178 1209,1163.7 1209,1150.2",
		style=solid];
	49	 [fillcolor=mistyrose,
		height=0.94444,
		label="gini = 0.0\nsamples = 1\nvalue = [0, 0, 0, 1, 0]\nclass = 4",
		pos="1404,1098.5",
		width=2.3333];
	21 -> 49	 [label="> 97.0",
		lp="1337.5,1165.5",
		op=">",
		param=97.0,
		pos="e,1354.5,1132.5 1269.6,1190.8 1294,1174.1 1322,1154.8 1346.2,1138.2",
		style=solid];
	23	 [fillcolor=palegreen,
		height=1.1528,
		label="NonISCH\ngini = 0.5\nsamples = 4\nvalue = [2, 0, 0, 0, 2]\nclass = 1",
		pos="1097,964.5",
		width=2.3333];
	22 -> 23	 [label="<= 0.5",
		lp="1183,1031.5",
		op="<=",
		param=0.5,
		pos="e,1131.8,1006.1 1174.2,1056.8 1162.8,1043.2 1150.1,1028 1138.2,1013.9",
		style=solid];
	26	 [fillcolor=palegreen,
		height=1.1528,
		label="BUN\ngini = 0.127\nsamples = 164\nvalue = [153, 4, 0, 7, 0]\nclass = 1",
		pos="1292,964.5",
		width=2.5833];
	22 -> 26	 [label="> 0.5",
		lp="1273,1031.5",
		op=">",
		param=0.5,
		pos="e,1266.2,1006.1 1234.8,1056.8 1243,1043.6 1252.2,1028.8 1260.7,1015",
		style=dashed];
	24	 [fillcolor=lightcoral,
		height=0.94444,
		label="gini = 0.0\nsamples = 2\nvalue = [0, 0, 0, 0, 2]\nclass = 5",
		pos="913,830.5",
		width=2.3333];
	23 -> 24	 [label="<= 0.5",
		lp="1037,897.5",
		op="<=",
		param=0.5,
		pos="e,959.69,864.5 1039.8,922.84 1016.9,906.14 990.56,886.98 967.87,870.46",
		style=solid];
	25	 [fillcolor=palegreen,
		height=0.94444,
		label="gini = 0.0\nsamples = 2\nvalue = [2, 0, 0, 0, 0]\nclass = 1",
		pos="1099,830.5",
		width=2.3333];
	23 -> 25	 [label="> 0.5",
		lp="1119,897.5",
		op=">",
		param=0.5,
		pos="e,1098.5,864.5 1097.6,922.84 1097.8,907.6 1098.1,890.33 1098.3,874.87",
		style=solid];
	27	 [fillcolor=palegreen,
		height=1.1528,
		label="PP\ngini = 0.5\nsamples = 4\nvalue = [2, 2, 0, 0, 0]\nclass = 1",
		pos="1287,830.5",
		width=2.3333];
	26 -> 27	 [label="<= 4.0",
		lp="1316,897.5",
		op="<=",
		param=4.0,
		pos="e,1288.6,872.14 1290.4,922.84 1290,909.98 1289.4,895.66 1288.9,882.21",
		style=solid];
	30	 [fillcolor=palegreen,
		height=1.1528,
		label="DIUR\ngini = 0.107\nsamples = 160\nvalue = [151, 2, 0, 7, 0]\nclass = 1",
		pos="1482,830.5",
		width=2.5833];
	26 -> 30	 [label="> 4.0",
		lp="1413,897.5",
		op=">",
		param=4.0,
		pos="e,1423,872.14 1351.1,922.84 1371.2,908.66 1393.8,892.7 1414.5,878.09",
		style=dashed];
	28	 [fillcolor=palegreen,
		height=0.94444,
		label="gini = 0.0\nsamples = 2\nvalue = [2, 0, 0, 0, 0]\nclass = 1",
		pos="1103,696.5",
		width=2.3333];
	27 -> 28	 [label="<= 51.0",
		lp="1231.5,763.5",
		op="<=",
		param=51.0,
		pos="e,1149.7,730.5 1229.8,788.84 1206.9,772.14 1180.6,752.98 1157.9,736.46",
		style=solid];
	29	 [fillcolor=honeydew,
		height=0.94444,
		label="gini = 0.0\nsamples = 2\nvalue = [0, 2, 0, 0, 0]\nclass = 2",
		pos="1289,696.5",
		width=2.3333];
	27 -> 29	 [label="> 51.0",
		lp="1313.5,763.5",
		op=">",
		param=51.0,
		pos="e,1288.5,730.5 1287.6,788.84 1287.8,773.6 1288.1,756.33 1288.3,740.87",
		style=solid];
	31	 [fillcolor=palegreen,
		height=1.1528,
		label="POT\ngini = 0.48\nsamples = 5\nvalue = [3, 2, 0, 0, 0]\nclass = 1",
		pos="1479,696.5",
		width=2.3333];
	30 -> 31	 [label="<= 0.5",
		lp="1507,763.5",
		op="<=",
		param=0.5,
		pos="e,1479.9,738.14 1481.1,788.84 1480.8,775.98 1480.5,761.66 1480.2,748.21",
		style=solid];
	34	 [fillcolor=palegreen,
		height=1.1528,
		label="SixFtWlk\ngini = 0.086\nsamples = 155\nvalue = [148, 0, 0, 7, 0]\nclass = 1",
		pos="1674,696.5",
		width=2.5833];
	30 -> 34	 [label="> 0.5",
		lp="1604,763.5",
		op=">",
		param=0.5,
		pos="e,1614.3,738.14 1541.7,788.84 1562.1,774.59 1585.1,758.56 1606.1,743.9",
		style=dashed];
	32	 [fillcolor=palegreen,
		height=0.94444,
		label="gini = 0.0\nsamples = 3\nvalue = [3, 0, 0, 0, 0]\nclass = 1",
		pos="1293,562.5",
		width=2.3333];
	31 -> 32	 [label="<= 4.25",
		lp="1422.5,629.5",
		op="<=",
		param=4.25,
		pos="e,1340.2,596.5 1421.2,654.84 1398,638.14 1371.4,618.98 1348.5,602.46",
		style=solid];
	33	 [fillcolor=honeydew,
		height=0.94444,
		label="gini = 0.0\nsamples = 2\nvalue = [0, 2, 0, 0, 0]\nclass = 2",
		pos="1479,562.5",
		width=2.3333];
	31 -> 33	 [label="> 4.25",
		lp="1503.5,629.5",
		op=">",
		param=4.25,
		pos="e,1479,596.5 1479,654.84 1479,639.6 1479,622.33 1479,606.87",
		style=solid];
	35	 [fillcolor=palegreen,
		height=1.1528,
		label="Wt\ngini = 0.064\nsamples = 150\nvalue = [145, 0, 0, 5, 0]\nclass = 1",
		pos="1674,562.5",
		width=2.5833];
	34 -> 35	 [label="<= 1434.0",
		lp="1713.5,629.5",
		op="<=",
		param=1434.0,
		pos="e,1674,604.14 1674,654.84 1674,641.98 1674,627.66 1674,614.21",
		style=solid];
	46	 [fillcolor=palegreen,
		height=1.1528,
		label="VHD\ngini = 0.48\nsamples = 5\nvalue = [3, 0, 0, 2, 0]\nclass = 1",
		pos="1869,562.5",
		width=2.3333];
	34 -> 46	 [label="> 1434.0",
		lp="1811.5,629.5",
		op=">",
		param=1434.0,
		pos="e,1808.4,604.14 1734.6,654.84 1755.4,640.59 1778.7,624.56 1800,609.9",
		style=solid];
	36	 [fillcolor=palegreen,
		height=1.1528,
		label="PACE\ngini = 0.041\nsamples = 145\nvalue = [142, 0, 0, 3, 0]\nclass = 1",
		pos="1484,428.5",
		width=2.5833];
	35 -> 36	 [label="<= 132.05",
		lp="1624.5,495.5",
		op="<=",
		param=132.05,
		pos="e,1543,470.14 1614.9,520.84 1594.8,506.66 1572.2,490.7 1551.5,476.09",
		style=solid];
	43	 [fillcolor=palegreen,
		height=1.1528,
		label="HR\ngini = 0.48\nsamples = 5\nvalue = [3, 0, 0, 2, 0]\nclass = 1",
		pos="1679,428.5",
		width=2.3333];
	35 -> 43	 [label="> 132.05",
		lp="1710.5,495.5",
		op=">",
		param=132.05,
		pos="e,1677.4,470.14 1675.6,520.84 1676,507.98 1676.6,493.66 1677.1,480.21",
		style=dashed];
	37	 [fillcolor=palegreen,
		height=0.94444,
		label="gini = 0.0\nsamples = 130\nvalue = [130, 0, 0, 0, 0]\nclass = 1",
		pos="1288,294.5",
		width=2.5833];
	36 -> 37	 [label="<= 0.5",
		lp="1418,361.5",
		op="<=",
		param=0.5,
		pos="e,1337.7,328.5 1423.1,386.84 1398.5,370.07 1370.4,350.82 1346.1,334.24",
		style=solid];
	38	 [fillcolor=palegreen,
		height=1.1528,
		label="TOTP\ngini = 0.32\nsamples = 15\nvalue = [12, 0, 0, 3, 0]\nclass = 1",
		pos="1487,294.5",
		width=2.4583];
	36 -> 38	 [label="> 0.5",
		lp="1506,361.5",
		op=">",
		param=0.5,
		pos="e,1486.1,336.14 1484.9,386.84 1485.2,373.98 1485.5,359.66 1485.8,346.21",
		style=solid];
	39	 [fillcolor=palegreen,
		height=0.94444,
		label="gini = 0.0\nsamples = 11\nvalue = [11, 0, 0, 0, 0]\nclass = 1",
		pos="1418,160.5",
		width=2.4583];
	38 -> 39	 [label="<= 7.25",
		lp="1485.5,227.5",
		op="<=",
		param=7.25,
		pos="e,1435.5,194.5 1465.5,252.84 1457.5,237.17 1448.3,219.33 1440.2,203.53",
		style=solid];
	40	 [fillcolor=mistyrose,
		height=1.1528,
		label="BMI\ngini = 0.375\nsamples = 4\nvalue = [1, 0, 0, 3, 0]\nclass = 4",
		pos="1608,160.5",
		width=2.3333];
	38 -> 40	 [label="> 7.25",
		lp="1576.5,227.5",
		op=">",
		param=7.25,
		pos="e,1570.4,202.14 1524.6,252.84 1536.9,239.22 1550.7,223.97 1563.4,209.85",
		style=solid];
	41	 [fillcolor=mistyrose,
		height=0.94444,
		label="gini = 0.0\nsamples = 3\nvalue = [0, 0, 0, 3, 0]\nclass = 4",
		pos="1515,34",
		width=2.3333];
	40 -> 41	 [label="<= 33.258",
		lp="1601.5,93.5",
		op="<=",
		param=33.258,
		pos="e,1540.1,68.142 1577.3,118.73 1567.3,105.14 1556.2,90.052 1546.2,76.417",
		style=solid];
	42	 [fillcolor=palegreen,
		height=0.94444,
		label="gini = 0.0\nsamples = 1\nvalue = [1, 0, 0, 0, 0]\nclass = 1",
		pos="1701,34",
		width=2.3333];
	40 -> 42	 [label="> 33.258",
		lp="1694.5,93.5",
		op=">",
		param=33.258,
		pos="e,1675.9,68.142 1638.7,118.73 1648.7,105.14 1659.8,90.052 1669.8,76.417",
		style=solid];
	44	 [fillcolor=palegreen,
		height=0.94444,
		label="gini = 0.0\nsamples = 3\nvalue = [3, 0, 0, 0, 0]\nclass = 1",
		pos="1678,294.5",
		width=2.3333];
	43 -> 44	 [label="<= 89.0",
		lp="1709.5,361.5",
		op="<=",
		param=89.0,
		pos="e,1678.3,328.5 1678.7,386.84 1678.6,371.6 1678.4,354.33 1678.3,338.87",
		style=solid];
	45	 [fillcolor=mistyrose,
		height=0.94444,
		label="gini = 0.0\nsamples = 2\nvalue = [0, 0, 0, 2, 0]\nclass = 4",
		pos="1864,294.5",
		width=2.3333];
	43 -> 45	 [label="> 89.0",
		lp="1802.5,361.5",
		op=">",
		param=89.0,
		pos="e,1817.1,328.5 1736.5,386.84 1759.6,370.14 1786,350.98 1808.8,334.46",
		style=solid];
	47	 [fillcolor=palegreen,
		height=0.94444,
		label="gini = 0.0\nsamples = 3\nvalue = [3, 0, 0, 0, 0]\nclass = 1",
		pos="1867,428.5",
		width=2.3333];
	46 -> 47	 [label="<= 0.5",
		lp="1895,495.5",
		op="<=",
		param=0.5,
		pos="e,1867.5,462.5 1868.4,520.84 1868.2,505.6 1867.9,488.33 1867.7,472.87",
		style=solid];
	48	 [fillcolor=mistyrose,
		height=0.94444,
		label="gini = 0.0\nsamples = 2\nvalue = [0, 0, 0, 2, 0]\nclass = 4",
		pos="2053,428.5",
		width=2.3333];
	46 -> 48	 [label="> 0.5",
		lp="1987,495.5",
		op=">",
		param=0.5,
		pos="e,2006.3,462.5 1926.2,520.84 1949.1,504.14 1975.4,484.98 1998.1,468.46",
		style=solid];
	51	 [fillcolor=palegreen,
		height=0.94444,
		label="gini = 0.0\nsamples = 4\nvalue = [4, 0, 0, 0, 0]\nclass = 1",
		pos="1404,1232.5",
		width=2.3333];
	50 -> 51	 [label="<= 0.5",
		lp="1432,1299.5",
		op="<=",
		param=0.5,
		pos="e,1404.5,1266.5 1405.4,1324.8 1405.2,1309.6 1404.9,1292.3 1404.7,1276.9",
		style=solid];
	52	 [fillcolor=mistyrose,
		height=0.94444,
		label="gini = 0.0\nsamples = 6\nvalue = [0, 0, 0, 6, 0]\nclass = 4",
		pos="1590,1232.5",
		width=2.3333];
	50 -> 52	 [label="> 0.5",
		lp="1524,1299.5",
		op=">",
		param=0.5,
		pos="e,1543.3,1266.5 1463.2,1324.8 1486.1,1308.1 1512.4,1289 1535.1,1272.5",
		style=solid];
	54	 [fillcolor=palegreen,
		height=1.1528,
		label="VAHD\ngini = 0.431\nsamples = 51\nvalue = [35, 0, 0, 16, 0]\nclass = 1",
		pos="2153,1634.5",
		width=2.5833];
	53 -> 54	 [label="<= 0.5",
		lp="2216,1701.5",
		op="<=",
		param=0.5,
		pos="e,2174.4,1676.1 2200.5,1726.8 2193.7,1713.6 2186.1,1698.8 2179,1685",
		style=solid];
	65	 [fillcolor=mistyrose,
		height=1.1528,
		label="CRT\ngini = 0.15\nsamples = 49\nvalue = [4, 0, 0, 45, 0]\nclass = 4",
		pos="2352,1634.5",
		width=2.4583];
	53 -> 65	 [label="> 0.5",
		lp="2311,1701.5",
		op=">",
		param=0.5,
		pos="e,2311.6,1676.1 2262.4,1726.8 2275.7,1713.1 2290.7,1697.7 2304.5,1683.5",
		style=solid];
	55	 [fillcolor=palegreen,
		height=1.1528,
		label="SixFtWlk\ngini = 0.17\nsamples = 32\nvalue = [29, 0, 0, 3, 0]\nclass = 1",
		pos="1963,1500.5",
		width=2.4583];
	54 -> 55	 [label="<= 0.5",
		lp="2090,1567.5",
		op="<=",
		param=0.5,
		pos="e,2022,1542.1 2093.9,1592.8 2073.8,1578.7 2051.2,1562.7 2030.5,1548.1",
		style=solid];
	60	 [fillcolor=mistyrose,
		height=1.1528,
		label="SOD\ngini = 0.432\nsamples = 19\nvalue = [6, 0, 0, 13, 0]\nclass = 4",
		pos="2158,1500.5",
		width=2.4583];
	54 -> 60	 [label="> 0.5",
		lp="2176,1567.5",
		op=">",
		param=0.5,
		pos="e,2156.4,1542.1 2154.6,1592.8 2155,1580 2155.6,1565.7 2156.1,1552.2",
		style=dashed];
	56	 [fillcolor=palegreen,
		height=1.1528,
		label="BUN\ngini = 0.064\nsamples = 30\nvalue = [29, 0, 0, 1, 0]\nclass = 1",
		pos="1777,1366.5",
		width=2.4583];
	55 -> 56	 [label="<= 1548.5",
		lp="1915.5,1433.5",
		op="<=",
		param=1548.5,
		pos="e,1834.8,1408.1 1905.2,1458.8 1885.5,1444.7 1863.3,1428.7 1843.1,1414.1",
		style=solid];
	59	 [fillcolor=mistyrose,
		height=0.94444,
		label="gini = 0.0\nsamples = 2\nvalue = [0, 0, 0, 2, 0]\nclass = 4",
		pos="1967,1366.5",
		width=2.3333];
	55 -> 59	 [label="> 1548.5",
		lp="1999.5,1433.5",
		op=">",
		param=1548.5,
		pos="e,1966,1400.5 1964.2,1458.8 1964.7,1443.6 1965.2,1426.3 1965.7,1410.9",
		style=solid];
	57	 [fillcolor=mistyrose,
		height=0.94444,
		label="gini = 0.0\nsamples = 1\nvalue = [0, 0, 0, 1, 0]\nclass = 4",
		pos="1776,1232.5",
		width=2.3333];
	56 -> 57	 [label="<= 12.5",
		lp="1807.5,1299.5",
		op="<=",
		param=12.5,
		pos="e,1776.3,1266.5 1776.7,1324.8 1776.6,1309.6 1776.4,1292.3 1776.3,1276.9",
		style=solid];
	58	 [fillcolor=palegreen,
		height=0.94444,
		label="gini = 0.0\nsamples = 29\nvalue = [29, 0, 0, 0, 0]\nclass = 1",
		pos="1966,1232.5",
		width=2.4583];
	56 -> 58	 [label="> 12.5",
		lp="1902.5,1299.5",
		op=">",
		param=12.5,
		pos="e,1918,1266.5 1835.8,1324.8 1859.3,1308.1 1886.3,1289 1909.6,1272.5",
		style=solid];
	61	 [fillcolor=palegreen,
		height=0.94444,
		label="gini = 0.0\nsamples = 5\nvalue = [5, 0, 0, 0, 0]\nclass = 1",
		pos="2155,1366.5",
		width=2.3333];
	60 -> 61	 [label="<= 134.0",
		lp="2192,1433.5",
		op="<=",
		param=134.0,
		pos="e,2155.8,1400.5 2157.1,1458.8 2156.7,1443.6 2156.3,1426.3 2156,1410.9",
		style=solid];
	62	 [fillcolor=mistyrose,
		height=1.1528,
		label="StrokeTIA\ngini = 0.133\nsamples = 14\nvalue = [1, 0, 0, 13, 0]\nclass = 4",
		pos="2345,1366.5",
		width=2.4583];
	60 -> 62	 [label="> 134.0",
		lp="2287,1433.5",
		op=">",
		param=134.0,
		pos="e,2286.9,1408.1 2216.1,1458.8 2235.9,1444.7 2258.2,1428.7 2278.6,1414.1",
		style=solid];
	63	 [fillcolor=mistyrose,
		height=0.94444,
		label="gini = 0.0\nsamples = 13\nvalue = [0, 0, 0, 13, 0]\nclass = 4",
		pos="2161,1232.5",
		width=2.4583];
	62 -> 63	 [label="<= 0.5",
		lp="2285,1299.5",
		op="<=",
		param=0.5,
		pos="e,2207.7,1266.5 2287.8,1324.8 2264.9,1308.1 2238.6,1289 2215.9,1272.5",
		style=solid];
	64	 [fillcolor=palegreen,
		height=0.94444,
		label="gini = 0.0\nsamples = 1\nvalue = [1, 0, 0, 0, 0]\nclass = 1",
		pos="2351,1232.5",
		width=2.3333];
	62 -> 64	 [label="> 0.5",
		lp="2369,1299.5",
		op=">",
		param=0.5,
		pos="e,2349.5,1266.5 2346.9,1324.8 2347.5,1309.6 2348.3,1292.3 2349,1276.9",
		style=solid];
	66	 [fillcolor=palegreen,
		height=0.94444,
		label="gini = 0.0\nsamples = 2\nvalue = [2, 0, 0, 0, 0]\nclass = 1",
		pos="2350,1500.5",
		width=2.3333];
	65 -> 66	 [label="<= 0.35",
		lp="2382.5,1567.5",
		op="<=",
		param=0.35,
		pos="e,2350.5,1534.5 2351.4,1592.8 2351.2,1577.6 2350.9,1560.3 2350.7,1544.9",
		style=solid];
	67	 [fillcolor=mistyrose,
		height=1.1528,
		label="PPP\ngini = 0.081\nsamples = 47\nvalue = [2, 0, 0, 45, 0]\nclass = 4",
		pos="2540,1500.5",
		width=2.4583];
	65 -> 67	 [label="> 0.35",
		lp="2476.5,1567.5",
		op=">",
		param=0.35,
		pos="e,2481.6,1542.1 2410.5,1592.8 2430.3,1578.7 2452.7,1562.7 2473.2,1548.1",
		style=solid];
	68	 [fillcolor=palegreen,
		height=0.94444,
		label="gini = 0.0\nsamples = 1\nvalue = [1, 0, 0, 0, 0]\nclass = 1",
		pos="2536,1366.5",
		width=2.3333];
	67 -> 68	 [label="<= 0.261",
		lp="2574,1433.5",
		op="<=",
		param=0.261,
		pos="e,2537,1400.5 2538.8,1458.8 2538.3,1443.6 2537.8,1426.3 2537.3,1410.9",
		style=solid];
	69	 [fillcolor=mistyrose,
		height=1.1528,
		label="BUN\ngini = 0.043\nsamples = 46\nvalue = [1, 0, 0, 45, 0]\nclass = 4",
		pos="2726,1366.5",
		width=2.4583];
	67 -> 69	 [label="> 0.261",
		lp="2668,1433.5",
		op=">",
		param=0.261,
		pos="e,2668.2,1408.1 2597.8,1458.8 2617.5,1444.7 2639.7,1428.7 2659.9,1414.1",
		style=solid];
	70	 [fillcolor=mistyrose,
		height=1.1528,
		label="NIT\ngini = 0.444\nsamples = 3\nvalue = [1, 0, 0, 2, 0]\nclass = 4",
		pos="2537,1232.5",
		width=2.3333];
	69 -> 70	 [label="<= 14.5",
		lp="2668.5,1299.5",
		op="<=",
		param=14.5,
		pos="e,2595.7,1274.1 2667.2,1324.8 2647.2,1310.7 2624.7,1294.7 2604.1,1280.1",
		style=solid];
	73	 [fillcolor=mistyrose,
		height=0.94444,
		label="gini = 0.0\nsamples = 43\nvalue = [0, 0, 0, 43, 0]\nclass = 4",
		pos="2727,1232.5",
		width=2.4583];
	69 -> 73	 [label="> 14.5",
		lp="2751.5,1299.5",
		op=">",
		param=14.5,
		pos="e,2726.7,1266.5 2726.3,1324.8 2726.4,1309.6 2726.6,1292.3 2726.7,1276.9",
		style=solid];
	71	 [fillcolor=mistyrose,
		height=0.94444,
		label="gini = 0.0\nsamples = 2\nvalue = [0, 0, 0, 2, 0]\nclass = 4",
		pos="2352,1098.5",
		width=2.3333];
	70 -> 71	 [label="<= 0.5",
		lp="2477,1165.5",
		op="<=",
		param=0.5,
		pos="e,2398.9,1132.5 2479.5,1190.8 2456.4,1174.1 2430,1155 2407.2,1138.5",
		style=solid];
	72	 [fillcolor=palegreen,
		height=0.94444,
		label="gini = 0.0\nsamples = 1\nvalue = [1, 0, 0, 0, 0]\nclass = 1",
		pos="2538,1098.5",
		width=2.3333];
	70 -> 72	 [label="> 0.5",
		lp="2558,1165.5",
		op=">",
		param=0.5,
		pos="e,2537.7,1132.5 2537.3,1190.8 2537.4,1175.6 2537.6,1158.3 2537.7,1142.9",
		style=solid];
	75	 [fillcolor=mistyrose,
		height=1.1528,
		label="PTCI\ngini = 0.435\nsamples = 194\nvalue = [55, 2, 0, 135, 2]\nclass = 4",
		pos="4623,1768.5",
		width=2.7083];
	74 -> 75	 [label="<= 0.5",
		lp="4649,1835.5",
		op="<=",
		param=0.5,
		pos="e,4623,1810.1 4623,1860.8 4623,1848 4623,1833.7 4623,1820.2",
		style=solid];
	130	 [fillcolor=mistyrose,
		height=1.1528,
		label="DIUR\ngini = 0.113\nsamples = 202\nvalue = [8, 1, 0, 190, 3]\nclass = 4",
		pos="5538,1768.5",
		width=2.5833];
	74 -> 130	 [label="> 0.5",
		lp="5128,1835.5",
		op=">",
		param=0.5,
		pos="e,5444.9,1782.1 4720.9,1888.2 4895,1862.7 5256.9,1809.7 5434.7,1783.6",
		style=solid];
	76	 [fillcolor=mistyrose,
		height=1.1528,
		label="HTN\ngini = 0.516\nsamples = 117\nvalue = [49, 1, 0, 65, 2]\nclass = 4",
		pos="4513,1634.5",
		width=2.5833];
	75 -> 76	 [label="<= 0.5",
		lp="4598,1701.5",
		op="<=",
		param=0.5,
		pos="e,4547.2,1676.1 4588.8,1726.8 4577.7,1713.3 4565.3,1698.3 4553.8,1684.2",
		style=solid];
	115	 [fillcolor=mistyrose,
		height=1.1528,
		label="BMI\ngini = 0.167\nsamples = 77\nvalue = [6, 1, 0, 70, 0]\nclass = 4",
		pos="4782,1634.5",
		width=2.4583];
	75 -> 115	 [label="> 0.5",
		lp="4728,1701.5",
		op=">",
		param=0.5,
		pos="e,4732.6,1676.1 4672.4,1726.8 4689,1712.8 4707.7,1697.1 4724.8,1682.7",
		style=solid];
	77	 [fillcolor=palegreen,
		height=1.1528,
		label="TOTP\ngini = 0.518\nsamples = 68\nvalue = [40, 1, 0, 25, 2]\nclass = 1",
		pos="3732,1500.5",
		width=2.5833];
	76 -> 77	 [label="<= 0.5",
		lp="4172,1567.5",
		op="<=",
		param=0.5,
		pos="e,3825,1516.5 4420,1618.5 4272.9,1593.3 3987.9,1544.4 3834.9,1518.2",
		style=solid];
	102	 [fillcolor=mistyrose,
		height=1.1528,
		label="Wt\ngini = 0.3\nsamples = 49\nvalue = [9, 0, 0, 40, 0]\nclass = 4",
		pos="4513,1500.5",
		width=2.4583];
	76 -> 102	 [label="> 0.5",
		lp="4533,1567.5",
		op=">",
		param=0.5,
		pos="e,4513,1542.1 4513,1592.8 4513,1580 4513,1565.7 4513,1552.2",
		style=solid];
	78	 [fillcolor=palegreen,
		height=1.1528,
		label="AF\ngini = 0.338\nsamples = 35\nvalue = [28, 1, 0, 5, 1]\nclass = 1",
		pos="3200,1366.5",
		width=2.4583];
	77 -> 78	 [label="<= 5.45",
		lp="3512.5,1433.5",
		op="<=",
		param=5.45,
		pos="e,3288.7,1388.9 3638.7,1477 3543.4,1453 3395.8,1415.8 3298.6,1391.3",
		style=solid];
	91	 [fillcolor=mistyrose,
		height=1.1528,
		label="Wt\ngini = 0.5\nsamples = 33\nvalue = [12, 0, 0, 20, 1]\nclass = 4",
		pos="3732,1366.5",
		width=2.5833];
	77 -> 91	 [label="> 5.45",
		lp="3756.5,1433.5",
		op=">",
		param=5.45,
		pos="e,3732,1408.1 3732,1458.8 3732,1446 3732,1431.7 3732,1418.2",
		style=solid];
	79	 [fillcolor=palegreen,
		height=1.1528,
		label="VHD\ngini = 0.235\nsamples = 31\nvalue = [27, 1, 0, 2, 1]\nclass = 1",
		pos="2922,1232.5",
		width=2.4583];
	78 -> 79	 [label="<= 0.5",
		lp="3096,1299.5",
		op="<=",
		param=0.5,
		pos="e,3008.4,1274.1 3113.6,1324.8 3083.1,1310.2 3048.7,1293.6 3017.5,1278.5",
		style=dashed];
	88	 [fillcolor=mistyrose,
		height=1.1528,
		label="SOD\ngini = 0.375\nsamples = 4\nvalue = [1, 0, 0, 3, 0]\nclass = 4",
		pos="3200,1232.5",
		width=2.3333];
	78 -> 88	 [label="> 0.5",
		lp="3220,1299.5",
		op=">",
		param=0.5,
		pos="e,3200,1274.1 3200,1324.8 3200,1312 3200,1297.7 3200,1284.2",
		style=dashed];
	80	 [fillcolor=palegreen,
		height=1.1528,
		label="ACE\ngini = 0.135\nsamples = 28\nvalue = [26, 1, 0, 0, 1]\nclass = 1",
		pos="2730,1098.5",
		width=2.4583];
	79 -> 80	 [label="<= 0.5",
		lp="2858,1165.5",
		op="<=",
		param=0.5,
		pos="e,2789.7,1140.1 2862.3,1190.8 2841.9,1176.6 2818.9,1160.6 2797.9,1145.9",
		style=dashed];
	85	 [fillcolor=mistyrose,
		height=1.1528,
		label="InitialHospDays\ngini = 0.444\nsamples = 3\nvalue = [1, 0, 0, 2, 0]\nclass = 4",
		pos="2920,1098.5",
		width=2.3333];
	79 -> 85	 [label="> 0.5",
		lp="2942,1165.5",
		op=">",
		param=0.5,
		pos="e,2920.6,1140.1 2921.4,1190.8 2921.2,1178 2921,1163.7 2920.8,1150.2",
		style=solid];
	81	 [fillcolor=honeydew,
		height=1.1528,
		label="CRT\ngini = 0.5\nsamples = 2\nvalue = [0, 1, 0, 0, 1]\nclass = 2",
		pos="2540,964.5",
		width=2.3333];
	80 -> 81	 [label="<= 0.5",
		lp="2667,1031.5",
		op="<=",
		param=0.5,
		pos="e,2599,1006.1 2670.9,1056.8 2650.8,1042.7 2628.2,1026.7 2607.5,1012.1",
		style=solid];
	84	 [fillcolor=palegreen,
		height=0.94444,
		label="gini = 0.0\nsamples = 26\nvalue = [26, 0, 0, 0, 0]\nclass = 1",
		pos="2730,964.5",
		width=2.4583];
	80 -> 84	 [label="> 0.5",
		lp="2750,1031.5",
		op=">",
		param=0.5,
		pos="e,2730,998.5 2730,1056.8 2730,1041.6 2730,1024.3 2730,1008.9",
		style=solid];
	82	 [fillcolor=honeydew,
		height=0.94444,
		label="gini = 0.0\nsamples = 1\nvalue = [0, 1, 0, 0, 0]\nclass = 2",
		pos="2447,830.5",
		width=2.3333];
	81 -> 82	 [label="<= 1.4",
		lp="2523,897.5",
		op="<=",
		param=1.4,
		pos="e,2470.6,864.5 2511.1,922.84 2500.1,907.02 2487.6,888.99 2476.6,873.09",
		style=solid];
	83	 [fillcolor=lightcoral,
		height=0.94444,
		label="gini = 0.0\nsamples = 1\nvalue = [0, 0, 0, 0, 1]\nclass = 5",
		pos="2633,830.5",
		width=2.3333];
	81 -> 83	 [label="> 1.4",
		lp="2610,897.5",
		op=">",
		param=1.4,
		pos="e,2609.4,864.5 2568.9,922.84 2579.9,907.02 2592.4,888.99 2603.4,873.09",
		style=solid];
	86	 [fillcolor=mistyrose,
		height=0.94444,
		label="gini = 0.0\nsamples = 2\nvalue = [0, 0, 0, 2, 0]\nclass = 4",
		pos="2920,964.5",
		width=2.3333];
	85 -> 86	 [label="<= 16.5",
		lp="2950.5,1031.5",
		op="<=",
		param=16.5,
		pos="e,2920,998.5 2920,1056.8 2920,1041.6 2920,1024.3 2920,1008.9",
		style=solid];
	87	 [fillcolor=palegreen,
		height=0.94444,
		label="gini = 0.0\nsamples = 1\nvalue = [1, 0, 0, 0, 0]\nclass = 1",
		pos="3106,964.5",
		width=2.3333];
	85 -> 87	 [label="> 16.5",
		lp="3043.5,1031.5",
		op=">",
		param=16.5,
		pos="e,3058.8,998.5 2977.8,1056.8 3001,1040.1 3027.6,1021 3050.5,1004.5",
		style=solid];
	89	 [fillcolor=mistyrose,
		height=0.94444,
		label="gini = 0.0\nsamples = 3\nvalue = [0, 0, 0, 3, 0]\nclass = 4",
		pos="3106,1098.5",
		width=2.3333];
	88 -> 89	 [label="<= 135.0",
		lp="3191,1165.5",
		op="<=",
		param=135.0,
		pos="e,3129.9,1132.5 3170.8,1190.8 3159.7,1175 3147,1157 3135.9,1141.1",
		style=solid];
	90	 [fillcolor=palegreen,
		height=0.94444,
		label="gini = 0.0\nsamples = 1\nvalue = [1, 0, 0, 0, 0]\nclass = 1",
		pos="3292,1098.5",
		width=2.3333];
	88 -> 90	 [label="> 135.0",
		lp="3278,1165.5",
		op=">",
		param=135.0,
		pos="e,3268.7,1132.5 3228.6,1190.8 3239.5,1175 3251.8,1157 3262.8,1141.1",
		style=solid];
	92	 [fillcolor=mistyrose,
		height=1.1528,
		label="HR\ngini = 0.401\nsamples = 27\nvalue = [6, 0, 0, 20, 1]\nclass = 4",
		pos="3617,1232.5",
		width=2.4583];
	91 -> 92	 [label="<= 106.477",
		lp="3720,1299.5",
		op="<=",
		param=106.477,
		pos="e,3649.2,1274.4 3692.1,1325 3686.6,1319 3681.1,1312.9 3676,1307 3669.2,1299.1 3662.2,1290.7 3655.5,1282.3",
		style=dashed];
	101	 [fillcolor=palegreen,
		height=0.94444,
		label="gini = 0.0\nsamples = 6\nvalue = [6, 0, 0, 0, 0]\nclass = 1",
		pos="3807,1232.5",
		width=2.3333];
	91 -> 101	 [label="> 106.477",
		lp="3810,1299.5",
		op=">",
		param=106.477,
		pos="e,3788,1266.5 3755.3,1324.8 3764.1,1309.2 3774.1,1291.3 3782.9,1275.5",
		style=solid];
	93	 [fillcolor=mistyrose,
		height=1.1528,
		label="HEM\ngini = 0.227\nsamples = 23\nvalue = [3, 0, 0, 20, 0]\nclass = 4",
		pos="3482,1098.5",
		width=2.4583];
	92 -> 93	 [label="<= 92.5",
		lp="3584.5,1165.5",
		op="<=",
		param=92.5,
		pos="e,3523.9,1140.1 3575,1190.8 3561.2,1177.1 3545.7,1161.7 3531.3,1147.5",
		style=dashed];
	98	 [fillcolor=palegreen,
		height=1.1528,
		label="NYHA\ngini = 0.375\nsamples = 4\nvalue = [3, 0, 0, 0, 1]\nclass = 1",
		pos="3672,1098.5",
		width=2.3333];
	92 -> 98	 [label="> 92.5",
		lp="3671.5,1165.5",
		op=">",
		param=92.5,
		pos="e,3654.9,1140.1 3634.1,1190.8 3639.5,1177.7 3645.5,1163.1 3651.1,1149.4",
		style=solid];
	94	 [fillcolor=mistyrose,
		height=0.94444,
		label="gini = 0.0\nsamples = 18\nvalue = [0, 0, 0, 18, 0]\nclass = 4",
		pos="3296,964.5",
		width=2.4583];
	93 -> 94	 [label="<= 14.0",
		lp="3425.5,1031.5",
		op="<=",
		param=14.0,
		pos="e,3343.2,998.5 3424.2,1056.8 3401,1040.1 3374.4,1021 3351.5,1004.5",
		style=solid];
	95	 [fillcolor=palegreen,
		height=1.1528,
		label="TALB\ngini = 0.48\nsamples = 5\nvalue = [3, 0, 0, 2, 0]\nclass = 1",
		pos="3486,964.5",
		width=2.3333];
	93 -> 95	 [label="> 14.0",
		lp="3509.5,1031.5",
		op=">",
		param=14.0,
		pos="e,3484.8,1006.1 3483.2,1056.8 3483.6,1044 3484.1,1029.7 3484.5,1016.2",
		style=solid];
	96	 [fillcolor=mistyrose,
		height=0.94444,
		label="gini = 0.0\nsamples = 2\nvalue = [0, 0, 0, 2, 0]\nclass = 4",
		pos="3393,830.5",
		width=2.3333];
	95 -> 96	 [label="<= 1.45",
		lp="3473.5,897.5",
		op="<=",
		param=1.45,
		pos="e,3416.6,864.5 3457.1,922.84 3446.1,907.02 3433.6,888.99 3422.6,873.09",
		style=solid];
	97	 [fillcolor=palegreen,
		height=0.94444,
		label="gini = 0.0\nsamples = 3\nvalue = [3, 0, 0, 0, 0]\nclass = 1",
		pos="3579,830.5",
		width=2.3333];
	95 -> 97	 [label="> 1.45",
		lp="3560.5,897.5",
		op=">",
		param=1.45,
		pos="e,3555.4,864.5 3514.9,922.84 3525.9,907.02 3538.4,888.99 3549.4,873.09",
		style=solid];
	99	 [fillcolor=lightcoral,
		height=0.94444,
		label="gini = 0.0\nsamples = 1\nvalue = [0, 0, 0, 0, 1]\nclass = 5",
		pos="3672,964.5",
		width=2.3333];
	98 -> 99	 [label="<= 3.5",
		lp="3698,1031.5",
		op="<=",
		param=3.5,
		pos="e,3672,998.5 3672,1056.8 3672,1041.6 3672,1024.3 3672,1008.9",
		style=solid];
	100	 [fillcolor=palegreen,
		height=0.94444,
		label="gini = 0.0\nsamples = 3\nvalue = [3, 0, 0, 0, 0]\nclass = 1",
		pos="3858,964.5",
		width=2.3333];
	98 -> 100	 [label="> 3.5",
		lp="3791,1031.5",
		op=">",
		param=3.5,
		pos="e,3810.8,998.5 3729.8,1056.8 3753,1040.1 3779.6,1021 3802.5,1004.5",
		style=solid];
	103	 [fillcolor=palegreen,
		height=1.1528,
		label="ANGP\ngini = 0.49\nsamples = 14\nvalue = [8, 0, 0, 6, 0]\nclass = 1",
		pos="4329,1366.5",
		width=2.3333];
	102 -> 103	 [label="<= 71.095",
		lp="4466.5,1433.5",
		op="<=",
		param=71.095,
		pos="e,4386.2,1408.1 4455.8,1458.8 4436.3,1444.7 4414.4,1428.7 4394.3,1414.1",
		style=solid];
	110	 [fillcolor=mistyrose,
		height=1.1528,
		label="MLHFS\ngini = 0.056\nsamples = 35\nvalue = [1, 0, 0, 34, 0]\nclass = 4",
		pos="4589,1366.5",
		width=2.4583];
	102 -> 110	 [label="> 71.095",
		lp="4587.5,1433.5",
		op=">",
		param=71.095,
		pos="e,4565.4,1408.1 4536.6,1458.8 4544.1,1445.6 4552.5,1430.8 4560.3,1417",
		style=solid];
	104	 [fillcolor=palegreen,
		height=1.1528,
		label="PPRatio\ngini = 0.219\nsamples = 8\nvalue = [7, 0, 0, 1, 0]\nclass = 1",
		pos="4044,1232.5",
		width=2.3333];
	103 -> 104	 [label="<= 0.5",
		lp="4222,1299.5",
		op="<=",
		param=0.5,
		pos="e,4128.1,1272.1 4244.6,1326.8 4210.9,1311 4171.9,1292.6 4137.3,1276.4",
		style=solid];
	107	 [fillcolor=mistyrose,
		height=1.1528,
		label="InitialHospDays\ngini = 0.278\nsamples = 6\nvalue = [1, 0, 0, 5, 0]\nclass = 4",
		pos="4329,1232.5",
		width=2.3333];
	103 -> 107	 [label="> 0.5",
		lp="4349,1299.5",
		op=">",
		param=0.5,
		pos="e,4329,1274.1 4329,1324.8 4329,1312 4329,1297.7 4329,1284.2",
		style=solid];
	105	 [fillcolor=palegreen,
		height=0.94444,
		label="gini = 0.0\nsamples = 7\nvalue = [7, 0, 0, 0, 0]\nclass = 1",
		pos="3858,1098.5",
		width=2.3333];
	104 -> 105	 [label="<= 0.644",
		lp="3992,1165.5",
		op="<=",
		param=0.644,
		pos="e,3905.2,1132.5 3986.2,1190.8 3963,1174.1 3936.4,1155 3913.5,1138.5",
		style=solid];
	106	 [fillcolor=mistyrose,
		height=0.94444,
		label="gini = 0.0\nsamples = 1\nvalue = [0, 0, 0, 1, 0]\nclass = 4",
		pos="4044,1098.5",
		width=2.3333];
	104 -> 106	 [label="> 0.644",
		lp="4073,1165.5",
		op=">",
		param=0.644,
		pos="e,4044,1132.5 4044,1190.8 4044,1175.6 4044,1158.3 4044,1142.9",
		style=solid];
	108	 [fillcolor=palegreen,
		height=0.94444,
		label="gini = 0.0\nsamples = 1\nvalue = [1, 0, 0, 0, 0]\nclass = 1",
		pos="4230,1098.5",
		width=2.3333];
	107 -> 108	 [label="<= 4.5",
		lp="4309,1165.5",
		op="<=",
		param=4.5,
		pos="e,4255.1,1132.5 4298.2,1190.8 4286.4,1174.9 4273,1156.7 4261.1,1140.7",
		style=solid];
	109	 [fillcolor=mistyrose,
		height=0.94444,
		label="gini = 0.0\nsamples = 5\nvalue = [0, 0, 0, 5, 0]\nclass = 4",
		pos="4416,1098.5",
		width=2.3333];
	107 -> 109	 [label="> 4.5",
		lp="4396,1165.5",
		op=">",
		param=4.5,
		pos="e,4393.9,1132.5 4356.1,1190.8 4366.3,1175 4378,1157 4388.3,1141.1",
		style=solid];
	111	 [fillcolor=palegreen,
		height=1.1528,
		label="CRT\ngini = 0.5\nsamples = 2\nvalue = [1, 0, 0, 1, 0]\nclass = 1",
		pos="4589,1232.5",
		width=2.3333];
	110 -> 111	 [label="<= 40.0",
		lp="4619.5,1299.5",
		op="<=",
		param=40.0,
		pos="e,4589,1274.1 4589,1324.8 4589,1312 4589,1297.7 4589,1284.2",
		style=solid];
	114	 [fillcolor=mistyrose,
		height=0.94444,
		label="gini = 0.0\nsamples = 33\nvalue = [0, 0, 0, 33, 0]\nclass = 4",
		pos="4779,1232.5",
		width=2.4583];
	110 -> 114	 [label="> 40.0",
		lp="4714.5,1299.5",
		op=">",
		param=40.0,
		pos="e,4730.8,1266.5 4648.1,1324.8 4671.7,1308.1 4698.9,1289 4722.3,1272.5",
		style=solid];
	112	 [fillcolor=mistyrose,
		height=0.94444,
		label="gini = 0.0\nsamples = 1\nvalue = [0, 0, 0, 1, 0]\nclass = 4",
		pos="4602,1098.5",
		width=2.3333];
	111 -> 112	 [label="<= 0.75",
		lp="4626.5,1165.5",
		op="<=",
		param=0.75,
		pos="e,4598.7,1132.5 4593,1190.8 4594.5,1175.6 4596.2,1158.3 4597.7,1142.9",
		style=solid];
	113	 [fillcolor=palegreen,
		height=0.94444,
		label="gini = 0.0\nsamples = 1\nvalue = [1, 0, 0, 0, 0]\nclass = 1",
		pos="4788,1098.5",
		width=2.3333];
	111 -> 113	 [label="> 0.75",
		lp="4719.5,1165.5",
		op=">",
		param=0.75,
		pos="e,4737.5,1132.5 4650.9,1190.8 4675.8,1174.1 4704.4,1154.8 4729,1138.2",
		style=solid];
	116	 [fillcolor=mistyrose,
		height=1.1528,
		label="Age\ngini = 0.126\nsamples = 75\nvalue = [4, 1, 0, 70, 0]\nclass = 4",
		pos="4782,1500.5",
		width=2.4583];
	115 -> 116	 [label="<= 39.444",
		lp="4821.5,1567.5",
		op="<=",
		param=39.444,
		pos="e,4782,1542.1 4782,1592.8 4782,1580 4782,1565.7 4782,1552.2",
		style=solid];
	129	 [fillcolor=palegreen,
		height=0.94444,
		label="gini = 0.0\nsamples = 2\nvalue = [2, 0, 0, 0, 0]\nclass = 1",
		pos="4972,1500.5",
		width=2.3333];
	115 -> 129	 [label="> 39.444",
		lp="4916.5,1567.5",
		op=">",
		param=39.444,
		pos="e,4923.8,1534.5 4841.1,1592.8 4864.7,1576.1 4891.9,1557 4915.3,1540.5",
		style=solid];
	117	 [fillcolor=palegreen,
		height=0.94444,
		label="gini = 0.0\nsamples = 2\nvalue = [2, 0, 0, 0, 0]\nclass = 1",
		pos="4782,1366.5",
		width=2.3333];
	116 -> 117	 [label="<= 40.0",
		lp="4812.5,1433.5",
		op="<=",
		param=40.0,
		pos="e,4782,1400.5 4782,1458.8 4782,1443.6 4782,1426.3 4782,1410.9",
		style=solid];
	118	 [fillcolor=mistyrose,
		height=1.1528,
		label="SixFtWlk\ngini = 0.08\nsamples = 73\nvalue = [2, 1, 0, 70, 0]\nclass = 4",
		pos="4974,1366.5",
		width=2.4583];
	116 -> 118	 [label="> 40.0",
		lp="4908.5,1433.5",
		op=">",
		param=40.0,
		pos="e,4914.3,1408.1 4841.7,1458.8 4862.1,1444.6 4885.1,1428.6 4906.1,1413.9",
		style=solid];
	119	 [fillcolor=mistyrose,
		height=1.1528,
		label="DIUR\ngini = 0.054\nsamples = 72\nvalue = [2, 0, 0, 70, 0]\nclass = 4",
		pos="4974,1232.5",
		width=2.4583];
	118 -> 119	 [label="<= 1444.84",
		lp="5018,1299.5",
		op="<=",
		param=1444.84,
		pos="e,4974,1274.1 4974,1324.8 4974,1312 4974,1297.7 4974,1284.2",
		style=solid];
	128	 [fillcolor=honeydew,
		height=0.94444,
		label="gini = 0.0\nsamples = 1\nvalue = [0, 1, 0, 0, 0]\nclass = 2",
		pos="5164,1232.5",
		width=2.3333];
	118 -> 128	 [label="> 1444.84",
		lp="5124,1299.5",
		op=">",
		param=1444.84,
		pos="e,5120.6,1266.6 5039.7,1324.8 5048.6,1319 5057.6,1312.9 5066,1307 5081.3,1296.2 5097.7,1284.1 5112.5,1272.8",
		style=solid];
	120	 [fillcolor=palegreen,
		height=1.1528,
		label="VHD\ngini = 0.5\nsamples = 2\nvalue = [1, 0, 0, 1, 0]\nclass = 1",
		pos="4974,1098.5",
		width=2.3333];
	119 -> 120	 [label="<= 0.5",
		lp="5000,1165.5",
		op="<=",
		param=0.5,
		pos="e,4974,1140.1 4974,1190.8 4974,1178 4974,1163.7 4974,1150.2",
		style=dashed];
	123	 [fillcolor=mistyrose,
		height=1.1528,
		label="POT\ngini = 0.028\nsamples = 70\nvalue = [1, 0, 0, 69, 0]\nclass = 4",
		pos="5164,1098.5",
		width=2.4583];
	119 -> 123	 [label="> 0.5",
		lp="5095,1165.5",
		op=">",
		param=0.5,
		pos="e,5105,1140.1 5033.1,1190.8 5053.2,1176.7 5075.8,1160.7 5096.5,1146.1",
		style=solid];
	121	 [fillcolor=palegreen,
		height=0.94444,
		label="gini = 0.0\nsamples = 1\nvalue = [1, 0, 0, 0, 0]\nclass = 1",
		pos="4788,964.5",
		width=2.3333];
	120 -> 121	 [label="<= 0.5",
		lp="4913,1031.5",
		op="<=",
		param=0.5,
		pos="e,4835.2,998.5 4916.2,1056.8 4893,1040.1 4866.4,1021 4843.5,1004.5",
		style=solid];
	122	 [fillcolor=mistyrose,
		height=0.94444,
		label="gini = 0.0\nsamples = 1\nvalue = [0, 0, 0, 1, 0]\nclass = 4",
		pos="4974,964.5",
		width=2.3333];
	120 -> 122	 [label="> 0.5",
		lp="4994,1031.5",
		op=">",
		param=0.5,
		pos="e,4974,998.5 4974,1056.8 4974,1041.6 4974,1024.3 4974,1008.9",
		style=solid];
	124	 [fillcolor=mistyrose,
		height=0.94444,
		label="gini = 0.0\nsamples = 67\nvalue = [0, 0, 0, 67, 0]\nclass = 4",
		pos="5164,964.5",
		width=2.4583];
	123 -> 124	 [label="<= 5.45",
		lp="5194.5,1031.5",
		op="<=",
		param=5.45,
		pos="e,5164,998.5 5164,1056.8 5164,1041.6 5164,1024.3 5164,1008.9",
		style=solid];
	125	 [fillcolor=mistyrose,
		height=1.1528,
		label="TotalHospDays\ngini = 0.444\nsamples = 3\nvalue = [1, 0, 0, 2, 0]\nclass = 4",
		pos="5354,964.5",
		width=2.3333];
	123 -> 125	 [label="> 5.45",
		lp="5289.5,1031.5",
		op=">",
		param=5.45,
		pos="e,5295,1006.1 5223.1,1056.8 5243.2,1042.7 5265.8,1026.7 5286.5,1012.1",
		style=solid];
	126	 [fillcolor=palegreen,
		height=0.94444,
		label="gini = 0.0\nsamples = 1\nvalue = [1, 0, 0, 0, 0]\nclass = 1",
		pos="5261,830.5",
		width=2.3333];
	125 -> 126	 [label="<= 12.5",
		lp="5341.5,897.5",
		op="<=",
		param=12.5,
		pos="e,5284.6,864.5 5325.1,922.84 5314.1,907.02 5301.6,888.99 5290.6,873.09",
		style=solid];
	127	 [fillcolor=mistyrose,
		height=0.94444,
		label="gini = 0.0\nsamples = 2\nvalue = [0, 0, 0, 2, 0]\nclass = 4",
		pos="5447,830.5",
		width=2.3333];
	125 -> 127	 [label="> 12.5",
		lp="5428.5,897.5",
		op=">",
		param=12.5,
		pos="e,5423.4,864.5 5382.9,922.84 5393.9,907.02 5406.4,888.99 5417.4,873.09",
		style=solid];
	131	 [fillcolor=mistyrose,
		height=1.1528,
		label="ACE\ngini = 0.688\nsamples = 8\nvalue = [1, 1, 0, 3, 3]\nclass = 4",
		pos="5538,1634.5",
		width=2.3333];
	130 -> 131	 [label="<= 0.5",
		lp="5564,1701.5",
		op="<=",
		param=0.5,
		pos="e,5538,1676.1 5538,1726.8 5538,1714 5538,1699.7 5538,1686.2",
		style=dashed];
	138	 [fillcolor=mistyrose,
		height=1.1528,
		label="MAP\ngini = 0.07\nsamples = 194\nvalue = [7, 0, 0, 187, 0]\nclass = 4",
		pos="5842,1634.5",
		width=2.5833];
	130 -> 138	 [label="> 0.5",
		lp="5720,1701.5",
		op=">",
		param=0.5,
		pos="e,5748.9,1675.5 5631.3,1727.4 5665.6,1712.3 5704.6,1695.1 5739.6,1679.6",
		style=solid];
	132	 [fillcolor=lightcoral,
		height=1.1528,
		label="BUN\ngini = 0.56\nsamples = 5\nvalue = [1, 1, 0, 0, 3]\nclass = 5",
		pos="5400,1500.5",
		width=2.3333];
	131 -> 132	 [label="<= 0.5",
		lp="5500,1567.5",
		op="<=",
		param=0.5,
		pos="e,5442.9,1542.1 5495.1,1592.8 5480.9,1579.1 5465.1,1563.7 5450.4,1549.5",
		style=solid];
	137	 [fillcolor=mistyrose,
		height=0.94444,
		label="gini = 0.0\nsamples = 3\nvalue = [0, 0, 0, 3, 0]\nclass = 4",
		pos="5586,1500.5",
		width=2.3333];
	131 -> 137	 [label="> 0.5",
		lp="5584,1567.5",
		op=">",
		param=0.5,
		pos="e,5573.8,1534.5 5552.9,1592.8 5558.5,1577.3 5564.8,1559.7 5570.4,1544",
		style=solid];
	133	 [fillcolor=palegreen,
		height=1.1528,
		label="TotalHospDays\ngini = 0.5\nsamples = 2\nvalue = [1, 1, 0, 0, 0]\nclass = 1",
		pos="5350,1366.5",
		width=2.3333];
	132 -> 133	 [label="<= 15.5",
		lp="5407.5,1433.5",
		op="<=",
		param=15.5,
		pos="e,5365.5,1408.1 5384.5,1458.8 5379.6,1445.9 5374.2,1431.4 5369.1,1417.8",
		style=dashed];
	136	 [fillcolor=lightcoral,
		height=0.94444,
		label="gini = 0.0\nsamples = 3\nvalue = [0, 0, 0, 0, 3]\nclass = 5",
		pos="5536,1366.5",
		width=2.3333];
	132 -> 136	 [label="> 15.5",
		lp="5497.5,1433.5",
		op=">",
		param=15.5,
		pos="e,5501.5,1400.5 5442.3,1458.8 5458.8,1442.6 5477.7,1424 5494.1,1407.8",
		style=solid];
	134	 [fillcolor=honeydew,
		height=0.94444,
		label="gini = 0.0\nsamples = 1\nvalue = [0, 1, 0, 0, 0]\nclass = 2",
		pos="5350,1232.5",
		width=2.3333];
	133 -> 134	 [label="<= 4.5",
		lp="5376,1299.5",
		op="<=",
		param=4.5,
		pos="e,5350,1266.5 5350,1324.8 5350,1309.6 5350,1292.3 5350,1276.9",
		style=solid];
	135	 [fillcolor=palegreen,
		height=0.94444,
		label="gini = 0.0\nsamples = 1\nvalue = [1, 0, 0, 0, 0]\nclass = 1",
		pos="5536,1232.5",
		width=2.3333];
	133 -> 135	 [label="> 4.5",
		lp="5469,1299.5",
		op=">",
		param=4.5,
		pos="e,5488.8,1266.5 5407.8,1324.8 5431,1308.1 5457.6,1289 5480.5,1272.5",
		style=solid];
	139	 [fillcolor=mistyrose,
		height=1.1528,
		label="MAP\ngini = 0.408\nsamples = 14\nvalue = [4, 0, 0, 10, 0]\nclass = 4",
		pos="5842,1500.5",
		width=2.4583];
	138 -> 139	 [label="<= 117.333",
		lp="5886,1567.5",
		op="<=",
		param=117.333,
		pos="e,5842,1542.1 5842,1592.8 5842,1580 5842,1565.7 5842,1552.2",
		style=solid];
	144	 [fillcolor=mistyrose,
		height=1.1528,
		label="BUN\ngini = 0.033\nsamples = 180\nvalue = [3, 0, 0, 177, 0]\nclass = 4",
		pos="6103,1500.5",
		width=2.5833];
	138 -> 144	 [label="> 117.333",
		lp="6019,1567.5",
		op=">",
		param=117.333,
		pos="e,6021.9,1542.1 5923.2,1592.8 5951.6,1578.2 5983.8,1561.7 6013,1546.7",
		style=solid];
	140	 [fillcolor=mistyrose,
		height=0.94444,
		label="gini = 0.0\nsamples = 8\nvalue = [0, 0, 0, 8, 0]\nclass = 4",
		pos="5722,1366.5",
		width=2.3333];
	139 -> 140	 [label="<= 113.5",
		lp="5821,1433.5",
		op="<=",
		param=113.5,
		pos="e,5752.5,1400.5 5804.7,1458.8 5790.3,1442.7 5773.8,1424.3 5759.4,1408.2",
		style=solid];
	141	 [fillcolor=palegreen,
		height=1.1528,
		label="PLA\ngini = 0.444\nsamples = 6\nvalue = [4, 0, 0, 2, 0]\nclass = 1",
		pos="5908,1366.5",
		width=2.3333];
	139 -> 141	 [label="> 113.5",
		lp="5906,1433.5",
		op=">",
		param=113.5,
		pos="e,5887.5,1408.1 5862.5,1458.8 5869,1445.7 5876.2,1431.1 5882.9,1417.4",
		style=dashed];
	142	 [fillcolor=mistyrose,
		height=0.94444,
		label="gini = 0.0\nsamples = 2\nvalue = [0, 0, 0, 2, 0]\nclass = 4",
		pos="5724,1232.5",
		width=2.3333];
	141 -> 142	 [label="<= 174.5",
		lp="5857,1299.5",
		op="<=",
		param=174.5,
		pos="e,5770.7,1266.5 5850.8,1324.8 5827.9,1308.1 5801.6,1289 5778.9,1272.5",
		style=solid];
	143	 [fillcolor=palegreen,
		height=0.94444,
		label="gini = 0.0\nsamples = 4\nvalue = [4, 0, 0, 0, 0]\nclass = 1",
		pos="5910,1232.5",
		width=2.3333];
	141 -> 143	 [label="> 174.5",
		lp="5939,1299.5",
		op=">",
		param=174.5,
		pos="e,5909.5,1266.5 5908.6,1324.8 5908.8,1309.6 5909.1,1292.3 5909.3,1276.9",
		style=solid];
	145	 [fillcolor=mistyrose,
		height=1.1528,
		label="SOD\ngini = 0.022\nsamples = 179\nvalue = [2, 0, 0, 177, 0]\nclass = 4",
		pos="6103,1366.5",
		width=2.5833];
	144 -> 145	 [label="<= 127.0",
		lp="6138,1433.5",
		op="<=",
		param=127.0,
		pos="e,6103,1408.1 6103,1458.8 6103,1446 6103,1431.7 6103,1418.2",
		style=solid];
	152	 [fillcolor=palegreen,
		height=0.94444,
		label="gini = 0.0\nsamples = 1\nvalue = [1, 0, 0, 0, 0]\nclass = 1",
		pos="6298,1366.5",
		width=2.3333];
	144 -> 152	 [label="> 127.0",
		lp="6236,1433.5",
		op=">",
		param=127.0,
		pos="e,6248.5,1400.5 6163.6,1458.8 6188,1442.1 6216,1422.8 6240.2,1406.2",
		style=solid];
	146	 [fillcolor=mistyrose,
		height=1.1528,
		label="ACE\ngini = 0.245\nsamples = 14\nvalue = [2, 0, 0, 12, 0]\nclass = 4",
		pos="6101,1232.5",
		width=2.4583];
	145 -> 146	 [label="<= 129.5",
		lp="6138,1299.5",
		op="<=",
		param=129.5,
		pos="e,6101.6,1274.1 6102.4,1324.8 6102.2,1312 6102,1297.7 6101.8,1284.2",
		style=solid];
	151	 [fillcolor=mistyrose,
		height=0.94444,
		label="gini = 0.0\nsamples = 165\nvalue = [0, 0, 0, 165, 0]\nclass = 4",
		pos="6300,1232.5",
		width=2.5833];
	145 -> 151	 [label="> 129.5",
		lp="6237,1299.5",
		op=">",
		param=129.5,
		pos="e,6250,1266.5 6164.3,1324.8 6188.9,1308.1 6217.2,1288.8 6241.6,1272.2",
		style=solid];
	147	 [fillcolor=palegreen,
		height=1.1528,
		label="WBC\ngini = 0.444\nsamples = 3\nvalue = [2, 0, 0, 1, 0]\nclass = 1",
		pos="5977,1098.5",
		width=2.3333];
	146 -> 147	 [label="<= 0.5",
		lp="6069,1165.5",
		op="<=",
		param=0.5,
		pos="e,6015.5,1140.1 6062.4,1190.8 6049.8,1177.2 6035.7,1162 6022.7,1147.9",
		style=dashed];
	150	 [fillcolor=mistyrose,
		height=0.94444,
		label="gini = 0.0\nsamples = 11\nvalue = [0, 0, 0, 11, 0]\nclass = 4",
		pos="6167,1098.5",
		width=2.4583];
	146 -> 150	 [label="> 0.5",
		lp="6156,1165.5",
		op=">",
		param=0.5,
		pos="e,6150.3,1132.5 6121.5,1190.8 6129.2,1175.2 6138,1157.3 6145.8,1141.5",
		style=solid];
	148	 [fillcolor=palegreen,
		height=0.94444,
		label="gini = 0.0\nsamples = 2\nvalue = [2, 0, 0, 0, 0]\nclass = 1",
		pos="5884,964.5",
		width=2.3333];
	147 -> 148	 [label="<= 11.35",
		lp="5969,1031.5",
		op="<=",
		param=11.35,
		pos="e,5907.6,998.5 5948.1,1056.8 5937.1,1041 5924.6,1023 5913.6,1007.1",
		style=solid];
	149	 [fillcolor=mistyrose,
		height=0.94444,
		label="gini = 0.0\nsamples = 1\nvalue = [0, 0, 0, 1, 0]\nclass = 4",
		pos="6070,964.5",
		width=2.3333];
	147 -> 149	 [label="> 11.35",
		lp="6056,1031.5",
		op=">",
		param=11.35,
		pos="e,6046.4,998.5 6005.9,1056.8 6016.9,1041 6029.4,1023 6040.4,1007.1",
		style=solid];
}
