strict digraph Tree {
	graph [bb="0,0,2058,1006"];
	node [color=black,
		fontname=helvetica,
		label="\N",
		shape=box,
		style="filled, rounded"
	];
	edge [fontname=helvetica];
	0	 [fillcolor=honeydew,
		height=1.1528,
		label="Gender\ngini = 0.716\nsamples = 335\nvalue = [11, 116, 22, 77, 109]\nclass = 2",
		pos="1174.5,964.5",
		width=3.2083];
	1	 [fillcolor=honeydew,
		height=1.1528,
		label="BPSYS\ngini = 0.577\nsamples = 247\nvalue = [0, 116, 22, 0, 109]\nclass = 2",
		pos="1066.5,830.5",
		width=2.9583];
	0 -> 1	 [label="<= 1.5",
		labelangle=45,
		labeldistance=2.5,
		lp="1150.5,897.5",
		op="<=",
		param=1.5,
		pos="e,1100.1,872.14 1140.9,922.84 1130.1,909.35 1117.9,894.26 1106.6,880.24",
		style=solid];
	34	 [fillcolor=mistyrose,
		height=1.1528,
		label="BPSYS\ngini = 0.219\nsamples = 88\nvalue = [11, 0, 0, 77, 0]\nclass = 4",
		pos="1283.5,830.5",
		width=2.5833];
	0 -> 34	 [label="> 1.5",
		labelangle=-45,
		labeldistance=2.5,
		lp="1252.5,897.5",
		op=">",
		param=1.5,
		pos="e,1249.6,872.14 1208.4,922.84 1219.4,909.35 1231.6,894.26 1243,880.24",
		style=solid];
	2	 [fillcolor=lightcoral,
		height=1.1528,
		label="MAP\ngini = 0.481\nsamples = 146\nvalue = [0, 24, 22, 0, 100]\nclass = 5",
		pos="832.5,696.5",
		width=2.8333];
	1 -> 2	 [label="<= 105.5",
		lp="992.5,763.5",
		op="<=",
		param=105.5,
		pos="e,905.21,738.14 993.74,788.84 968.43,774.34 939.88,757.99 913.91,743.12",
		style=solid];
	21	 [fillcolor=honeydew,
		height=1.1528,
		label="CPI\ngini = 0.162\nsamples = 101\nvalue = [0, 92, 0, 0, 9]\nclass = 2",
		pos="1080.5,696.5",
		width=2.4583];
	1 -> 21	 [label="> 105.5",
		lp="1103.5,763.5",
		op=">",
		param=105.5,
		pos="e,1076.1,738.14 1070.9,788.84 1072.2,775.98 1073.7,761.66 1075.1,748.21",
		style=solid];
	3	 [fillcolor=lightyellow,
		height=0.94444,
		label="gini = 0.0\nsamples = 22\nvalue = [0, 0, 22, 0, 0]\nclass = 3",
		pos="628.5,562.5",
		width=2.4583];
	2 -> 3	 [label="<= 36.667",
		lp="777,629.5",
		op="<=",
		param=36.667,
		pos="e,680.27,596.5 769.07,654.84 743.43,637.99 713.98,618.65 688.68,602.03",
		style=solid];
	4	 [fillcolor=lightcoral,
		height=1.1528,
		label="CPI\ngini = 0.312\nsamples = 124\nvalue = [0, 24, 0, 0, 100]\nclass = 5",
		pos="832.5,562.5",
		width=2.7083];
	2 -> 4	 [label="> 36.667",
		lp="866,629.5",
		op=">",
		param=36.667,
		pos="e,832.5,604.14 832.5,654.84 832.5,641.98 832.5,627.66 832.5,614.21",
		style=solid];
	5	 [fillcolor=lightcoral,
		height=1.1528,
		label="PAPP\ngini = 0.097\nsamples = 98\nvalue = [0, 5, 0, 0, 93]\nclass = 5",
		pos="283.5,428.5",
		width=2.4583];
	4 -> 5	 [label="<= 0.732",
		lp="689.5,495.5",
		op="<=",
		param=0.732,
		pos="e,372.19,442.66 734.76,523.85 731.65,522.86 728.56,521.91 725.5,521 609.4,486.59 472.49,460.03 382.15,444.37",
		style=solid];
	12	 [fillcolor=honeydew,
		height=1.1528,
		label="BPSYS\ngini = 0.393\nsamples = 26\nvalue = [0, 19, 0, 0, 7]\nclass = 2",
		pos="832.5,428.5",
		width=2.4583];
	4 -> 12	 [label="> 0.732",
		lp="861.5,495.5",
		op=">",
		param=0.732,
		pos="e,832.5,470.14 832.5,520.84 832.5,507.98 832.5,493.66 832.5,480.21",
		style=solid];
	6	 [fillcolor=lightcoral,
		height=0.94444,
		label="gini = 0.0\nsamples = 83\nvalue = [0, 0, 0, 0, 83]\nclass = 5",
		pos="88.5,294.5",
		width=2.4583];
	5 -> 6	 [label="<= 0.596",
		lp="227.5,361.5",
		op="<=",
		param=0.596,
		pos="e,137.98,328.5 222.87,386.84 198.47,370.07 170.45,350.82 146.34,334.24",
		style=solid];
	7	 [fillcolor=lightcoral,
		height=1.1528,
		label="MAP\ngini = 0.444\nsamples = 15\nvalue = [0, 5, 0, 0, 10]\nclass = 5",
		pos="283.5,294.5",
		width=2.4583];
	5 -> 7	 [label="> 0.596",
		lp="312.5,361.5",
		op=">",
		param=0.596,
		pos="e,283.5,336.14 283.5,386.84 283.5,373.98 283.5,359.66 283.5,346.21",
		style=solid];
	8	 [fillcolor=lightcoral,
		height=0.94444,
		label="gini = 0.0\nsamples = 9\nvalue = [0, 0, 0, 0, 9]\nclass = 5",
		pos="97.5,160.5",
		width=2.3333];
	7 -> 8	 [label="<= 137.667",
		lp="235.5,227.5",
		op="<=",
		param=137.667,
		pos="e,138.95,194.76 217.15,252.68 208.44,246.87 199.69,240.88 191.5,235 176.79,224.45 161.23,212.47 147.09,201.26",
		style=solid];
	9	 [fillcolor=honeydew,
		height=1.1528,
		label="CPI\ngini = 0.278\nsamples = 6\nvalue = [0, 5, 0, 0, 1]\nclass = 2",
		pos="283.5,160.5",
		width=2.3333];
	7 -> 9	 [label="> 137.667",
		lp="321.5,227.5",
		op=">",
		param=137.667,
		pos="e,283.5,202.14 283.5,252.84 283.5,239.98 283.5,225.66 283.5,212.21",
		style=dashed];
	10	 [fillcolor=lightcoral,
		height=0.94444,
		label="gini = 0.0\nsamples = 1\nvalue = [0, 0, 0, 0, 1]\nclass = 5",
		pos="97.5,34",
		width=2.3333];
	9 -> 10	 [label="<= 0.522",
		lp="225.5,93.5",
		op="<=",
		param=0.522,
		pos="e,147.53,68.029 222.34,118.9 201.03,104.41 177.18,88.191 156.08,73.843",
		style=solid];
	11	 [fillcolor=honeydew,
		height=0.94444,
		label="gini = 0.0\nsamples = 5\nvalue = [0, 5, 0, 0, 0]\nclass = 2",
		pos="283.5,34",
		width=2.3333];
	9 -> 11	 [label="> 0.522",
		lp="312.5,93.5",
		op=">",
		param=0.522,
		pos="e,283.5,68.142 283.5,118.73 283.5,105.78 283.5,91.472 283.5,78.356",
		style=solid];
	13	 [fillcolor=lightcoral,
		height=1.1528,
		label="PAPi\ngini = 0.444\nsamples = 9\nvalue = [0, 3, 0, 0, 6]\nclass = 5",
		pos="655.5,294.5",
		width=2.3333];
	12 -> 13	 [label="<= 92.5",
		lp="780,361.5",
		op="<=",
		param=92.5,
		pos="e,710.5,336.14 777.47,386.84 758.82,372.72 737.85,356.84 718.62,342.29",
		style=solid];
	18	 [fillcolor=honeydew,
		height=1.1528,
		label="HRTRT\ngini = 0.111\nsamples = 17\nvalue = [0, 16, 0, 0, 1]\nclass = 2",
		pos="845.5,294.5",
		width=2.4583];
	12 -> 18	 [label="> 92.5",
		lp="864,361.5",
		op=">",
		param=92.5,
		pos="e,841.46,336.14 836.54,386.84 837.79,373.98 839.18,359.66 840.48,346.21",
		style=dashed];
	14	 [fillcolor=lightcoral,
		height=1.1528,
		label="CI\ngini = 0.245\nsamples = 7\nvalue = [0, 1, 0, 0, 6]\nclass = 5",
		pos="469.5,160.5",
		width=2.3333];
	13 -> 14	 [label="<= 7.967",
		lp="603.5,227.5",
		op="<=",
		param=7.967,
		pos="e,527.3,202.14 597.67,252.84 577.99,238.66 555.84,222.7 535.56,208.09",
		style=solid];
	17	 [fillcolor=honeydew,
		height=0.94444,
		label="gini = 0.0\nsamples = 2\nvalue = [0, 2, 0, 0, 0]\nclass = 2",
		pos="655.5,160.5",
		width=2.3333];
	13 -> 17	 [label="> 7.967",
		lp="684.5,227.5",
		op=">",
		param=7.967,
		pos="e,655.5,194.5 655.5,252.84 655.5,237.6 655.5,220.33 655.5,204.87",
		style=solid];
	15	 [fillcolor=lightcoral,
		height=0.94444,
		label="gini = 0.0\nsamples = 6\nvalue = [0, 0, 0, 0, 6]\nclass = 5",
		pos="469.5,34",
		width=2.3333];
	14 -> 15	 [label="<= 3.45",
		lp="500,93.5",
		op="<=",
		param=3.45,
		pos="e,469.5,68.142 469.5,118.73 469.5,105.78 469.5,91.472 469.5,78.356",
		style=solid];
	16	 [fillcolor=honeydew,
		height=0.94444,
		label="gini = 0.0\nsamples = 1\nvalue = [0, 1, 0, 0, 0]\nclass = 2",
		pos="655.5,34",
		width=2.3333];
	14 -> 16	 [label="> 3.45",
		lp="599,93.5",
		op=">",
		param=3.45,
		pos="e,605.47,68.029 530.66,118.9 551.97,104.41 575.82,88.191 596.92,73.843",
		style=solid];
	19	 [fillcolor=honeydew,
		height=0.94444,
		label="gini = 0.0\nsamples = 16\nvalue = [0, 16, 0, 0, 0]\nclass = 2",
		pos="845.5,160.5",
		width=2.4583];
	18 -> 19	 [label="<= 105.0",
		lp="880.5,227.5",
		op="<=",
		param=105.0,
		pos="e,845.5,194.5 845.5,252.84 845.5,237.6 845.5,220.33 845.5,204.87",
		style=solid];
	20	 [fillcolor=lightcoral,
		height=0.94444,
		label="gini = 0.0\nsamples = 1\nvalue = [0, 0, 0, 0, 1]\nclass = 5",
		pos="1035.5,160.5",
		width=2.3333];
	18 -> 20	 [label="> 105.0",
		lp="975.5,227.5",
		op=">",
		param=105.0,
		pos="e,987.29,194.5 904.58,252.84 928.25,236.14 955.41,216.98 978.84,200.46",
		style=solid];
	22	 [fillcolor=honeydew,
		height=1.1528,
		label="BPSYS\ngini = 0.5\nsamples = 10\nvalue = [0, 5, 0, 0, 5]\nclass = 2",
		pos="1080.5,562.5",
		width=2.3333];
	21 -> 22	 [label="<= 0.482",
		lp="1115.5,629.5",
		op="<=",
		param=0.482,
		pos="e,1080.5,604.14 1080.5,654.84 1080.5,641.98 1080.5,627.66 1080.5,614.21",
		style=solid];
	27	 [fillcolor=honeydew,
		height=1.1528,
		label="PAS\ngini = 0.084\nsamples = 91\nvalue = [0, 87, 0, 0, 4]\nclass = 2",
		pos="1486.5,562.5",
		width=2.4583];
	21 -> 27	 [label="> 0.482",
		lp="1301.5,629.5",
		op=">",
		param=0.482,
		pos="e,1397.7,586.81 1169.2,659.15 1173,657.72 1176.8,656.33 1180.5,655 1248.9,630.52 1327.4,606.88 1387.8,589.63",
		style=solid];
	23	 [fillcolor=lightcoral,
		height=1.1528,
		label="PAD\ngini = 0.278\nsamples = 6\nvalue = [0, 1, 0, 0, 5]\nclass = 5",
		pos="1047.5,428.5",
		width=2.3333];
	22 -> 23	 [label="<= 123.0",
		lp="1100.5,495.5",
		op="<=",
		param=123.0,
		pos="e,1057.8,470.14 1070.2,520.84 1067.1,507.98 1063.5,493.66 1060.2,480.21",
		style=dashed];
	26	 [fillcolor=honeydew,
		height=0.94444,
		label="gini = 0.0\nsamples = 4\nvalue = [0, 4, 0, 0, 0]\nclass = 2",
		pos="1233.5,428.5",
		width=2.3333];
	22 -> 26	 [label="> 123.0",
		lp="1191.5,495.5",
		op=">",
		param=123.0,
		pos="e,1194.7,462.5 1128.1,520.84 1146.8,504.43 1168.2,485.65 1186.9,469.33",
		style=solid];
	24	 [fillcolor=honeydew,
		height=0.94444,
		label="gini = 0.0\nsamples = 1\nvalue = [0, 1, 0, 0, 0]\nclass = 2",
		pos="1035.5,294.5",
		width=2.3333];
	23 -> 24	 [label="<= 18.0",
		lp="1073,361.5",
		op="<=",
		param=18.0,
		pos="e,1038.5,328.5 1043.8,386.84 1042.4,371.6 1040.9,354.33 1039.5,338.87",
		style=solid];
	25	 [fillcolor=lightcoral,
		height=0.94444,
		label="gini = 0.0\nsamples = 5\nvalue = [0, 0, 0, 0, 5]\nclass = 5",
		pos="1221.5,294.5",
		width=2.3333];
	23 -> 25	 [label="> 18.0",
		lp="1165,361.5",
		op=">",
		param=18.0,
		pos="e,1177.3,328.5 1101.6,386.84 1123.2,370.21 1147.9,351.15 1169.3,334.68",
		style=solid];
	28	 [fillcolor=lightcoral,
		height=1.1528,
		label="CPI\ngini = 0.48\nsamples = 5\nvalue = [0, 2, 0, 0, 3]\nclass = 5",
		pos="1486.5,428.5",
		width=2.3333];
	27 -> 28	 [label="<= 26.5",
		lp="1517,495.5",
		op="<=",
		param=26.5,
		pos="e,1486.5,470.14 1486.5,520.84 1486.5,507.98 1486.5,493.66 1486.5,480.21",
		style=solid];
	31	 [fillcolor=honeydew,
		height=1.1528,
		label="Age\ngini = 0.023\nsamples = 86\nvalue = [0, 85, 0, 0, 1]\nclass = 2",
		pos="1779.5,428.5",
		width=2.4583];
	27 -> 31	 [label="> 26.5",
		lp="1666,495.5",
		op=">",
		param=26.5,
		pos="e,1690.8,469.05 1575.2,521.93 1608.8,506.55 1647.3,488.96 1681.7,473.22",
		style=solid];
	29	 [fillcolor=lightcoral,
		height=0.94444,
		label="gini = 0.0\nsamples = 3\nvalue = [0, 0, 0, 0, 3]\nclass = 5",
		pos="1407.5,294.5",
		width=2.3333];
	28 -> 29	 [label="<= 0.816",
		lp="1483.5,361.5",
		op="<=",
		param=0.816,
		pos="e,1427.5,328.5 1461.9,386.84 1452.7,371.17 1442.2,353.33 1432.9,337.53",
		style=solid];
	30	 [fillcolor=honeydew,
		height=0.94444,
		label="gini = 0.0\nsamples = 2\nvalue = [0, 2, 0, 0, 0]\nclass = 2",
		pos="1593.5,294.5",
		width=2.3333];
	28 -> 30	 [label="> 0.816",
		lp="1571.5,361.5",
		op=">",
		param=0.816,
		pos="e,1566.3,328.5 1519.8,386.84 1532.5,370.87 1547.1,352.66 1559.8,336.65",
		style=solid];
	32	 [fillcolor=lightcoral,
		height=0.94444,
		label="gini = 0.0\nsamples = 1\nvalue = [0, 0, 0, 0, 1]\nclass = 5",
		pos="1779.5,294.5",
		width=2.3333];
	31 -> 32	 [label="<= 26.5",
		lp="1810,361.5",
		op="<=",
		param=26.5,
		pos="e,1779.5,328.5 1779.5,386.84 1779.5,371.6 1779.5,354.33 1779.5,338.87",
		style=solid];
	33	 [fillcolor=honeydew,
		height=0.94444,
		label="gini = 0.0\nsamples = 85\nvalue = [0, 85, 0, 0, 0]\nclass = 2",
		pos="1969.5,294.5",
		width=2.4583];
	31 -> 33	 [label="> 26.5",
		lp="1904,361.5",
		op=">",
		param=26.5,
		pos="e,1921.3,328.5 1838.6,386.84 1862.2,370.14 1889.4,350.98 1912.8,334.46",
		style=solid];
	35	 [fillcolor=palegreen,
		height=0.94444,
		label="gini = 0.0\nsamples = 11\nvalue = [11, 0, 0, 0, 0]\nclass = 1",
		pos="1278.5,696.5",
		width=2.4583];
	34 -> 35	 [label="<= 35.0",
		lp="1312,763.5",
		op="<=",
		param=35.0,
		pos="e,1279.8,730.5 1281.9,788.84 1281.4,773.6 1280.7,756.33 1280.2,740.87",
		style=solid];
	36	 [fillcolor=mistyrose,
		height=0.94444,
		label="gini = 0.0\nsamples = 77\nvalue = [0, 0, 0, 77, 0]\nclass = 4",
		pos="1473.5,696.5",
		width=2.4583];
	34 -> 36	 [label="> 35.0",
		lp="1409,763.5",
		op=">",
		param=35.0,
		pos="e,1425.3,730.5 1342.6,788.84 1366.2,772.14 1393.4,752.98 1416.8,736.46",
		style=solid];
}
