strict digraph Tree {
	graph [bb="0,0,7169,1676"];
	node [color=black,
		fontname=helvetica,
		label="\N",
		shape=box,
		style="filled, rounded"
	];
	edge [fontname=helvetica];
	0	 [fillcolor=mistyrose,
		height=1.1528,
		label="ISCH\ngini = 0.547\nsamples = 711\nvalue = [12, 333, 1, 343, 22]\nclass = 4",
		pos="3929,1634.5",
		width=3.0833];
	1	 [fillcolor=honeydew,
		height=1.1528,
		label="TotalHospDays\ngini = 0.431\nsamples = 312\nvalue = [11, 228, 1, 55, 17]\nclass = 2",
		pos="2777,1500.5",
		width=2.9583];
	0 -> 1	 [label="<= 0.5",
		labelangle=45,
		labeldistance=2.5,
		lp="3414,1567.5",
		op="<=",
		param=0.5,
		pos="e,2883.6,1512.9 3817.8,1621.6 3599.3,1596.2 3116.4,1540 2893.7,1514.1",
		style=solid];
	76	 [fillcolor=mistyrose,
		height=1.1528,
		label="CABG\ngini = 0.41\nsamples = 399\nvalue = [1, 105, 0, 288, 5]\nclass = 4",
		pos="5239,1500.5",
		width=2.8333];
	0 -> 76	 [label="> 0.5",
		labelangle=-45,
		labeldistance=2.5,
		lp="4644,1567.5",
		op=">",
		param=0.5,
		pos="e,5136.6,1511 4040.1,1623.1 4286.9,1597.9 4878.4,1537.4 5126.5,1512",
		style=solid];
	2	 [fillcolor=lightcoral,
		height=0.94444,
		label="gini = 0.0\nsamples = 14\nvalue = [0, 0, 0, 0, 14]\nclass = 5",
		pos="2569,1366.5",
		width=2.4583];
	1 -> 2	 [label="<= 0.5",
		lp="2706,1433.5",
		op="<=",
		param=0.5,
		pos="e,2621.8,1400.5 2712.3,1458.8 2686.2,1442 2656.2,1422.6 2630.4,1406",
		style=solid];
	3	 [fillcolor=honeydew,
		height=1.1528,
		label="VAHD\ngini = 0.379\nsamples = 298\nvalue = [11, 228, 1, 55, 3]\nclass = 2",
		pos="2777,1366.5",
		width=2.8333];
	1 -> 3	 [label="> 0.5",
		lp="2797,1433.5",
		op=">",
		param=0.5,
		pos="e,2777,1408.1 2777,1458.8 2777,1446 2777,1431.7 2777,1418.2",
		style=solid];
	4	 [fillcolor=honeydew,
		height=1.1528,
		label="PACE\ngini = 0.288\nsamples = 238\nvalue = [11, 199, 1, 25, 2]\nclass = 2",
		pos="1655,1232.5",
		width=2.8333];
	3 -> 4	 [label="<= 0.5",
		lp="2570,1299.5",
		op="<=",
		param=0.5,
		pos="e,1757.2,1238.4 2674.8,1327.2 2671.8,1326.4 2668.9,1325.7 2666,1325 2497.5,1286.5 1993.9,1252.7 1767.4,1239",
		style=solid];
	53	 [fillcolor=mistyrose,
		height=1.1528,
		label="Age\ngini = 0.516\nsamples = 60\nvalue = [0, 29, 0, 30, 1]\nclass = 4",
		pos="2777,1232.5",
		width=2.5833];
	3 -> 53	 [label="> 0.5",
		lp="2797,1299.5",
		op=">",
		param=0.5,
		pos="e,2777,1274.1 2777,1324.8 2777,1312 2777,1297.7 2777,1284.2",
		style=solid];
	5	 [fillcolor=honeydew,
		height=1.1528,
		label="Wt\ngini = 0.2\nsamples = 194\nvalue = [11, 173, 1, 7, 2]\nclass = 2",
		pos="826,1098.5",
		width=2.7083];
	4 -> 5	 [label="<= 0.5",
		lp="1292,1165.5",
		op="<=",
		param=0.5,
		pos="e,923.54,1114.3 1552.9,1216 1395.3,1190.5 1094.2,1141.9 933.45,1115.9",
		style=solid];
	38	 [fillcolor=honeydew,
		height=1.1528,
		label="HTN\ngini = 0.483\nsamples = 44\nvalue = [0, 26, 0, 18, 0]\nclass = 2",
		pos="1655,1098.5",
		width=2.5833];
	4 -> 38	 [label="> 0.5",
		lp="1675,1165.5",
		op=">",
		param=0.5,
		pos="e,1655,1140.1 1655,1190.8 1655,1178 1655,1163.7 1655,1150.2",
		style=solid];
	6	 [fillcolor=palegreen,
		height=1.1528,
		label="HTN\ngini = 0.541\nsamples = 14\nvalue = [8, 5, 1, 0, 0]\nclass = 1",
		pos="549,964.5",
		width=2.3333];
	5 -> 6	 [label="<= 49.0",
		lp="726.5,1031.5",
		op="<=",
		param=49.0,
		pos="e,633.17,1005.2 739.87,1056.8 708.94,1041.9 673.92,1024.9 642.4,1009.7",
		style=solid];
	13	 [fillcolor=honeydew,
		height=1.1528,
		label="ACE\ngini = 0.127\nsamples = 180\nvalue = [3, 168, 0, 7, 2]\nclass = 2",
		pos="826,964.5",
		width=2.5833];
	5 -> 13	 [label="> 49.0",
		lp="850.5,1031.5",
		op=">",
		param=49.0,
		pos="e,826,1006.1 826,1056.8 826,1044 826,1029.7 826,1016.2",
		style=solid];
	7	 [fillcolor=palegreen,
		height=1.1528,
		label="MAP\ngini = 0.43\nsamples = 11\nvalue = [8, 2, 1, 0, 0]\nclass = 1",
		pos="363,830.5",
		width=2.3333];
	6 -> 7	 [label="<= 0.5",
		lp="488,897.5",
		op="<=",
		param=0.5,
		pos="e,420.8,872.14 491.17,922.84 471.49,908.66 449.34,892.7 429.06,878.09",
		style=solid];
	12	 [fillcolor=honeydew,
		height=0.94444,
		label="gini = 0.0\nsamples = 3\nvalue = [0, 3, 0, 0, 0]\nclass = 2",
		pos="549,830.5",
		width=2.3333];
	6 -> 12	 [label="> 0.5",
		lp="569,897.5",
		op=">",
		param=0.5,
		pos="e,549,864.5 549,922.84 549,907.6 549,890.33 549,874.87",
		style=solid];
	8	 [fillcolor=palegreen,
		height=1.1528,
		label="Age\ngini = 0.198\nsamples = 9\nvalue = [8, 0, 1, 0, 0]\nclass = 1",
		pos="177,696.5",
		width=2.3333];
	7 -> 8	 [label="<= 150.667",
		lp="315,763.5",
		op="<=",
		param=150.667,
		pos="e,227.54,738.01 296.65,788.68 287.94,782.87 279.19,776.88 271,771 259.31,762.62 247.09,753.34 235.47,744.25",
		style=dashed];
	11	 [fillcolor=honeydew,
		height=0.94444,
		label="gini = 0.0\nsamples = 2\nvalue = [0, 2, 0, 0, 0]\nclass = 2",
		pos="363,696.5",
		width=2.3333];
	7 -> 11	 [label="> 150.667",
		lp="401,763.5",
		op=">",
		param=150.667,
		pos="e,363,730.5 363,788.84 363,773.6 363,756.33 363,740.87",
		style=solid];
	9	 [fillcolor=palegreen,
		height=0.94444,
		label="gini = 0.0\nsamples = 8\nvalue = [8, 0, 0, 0, 0]\nclass = 1",
		pos="84,562.5",
		width=2.3333];
	8 -> 9	 [label="<= 72.0",
		lp="164.5,629.5",
		op="<=",
		param=72.0,
		pos="e,107.6,596.5 148.08,654.84 137.11,639.02 124.6,620.99 113.56,605.09",
		style=solid];
	10	 [fillcolor=lightyellow,
		height=0.94444,
		label="gini = 0.0\nsamples = 1\nvalue = [0, 0, 1, 0, 0]\nclass = 3",
		pos="270,562.5",
		width=2.3333];
	8 -> 10	 [label="> 72.0",
		lp="251.5,629.5",
		op=">",
		param=72.0,
		pos="e,246.4,596.5 205.92,654.84 216.89,639.02 229.4,620.99 240.44,605.09",
		style=solid];
	14	 [fillcolor=lightcoral,
		height=1.1528,
		label="CRT\ngini = 0.444\nsamples = 3\nvalue = [0, 1, 0, 0, 2]\nclass = 5",
		pos="735,830.5",
		width=2.3333];
	13 -> 14	 [label="<= 0.5",
		lp="810,897.5",
		op="<=",
		param=0.5,
		pos="e,763.28,872.14 797.71,922.84 788.63,909.48 778.49,894.54 769.05,880.64",
		style=dashed];
	17	 [fillcolor=honeydew,
		height=1.1528,
		label="NYHA\ngini = 0.108\nsamples = 177\nvalue = [3, 167, 0, 7, 0]\nclass = 2",
		pos="930,830.5",
		width=2.5833];
	13 -> 17	 [label="> 0.5",
		lp="902,897.5",
		op=">",
		param=0.5,
		pos="e,897.68,872.14 858.34,922.84 868.8,909.35 880.52,894.26 891.39,880.24",
		style=solid];
	15	 [fillcolor=honeydew,
		height=0.94444,
		label="gini = 0.0\nsamples = 1\nvalue = [0, 1, 0, 0, 0]\nclass = 2",
		pos="549,696.5",
		width=2.3333];
	14 -> 15	 [label="<= 1.95",
		lp="678.5,763.5",
		op="<=",
		param=1.95,
		pos="e,596.2,730.5 677.17,788.84 653.99,772.14 627.4,752.98 604.47,736.46",
		style=solid];
	16	 [fillcolor=lightcoral,
		height=0.94444,
		label="gini = 0.0\nsamples = 2\nvalue = [0, 0, 0, 0, 2]\nclass = 5",
		pos="735,696.5",
		width=2.3333];
	14 -> 16	 [label="> 1.95",
		lp="759.5,763.5",
		op=">",
		param=1.95,
		pos="e,735,730.5 735,788.84 735,773.6 735,756.33 735,740.87",
		style=solid];
	18	 [fillcolor=mistyrose,
		height=0.94444,
		label="gini = 0.0\nsamples = 1\nvalue = [0, 0, 0, 1, 0]\nclass = 4",
		pos="921,696.5",
		width=2.3333];
	17 -> 18	 [label="<= 0.5",
		lp="952,763.5",
		op="<=",
		param=0.5,
		pos="e,923.28,730.5 927.2,788.84 926.18,773.6 925.02,756.33 923.98,740.87",
		style=solid];
	19	 [fillcolor=honeydew,
		height=1.1528,
		label="ICD\ngini = 0.098\nsamples = 176\nvalue = [3, 167, 0, 6, 0]\nclass = 2",
		pos="1116,696.5",
		width=2.5833];
	17 -> 19	 [label="> 0.5",
		lp="1049,763.5",
		op=">",
		param=0.5,
		pos="e,1058.2,738.14 987.83,788.84 1007.5,774.66 1029.7,758.7 1049.9,744.09",
		style=solid];
	20	 [fillcolor=honeydew,
		height=1.1528,
		label="DIUR\ngini = 0.041\nsamples = 145\nvalue = [3, 142, 0, 0, 0]\nclass = 2",
		pos="1041,562.5",
		width=2.5833];
	19 -> 20	 [label="<= 0.5",
		lp="1107,629.5",
		op="<=",
		param=0.5,
		pos="e,1064.3,604.14 1092.7,654.84 1085.3,641.6 1077,626.82 1069.3,613.03",
		style=solid];
	29	 [fillcolor=honeydew,
		height=1.1528,
		label="Wt\ngini = 0.312\nsamples = 31\nvalue = [0, 25, 0, 6, 0]\nclass = 2",
		pos="1240,562.5",
		width=2.4583];
	19 -> 29	 [label="> 0.5",
		lp="1202,629.5",
		op=">",
		param=0.5,
		pos="e,1201.5,604.14 1154.6,654.84 1167.2,641.22 1181.3,625.97 1194.3,611.85",
		style=solid];
	21	 [fillcolor=palegreen,
		height=1.1528,
		label="PPRatio\ngini = 0.5\nsamples = 4\nvalue = [2, 2, 0, 0, 0]\nclass = 1",
		pos="848,428.5",
		width=2.3333];
	20 -> 21	 [label="<= 0.5",
		lp="977,495.5",
		op="<=",
		param=0.5,
		pos="e,907.97,470.14 980.99,520.84 960.48,506.59 937.38,490.56 916.27,475.9",
		style=solid];
	24	 [fillcolor=honeydew,
		height=1.1528,
		label="MLHFS\ngini = 0.014\nsamples = 141\nvalue = [1, 140, 0, 0, 0]\nclass = 2",
		pos="1043,428.5",
		width=2.5833];
	20 -> 24	 [label="> 0.5",
		lp="1063,495.5",
		op=">",
		param=0.5,
		pos="e,1042.4,470.14 1041.6,520.84 1041.8,507.98 1042,493.66 1042.2,480.21",
		style=solid];
	22	 [fillcolor=palegreen,
		height=0.94444,
		label="gini = 0.0\nsamples = 2\nvalue = [2, 0, 0, 0, 0]\nclass = 1",
		pos="662,294.5",
		width=2.3333];
	21 -> 22	 [label="<= 0.781",
		lp="796,361.5",
		op="<=",
		param=0.781,
		pos="e,709.2,328.5 790.17,386.84 766.99,370.14 740.4,350.98 717.47,334.46",
		style=solid];
	23	 [fillcolor=honeydew,
		height=0.94444,
		label="gini = 0.0\nsamples = 2\nvalue = [0, 2, 0, 0, 0]\nclass = 2",
		pos="848,294.5",
		width=2.3333];
	21 -> 23	 [label="> 0.781",
		lp="877,361.5",
		op=">",
		param=0.781,
		pos="e,848,328.5 848,386.84 848,371.6 848,354.33 848,338.87",
		style=solid];
	25	 [fillcolor=honeydew,
		height=1.1528,
		label="HR\ngini = 0.444\nsamples = 3\nvalue = [1, 2, 0, 0, 0]\nclass = 2",
		pos="1035,294.5",
		width=2.3333];
	24 -> 25	 [label="<= 4.0",
		lp="1066,361.5",
		op="<=",
		param=4.0,
		pos="e,1037.5,336.14 1040.5,386.84 1039.7,373.98 1038.9,359.66 1038.1,346.21",
		style=solid];
	28	 [fillcolor=honeydew,
		height=0.94444,
		label="gini = 0.0\nsamples = 138\nvalue = [0, 138, 0, 0, 0]\nclass = 2",
		pos="1230,294.5",
		width=2.5833];
	24 -> 28	 [label="> 4.0",
		lp="1163,361.5",
		op=">",
		param=4.0,
		pos="e,1182.5,328.5 1101.1,386.84 1124.4,370.14 1151.2,350.98 1174.2,334.46",
		style=solid];
	26	 [fillcolor=palegreen,
		height=0.94444,
		label="gini = 0.0\nsamples = 1\nvalue = [1, 0, 0, 0, 0]\nclass = 1",
		pos="951,160.5",
		width=2.3333];
	25 -> 26	 [label="<= 80.0",
		lp="1026.5,227.5",
		op="<=",
		param=80.0,
		pos="e,972.32,194.5 1008.9,252.84 998.97,237.02 987.67,218.99 977.7,203.09",
		style=solid];
	27	 [fillcolor=honeydew,
		height=0.94444,
		label="gini = 0.0\nsamples = 2\nvalue = [0, 2, 0, 0, 0]\nclass = 2",
		pos="1137,160.5",
		width=2.3333];
	25 -> 27	 [label="> 80.0",
		lp="1114.5,227.5",
		op=">",
		param=80.0,
		pos="e,1111.1,194.5 1066.7,252.84 1078.9,236.87 1092.7,218.66 1104.9,202.65",
		style=solid];
	30	 [fillcolor=mistyrose,
		height=0.94444,
		label="gini = 0.0\nsamples = 3\nvalue = [0, 0, 0, 3, 0]\nclass = 4",
		pos="1240,428.5",
		width=2.3333];
	29 -> 30	 [label="<= 54.1",
		lp="1270.5,495.5",
		op="<=",
		param=54.1,
		pos="e,1240,462.5 1240,520.84 1240,505.6 1240,488.33 1240,472.87",
		style=solid];
	31	 [fillcolor=honeydew,
		height=1.1528,
		label="Wt\ngini = 0.191\nsamples = 28\nvalue = [0, 25, 0, 3, 0]\nclass = 2",
		pos="1430,428.5",
		width=2.4583];
	29 -> 31	 [label="> 54.1",
		lp="1365.5,495.5",
		op=">",
		param=54.1,
		pos="e,1371,470.14 1299.1,520.84 1319.2,506.66 1341.8,490.7 1362.5,476.09",
		style=solid];
	32	 [fillcolor=honeydew,
		height=1.1528,
		label="CARREST\ngini = 0.074\nsamples = 26\nvalue = [0, 25, 0, 1, 0]\nclass = 2",
		pos="1429,294.5",
		width=2.4583];
	31 -> 32	 [label="<= 132.05",
		lp="1469.5,361.5",
		op="<=",
		param=132.05,
		pos="e,1429.3,336.14 1429.7,386.84 1429.6,373.98 1429.5,359.66 1429.4,346.21",
		style=solid];
	37	 [fillcolor=mistyrose,
		height=0.94444,
		label="gini = 0.0\nsamples = 2\nvalue = [0, 0, 0, 2, 0]\nclass = 4",
		pos="1619,294.5",
		width=2.3333];
	31 -> 37	 [label="> 132.05",
		lp="1564.5,361.5",
		op=">",
		param=132.05,
		pos="e,1571,328.5 1488.8,386.84 1512.3,370.14 1539.3,350.98 1562.6,334.46",
		style=solid];
	33	 [fillcolor=honeydew,
		height=0.94444,
		label="gini = 0.0\nsamples = 24\nvalue = [0, 24, 0, 0, 0]\nclass = 2",
		pos="1363,160.5",
		width=2.4583];
	32 -> 33	 [label="<= 0.5",
		lp="1424,227.5",
		op="<=",
		param=0.5,
		pos="e,1379.7,194.5 1408.5,252.84 1400.8,237.17 1392,219.33 1384.2,203.53",
		style=solid];
	34	 [fillcolor=honeydew,
		height=1.1528,
		label="PPP\ngini = 0.5\nsamples = 2\nvalue = [0, 1, 0, 1, 0]\nclass = 2",
		pos="1553,160.5",
		width=2.3333];
	32 -> 34	 [label="> 0.5",
		lp="1515,227.5",
		op=">",
		param=0.5,
		pos="e,1514.5,202.14 1467.6,252.84 1480.2,239.22 1494.3,223.97 1507.3,209.85",
		style=solid];
	35	 [fillcolor=mistyrose,
		height=0.94444,
		label="gini = 0.0\nsamples = 1\nvalue = [0, 0, 0, 1, 0]\nclass = 4",
		pos="1460,34",
		width=2.3333];
	34 -> 35	 [label="<= 0.339",
		lp="1542,93.5",
		op="<=",
		param=0.339,
		pos="e,1485.1,68.142 1522.3,118.73 1512.3,105.14 1501.2,90.052 1491.2,76.417",
		style=solid];
	36	 [fillcolor=honeydew,
		height=0.94444,
		label="gini = 0.0\nsamples = 1\nvalue = [0, 1, 0, 0, 0]\nclass = 2",
		pos="1646,34",
		width=2.3333];
	34 -> 36	 [label="> 0.339",
		lp="1635,93.5",
		op=">",
		param=0.339,
		pos="e,1620.9,68.142 1583.7,118.73 1593.7,105.14 1604.8,90.052 1614.8,76.417",
		style=solid];
	39	 [fillcolor=honeydew,
		height=1.1528,
		label="VO2\ngini = 0.105\nsamples = 18\nvalue = [0, 17, 0, 1, 0]\nclass = 2",
		pos="1497,964.5",
		width=2.4583];
	38 -> 39	 [label="<= 0.5",
		lp="1607,1031.5",
		op="<=",
		param=0.5,
		pos="e,1546.1,1006.1 1605.9,1056.8 1589.4,1042.8 1570.8,1027.1 1553.8,1012.7",
		style=solid];
	44	 [fillcolor=mistyrose,
		height=1.1528,
		label="CRT\ngini = 0.453\nsamples = 26\nvalue = [0, 9, 0, 17, 0]\nclass = 4",
		pos="1782,964.5",
		width=2.4583];
	38 -> 44	 [label="> 0.5",
		lp="1743,1031.5",
		op=">",
		param=0.5,
		pos="e,1742.5,1006.1 1694.5,1056.8 1707.5,1043.1 1722.1,1027.7 1735.6,1013.5",
		style=solid];
	40	 [fillcolor=honeydew,
		height=0.94444,
		label="gini = 0.0\nsamples = 16\nvalue = [0, 16, 0, 0, 0]\nclass = 2",
		pos="1307,830.5",
		width=2.4583];
	39 -> 40	 [label="<= 15.25",
		lp="1443,897.5",
		op="<=",
		param=15.25,
		pos="e,1355.2,864.5 1437.9,922.84 1414.3,906.14 1387.1,886.98 1363.7,870.46",
		style=solid];
	41	 [fillcolor=honeydew,
		height=1.1528,
		label="PV\ngini = 0.5\nsamples = 2\nvalue = [0, 1, 0, 1, 0]\nclass = 2",
		pos="1497,830.5",
		width=2.3333];
	39 -> 41	 [label="> 15.25",
		lp="1526,897.5",
		op=">",
		param=15.25,
		pos="e,1497,872.14 1497,922.84 1497,909.98 1497,895.66 1497,882.21",
		style=solid];
	42	 [fillcolor=mistyrose,
		height=0.94444,
		label="gini = 0.0\nsamples = 1\nvalue = [0, 0, 0, 1, 0]\nclass = 4",
		pos="1311,696.5",
		width=2.3333];
	41 -> 42	 [label="<= 430.815",
		lp="1449,763.5",
		op="<=",
		param=430.815,
		pos="e,1352.5,730.76 1430.7,788.68 1421.9,782.87 1413.2,776.88 1405,771 1390.3,760.45 1374.7,748.47 1360.6,737.26",
		style=solid];
	43	 [fillcolor=honeydew,
		height=0.94444,
		label="gini = 0.0\nsamples = 1\nvalue = [0, 1, 0, 0, 0]\nclass = 2",
		pos="1497,696.5",
		width=2.3333];
	41 -> 43	 [label="> 430.815",
		lp="1535,763.5",
		op=">",
		param=430.815,
		pos="e,1497,730.5 1497,788.84 1497,773.6 1497,756.33 1497,740.87",
		style=solid];
	45	 [fillcolor=mistyrose,
		height=1.1528,
		label="HEC\ngini = 0.124\nsamples = 15\nvalue = [0, 1, 0, 14, 0]\nclass = 4",
		pos="1782,830.5",
		width=2.4583];
	44 -> 45	 [label="<= 1.9",
		lp="1808,897.5",
		op="<=",
		param=1.9,
		pos="e,1782,872.14 1782,922.84 1782,909.98 1782,895.66 1782,882.21",
		style=dashed];
	48	 [fillcolor=honeydew,
		height=1.1528,
		label="CRT\ngini = 0.397\nsamples = 11\nvalue = [0, 8, 0, 3, 0]\nclass = 2",
		pos="2063,830.5",
		width=2.3333];
	44 -> 48	 [label="> 1.9",
		lp="1951,897.5",
		op=">",
		param=1.9,
		pos="e,1978.6,870.76 1869.4,922.84 1901,907.73 1936.9,890.61 1969.1,875.25",
		style=solid];
	46	 [fillcolor=mistyrose,
		height=0.94444,
		label="gini = 0.0\nsamples = 14\nvalue = [0, 0, 0, 14, 0]\nclass = 4",
		pos="1687,696.5",
		width=2.4583];
	45 -> 46	 [label="<= 51.15",
		lp="1773,763.5",
		op="<=",
		param=51.15,
		pos="e,1711.1,730.5 1752.5,788.84 1741.2,773.02 1728.5,754.99 1717.2,739.09",
		style=solid];
	47	 [fillcolor=honeydew,
		height=0.94444,
		label="gini = 0.0\nsamples = 1\nvalue = [0, 1, 0, 0, 0]\nclass = 2",
		pos="1877,696.5",
		width=2.3333];
	45 -> 47	 [label="> 51.15",
		lp="1862,763.5",
		op=">",
		param=51.15,
		pos="e,1852.9,730.5 1811.5,788.84 1822.8,773.02 1835.5,754.99 1846.8,739.09",
		style=solid];
	49	 [fillcolor=honeydew,
		height=0.94444,
		label="gini = 0.0\nsamples = 7\nvalue = [0, 7, 0, 0, 0]\nclass = 2",
		pos="2063,696.5",
		width=2.3333];
	48 -> 49	 [label="<= 2.15",
		lp="2093.5,763.5",
		op="<=",
		param=2.15,
		pos="e,2063,730.5 2063,788.84 2063,773.6 2063,756.33 2063,740.87",
		style=solid];
	50	 [fillcolor=mistyrose,
		height=1.1528,
		label="DIAL\ngini = 0.375\nsamples = 4\nvalue = [0, 1, 0, 3, 0]\nclass = 4",
		pos="2249,696.5",
		width=2.3333];
	48 -> 50	 [label="> 2.15",
		lp="2186.5,763.5",
		op=">",
		param=2.15,
		pos="e,2191.2,738.14 2120.8,788.84 2140.5,774.66 2162.7,758.7 2182.9,744.09",
		style=dashed];
	51	 [fillcolor=mistyrose,
		height=0.94444,
		label="gini = 0.0\nsamples = 3\nvalue = [0, 0, 0, 3, 0]\nclass = 4",
		pos="2156,562.5",
		width=2.3333];
	50 -> 51	 [label="<= 0.6",
		lp="2232,629.5",
		op="<=",
		param=0.6,
		pos="e,2179.6,596.5 2220.1,654.84 2209.1,639.02 2196.6,620.99 2185.6,605.09",
		style=solid];
	52	 [fillcolor=honeydew,
		height=0.94444,
		label="gini = 0.0\nsamples = 1\nvalue = [0, 1, 0, 0, 0]\nclass = 2",
		pos="2342,562.5",
		width=2.3333];
	50 -> 52	 [label="> 0.6",
		lp="2319,629.5",
		op=">",
		param=0.6,
		pos="e,2318.4,596.5 2277.9,654.84 2288.9,639.02 2301.4,620.99 2312.4,605.09",
		style=solid];
	54	 [fillcolor=honeydew,
		height=1.1528,
		label="PV\ngini = 0.31\nsamples = 22\nvalue = [0, 18, 0, 3, 1]\nclass = 2",
		pos="2621,1098.5",
		width=2.4583];
	53 -> 54	 [label="<= 44.5",
		lp="2734.5,1165.5",
		op="<=",
		param=44.5,
		pos="e,2669.5,1140.1 2728.5,1190.8 2712.2,1176.8 2693.9,1161.1 2677.1,1146.7",
		style=solid];
	61	 [fillcolor=mistyrose,
		height=1.1528,
		label="MLHFS\ngini = 0.411\nsamples = 38\nvalue = [0, 11, 0, 27, 0]\nclass = 4",
		pos="2933,1098.5",
		width=2.5833];
	53 -> 61	 [label="> 44.5",
		lp="2884.5,1165.5",
		op=">",
		param=44.5,
		pos="e,2884.5,1140.1 2825.5,1190.8 2841.8,1176.8 2860.1,1161.1 2876.9,1146.7",
		style=solid];
	55	 [fillcolor=honeydew,
		height=0.94444,
		label="gini = 0.0\nsamples = 16\nvalue = [0, 16, 0, 0, 0]\nclass = 2",
		pos="2431,964.5",
		width=2.4583];
	54 -> 55	 [label="<= -2.754",
		lp="2569.5,1031.5",
		op="<=",
		param=-2.754,
		pos="e,2479.2,998.5 2561.9,1056.8 2538.3,1040.1 2511.1,1021 2487.7,1004.5",
		style=solid];
	56	 [fillcolor=mistyrose,
		height=1.1528,
		label="PPRatio\ngini = 0.611\nsamples = 6\nvalue = [0, 2, 0, 3, 1]\nclass = 4",
		pos="2621,964.5",
		width=2.3333];
	54 -> 56	 [label="> -2.754",
		lp="2652.5,1031.5",
		op=">",
		param=-2.754,
		pos="e,2621,1006.1 2621,1056.8 2621,1044 2621,1029.7 2621,1016.2",
		style=dashed];
	57	 [fillcolor=honeydew,
		height=1.1528,
		label="BPSYS\ngini = 0.444\nsamples = 3\nvalue = [0, 2, 0, 0, 1]\nclass = 2",
		pos="2435,830.5",
		width=2.3333];
	56 -> 57	 [label="<= 0.381",
		lp="2569,897.5",
		op="<=",
		param=0.381,
		pos="e,2492.8,872.14 2563.2,922.84 2543.5,908.66 2521.3,892.7 2501.1,878.09",
		style=dashed];
	60	 [fillcolor=mistyrose,
		height=0.94444,
		label="gini = 0.0\nsamples = 3\nvalue = [0, 0, 0, 3, 0]\nclass = 4",
		pos="2621,830.5",
		width=2.3333];
	56 -> 60	 [label="> 0.381",
		lp="2650,897.5",
		op=">",
		param=0.381,
		pos="e,2621,864.5 2621,922.84 2621,907.6 2621,890.33 2621,874.87",
		style=solid];
	58	 [fillcolor=honeydew,
		height=0.94444,
		label="gini = 0.0\nsamples = 2\nvalue = [0, 2, 0, 0, 0]\nclass = 2",
		pos="2435,696.5",
		width=2.3333];
	57 -> 58	 [label="<= 94.5",
		lp="2465.5,763.5",
		op="<=",
		param=94.5,
		pos="e,2435,730.5 2435,788.84 2435,773.6 2435,756.33 2435,740.87",
		style=solid];
	59	 [fillcolor=lightcoral,
		height=0.94444,
		label="gini = 0.0\nsamples = 1\nvalue = [0, 0, 0, 0, 1]\nclass = 5",
		pos="2621,696.5",
		width=2.3333];
	57 -> 59	 [label="> 94.5",
		lp="2558.5,763.5",
		op=">",
		param=94.5,
		pos="e,2573.8,730.5 2492.8,788.84 2516,772.14 2542.6,752.98 2565.5,736.46",
		style=solid];
	62	 [fillcolor=mistyrose,
		height=1.1528,
		label="Age\ngini = 0.245\nsamples = 28\nvalue = [0, 4, 0, 24, 0]\nclass = 4",
		pos="2933,964.5",
		width=2.4583];
	61 -> 62	 [label="<= 71.5",
		lp="2963.5,1031.5",
		op="<=",
		param=71.5,
		pos="e,2933,1006.1 2933,1056.8 2933,1044 2933,1029.7 2933,1016.2",
		style=solid];
	71	 [fillcolor=honeydew,
		height=1.1528,
		label="MLHFS\ngini = 0.42\nsamples = 10\nvalue = [0, 7, 0, 3, 0]\nclass = 2",
		pos="3187,964.5",
		width=2.3333];
	61 -> 71	 [label="> 71.5",
		lp="3092.5,1031.5",
		op=">",
		param=71.5,
		pos="e,3108.1,1006.1 3012,1056.8 3039.6,1042.3 3070.7,1025.8 3099,1010.9",
		style=solid];
	63	 [fillcolor=mistyrose,
		height=1.1528,
		label="PP\ngini = 0.142\nsamples = 26\nvalue = [0, 2, 0, 24, 0]\nclass = 4",
		pos="2811,830.5",
		width=2.4583];
	62 -> 63	 [label="<= 82.0",
		lp="2906.5,897.5",
		op="<=",
		param=82.0,
		pos="e,2848.9,872.14 2895.1,922.84 2882.7,909.22 2868.8,893.97 2855.9,879.85",
		style=dashed];
	70	 [fillcolor=honeydew,
		height=0.94444,
		label="gini = 0.0\nsamples = 2\nvalue = [0, 2, 0, 0, 0]\nclass = 2",
		pos="3001,830.5",
		width=2.3333];
	62 -> 70	 [label="> 82.0",
		lp="2994.5,897.5",
		op=">",
		param=82.0,
		pos="e,2983.7,864.5 2954.1,922.84 2962.1,907.17 2971.1,889.33 2979.2,873.53",
		style=solid];
	64	 [fillcolor=mistyrose,
		height=1.1528,
		label="CRT\ngini = 0.077\nsamples = 25\nvalue = [0, 1, 0, 24, 0]\nclass = 4",
		pos="2811,696.5",
		width=2.4583];
	63 -> 64	 [label="<= 62.5",
		lp="2841.5,763.5",
		op="<=",
		param=62.5,
		pos="e,2811,738.14 2811,788.84 2811,775.98 2811,761.66 2811,748.21",
		style=dashed];
	69	 [fillcolor=honeydew,
		height=0.94444,
		label="gini = 0.0\nsamples = 1\nvalue = [0, 1, 0, 0, 0]\nclass = 2",
		pos="3001,696.5",
		width=2.3333];
	63 -> 69	 [label="> 62.5",
		lp="2936.5,763.5",
		op=">",
		param=62.5,
		pos="e,2952.8,730.5 2870.1,788.84 2893.7,772.14 2920.9,752.98 2944.3,736.46",
		style=solid];
	65	 [fillcolor=honeydew,
		height=1.1528,
		label="POT\ngini = 0.5\nsamples = 2\nvalue = [0, 1, 0, 1, 0]\nclass = 2",
		pos="2669,562.5",
		width=2.3333];
	64 -> 65	 [label="<= 0.95",
		lp="2775.5,629.5",
		op="<=",
		param=0.95,
		pos="e,2713.1,604.14 2766.8,654.84 2752.2,640.97 2735.7,625.41 2720.5,611.07",
		style=dashed];
	68	 [fillcolor=mistyrose,
		height=0.94444,
		label="gini = 0.0\nsamples = 23\nvalue = [0, 0, 0, 23, 0]\nclass = 4",
		pos="2859,562.5",
		width=2.4583];
	64 -> 68	 [label="> 0.95",
		lp="2861.5,629.5",
		op=">",
		param=0.95,
		pos="e,2846.8,596.5 2825.9,654.84 2831.5,639.31 2837.8,621.66 2843.4,605.98",
		style=solid];
	66	 [fillcolor=honeydew,
		height=0.94444,
		label="gini = 0.0\nsamples = 1\nvalue = [0, 1, 0, 0, 0]\nclass = 2",
		pos="2576,428.5",
		width=2.3333];
	65 -> 66	 [label="<= 4.05",
		lp="2656.5,495.5",
		op="<=",
		param=4.05,
		pos="e,2599.6,462.5 2640.1,520.84 2629.1,505.02 2616.6,486.99 2605.6,471.09",
		style=solid];
	67	 [fillcolor=mistyrose,
		height=0.94444,
		label="gini = 0.0\nsamples = 1\nvalue = [0, 0, 0, 1, 0]\nclass = 4",
		pos="2762,428.5",
		width=2.3333];
	65 -> 67	 [label="> 4.05",
		lp="2743.5,495.5",
		op=">",
		param=4.05,
		pos="e,2738.4,462.5 2697.9,520.84 2708.9,505.02 2721.4,486.99 2732.4,471.09",
		style=solid];
	72	 [fillcolor=honeydew,
		height=0.94444,
		label="gini = 0.0\nsamples = 6\nvalue = [0, 6, 0, 0, 0]\nclass = 2",
		pos="3187,830.5",
		width=2.3333];
	71 -> 72	 [label="<= 89.5",
		lp="3217.5,897.5",
		op="<=",
		param=89.5,
		pos="e,3187,864.5 3187,922.84 3187,907.6 3187,890.33 3187,874.87",
		style=solid];
	73	 [fillcolor=mistyrose,
		height=1.1528,
		label="TALB\ngini = 0.375\nsamples = 4\nvalue = [0, 1, 0, 3, 0]\nclass = 4",
		pos="3373,830.5",
		width=2.3333];
	71 -> 73	 [label="> 89.5",
		lp="3310.5,897.5",
		op=">",
		param=89.5,
		pos="e,3315.2,872.14 3244.8,922.84 3264.5,908.66 3286.7,892.7 3306.9,878.09",
		style=dashed];
	74	 [fillcolor=honeydew,
		height=0.94444,
		label="gini = 0.0\nsamples = 1\nvalue = [0, 1, 0, 0, 0]\nclass = 2",
		pos="3189,696.5",
		width=2.3333];
	73 -> 74	 [label="<= 0.45",
		lp="3317.5,763.5",
		op="<=",
		param=0.45,
		pos="e,3235.7,730.5 3315.8,788.84 3292.9,772.14 3266.6,752.98 3243.9,736.46",
		style=solid];
	75	 [fillcolor=mistyrose,
		height=0.94444,
		label="gini = 0.0\nsamples = 3\nvalue = [0, 0, 0, 3, 0]\nclass = 4",
		pos="3375,696.5",
		width=2.3333];
	73 -> 75	 [label="> 0.45",
		lp="3399.5,763.5",
		op=">",
		param=0.45,
		pos="e,3374.5,730.5 3373.6,788.84 3373.8,773.6 3374.1,756.33 3374.3,740.87",
		style=solid];
	77	 [fillcolor=mistyrose,
		height=1.1528,
		label="ARRH\ngini = 0.505\nsamples = 199\nvalue = [1, 84, 0, 112, 2]\nclass = 4",
		pos="5239,1366.5",
		width=2.7083];
	76 -> 77	 [label="<= 0.5",
		lp="5265,1433.5",
		op="<=",
		param=0.5,
		pos="e,5239,1408.1 5239,1458.8 5239,1446 5239,1431.7 5239,1418.2",
		style=solid];
	132	 [fillcolor=mistyrose,
		height=1.1528,
		label="ANGP\ngini = 0.214\nsamples = 200\nvalue = [0, 21, 0, 176, 3]\nclass = 4",
		pos="6389,1366.5",
		width=2.7083];
	76 -> 132	 [label="> 0.5",
		lp="5869,1433.5",
		op=">",
		param=0.5,
		pos="e,6291.3,1377.9 5341.1,1488.6 5557.3,1463.4 6060.1,1404.8 6281.3,1379.1",
		style=solid];
	78	 [fillcolor=honeydew,
		height=1.1528,
		label="VAHD\ngini = 0.513\nsamples = 113\nvalue = [1, 64, 0, 46, 2]\nclass = 2",
		pos="5079,1232.5",
		width=2.5833];
	77 -> 78	 [label="<= 0.5",
		lp="5190,1299.5",
		op="<=",
		param=0.5,
		pos="e,5128.7,1274.1 5189.3,1324.8 5172.5,1310.8 5153.8,1295.1 5136.5,1280.7",
		style=solid];
	113	 [fillcolor=mistyrose,
		height=1.1528,
		label="PP\ngini = 0.357\nsamples = 86\nvalue = [0, 20, 0, 66, 0]\nclass = 4",
		pos="5509,1232.5",
		width=2.5833];
	77 -> 113	 [label="> 0.5",
		lp="5403,1299.5",
		op=">",
		param=0.5,
		pos="e,5425.1,1274.1 5322.9,1324.8 5352.4,1310.2 5385.7,1293.7 5415.8,1278.7",
		style=solid];
	79	 [fillcolor=honeydew,
		height=1.1528,
		label="HTN\ngini = 0.422\nsamples = 85\nvalue = [1, 60, 0, 24, 0]\nclass = 2",
		pos="4214,1098.5",
		width=2.5833];
	78 -> 79	 [label="<= 0.5",
		lp="4699,1165.5",
		op="<=",
		param=0.5,
		pos="e,4307,1112.9 4985.6,1218 4822.4,1192.8 4486.6,1140.7 4316.9,1114.4",
		style=solid];
	102	 [fillcolor=mistyrose,
		height=1.1528,
		label="PPP\ngini = 0.357\nsamples = 28\nvalue = [0, 4, 0, 22, 2]\nclass = 4",
		pos="5079,1098.5",
		width=2.4583];
	78 -> 102	 [label="> 0.5",
		lp="5099,1165.5",
		op=">",
		param=0.5,
		pos="e,5079,1140.1 5079,1190.8 5079,1178 5079,1163.7 5079,1150.2",
		style=solid];
	80	 [fillcolor=honeydew,
		height=1.1528,
		label="PACE\ngini = 0.187\nsamples = 48\nvalue = [0, 43, 0, 5, 0]\nclass = 2",
		pos="3753,964.5",
		width=2.4583];
	79 -> 80	 [label="<= 0.5",
		lp="4024,1031.5",
		op="<=",
		param=0.5,
		pos="e,3841.6,990.24 4121,1071.5 4042.8,1048.7 3931.3,1016.3 3851.6,993.17",
		style=solid];
	87	 [fillcolor=mistyrose,
		height=1.1528,
		label="SOD\ngini = 0.524\nsamples = 37\nvalue = [1, 17, 0, 19, 0]\nclass = 4",
		pos="4214,964.5",
		width=2.5833];
	79 -> 87	 [label="> 0.5",
		lp="4234,1031.5",
		op=">",
		param=0.5,
		pos="e,4214,1006.1 4214,1056.8 4214,1044 4214,1029.7 4214,1016.2",
		style=dashed];
	81	 [fillcolor=honeydew,
		height=0.94444,
		label="gini = 0.0\nsamples = 40\nvalue = [0, 40, 0, 0, 0]\nclass = 2",
		pos="3563,830.5",
		width=2.4583];
	80 -> 81	 [label="<= 0.5",
		lp="3690,897.5",
		op="<=",
		param=0.5,
		pos="e,3611.2,864.5 3693.9,922.84 3670.3,906.14 3643.1,886.98 3619.7,870.46",
		style=solid];
	82	 [fillcolor=mistyrose,
		height=1.1528,
		label="BMI\ngini = 0.469\nsamples = 8\nvalue = [0, 3, 0, 5, 0]\nclass = 4",
		pos="3753,830.5",
		width=2.3333];
	80 -> 82	 [label="> 0.5",
		lp="3773,897.5",
		op=">",
		param=0.5,
		pos="e,3753,872.14 3753,922.84 3753,909.98 3753,895.66 3753,882.21",
		style=solid];
	83	 [fillcolor=honeydew,
		height=1.1528,
		label="Age\ngini = 0.375\nsamples = 4\nvalue = [0, 3, 0, 1, 0]\nclass = 2",
		pos="3565,696.5",
		width=2.3333];
	82 -> 83	 [label="<= 27.981",
		lp="3708.5,763.5",
		op="<=",
		param=27.981,
		pos="e,3623,738.13 3694.2,788.93 3685.8,782.92 3677.2,776.81 3669,771 3656.8,762.28 3643.7,752.96 3631.2,743.98",
		style=solid];
	86	 [fillcolor=mistyrose,
		height=0.94444,
		label="gini = 0.0\nsamples = 4\nvalue = [0, 0, 0, 4, 0]\nclass = 4",
		pos="3751,696.5",
		width=2.3333];
	82 -> 86	 [label="> 27.981",
		lp="3786.5,763.5",
		op=">",
		param=27.981,
		pos="e,3751.5,730.5 3752.4,788.84 3752.2,773.6 3751.9,756.33 3751.7,740.87",
		style=solid];
	84	 [fillcolor=honeydew,
		height=0.94444,
		label="gini = 0.0\nsamples = 3\nvalue = [0, 3, 0, 0, 0]\nclass = 2",
		pos="3379,562.5",
		width=2.3333];
	83 -> 84	 [label="<= 63.0",
		lp="3508.5,629.5",
		op="<=",
		param=63.0,
		pos="e,3426.2,596.5 3507.2,654.84 3484,638.14 3457.4,618.98 3434.5,602.46",
		style=solid];
	85	 [fillcolor=mistyrose,
		height=0.94444,
		label="gini = 0.0\nsamples = 1\nvalue = [0, 0, 0, 1, 0]\nclass = 4",
		pos="3565,562.5",
		width=2.3333];
	83 -> 85	 [label="> 63.0",
		lp="3589.5,629.5",
		op=">",
		param=63.0,
		pos="e,3565,596.5 3565,654.84 3565,639.6 3565,622.33 3565,606.87",
		style=solid];
	88	 [fillcolor=honeydew,
		height=1.1528,
		label="MLHFS\ngini = 0.357\nsamples = 14\nvalue = [1, 11, 0, 2, 0]\nclass = 2",
		pos="4130,830.5",
		width=2.4583];
	87 -> 88	 [label="<= 135.5",
		lp="4210,897.5",
		op="<=",
		param=135.5,
		pos="e,4156.1,872.14 4187.9,922.84 4179.5,909.48 4170.1,894.54 4161.4,880.64",
		style=dashed];
	93	 [fillcolor=mistyrose,
		height=1.1528,
		label="Gender\ngini = 0.386\nsamples = 23\nvalue = [0, 6, 0, 17, 0]\nclass = 4",
		pos="4325,830.5",
		width=2.4583];
	87 -> 93	 [label="> 135.5",
		lp="4302,897.5",
		op=">",
		param=135.5,
		pos="e,4290.5,872.14 4248.5,922.84 4259.8,909.22 4272.4,893.97 4284.1,879.85",
		style=solid];
	89	 [fillcolor=honeydew,
		height=1.1528,
		label="DIUR\ngini = 0.153\nsamples = 12\nvalue = [1, 11, 0, 0, 0]\nclass = 2",
		pos="3941,696.5",
		width=2.4583];
	88 -> 89	 [label="<= 98.0",
		lp="4072.5,763.5",
		op="<=",
		param=98.0,
		pos="e,3999.7,738.14 4071.2,788.84 4051.2,774.66 4028.7,758.7 4008.1,744.09",
		style=dashed];
	92	 [fillcolor=mistyrose,
		height=0.94444,
		label="gini = 0.0\nsamples = 2\nvalue = [0, 0, 0, 2, 0]\nclass = 4",
		pos="4131,696.5",
		width=2.3333];
	88 -> 92	 [label="> 98.0",
		lp="4155.5,763.5",
		op=">",
		param=98.0,
		pos="e,4130.7,730.5 4130.3,788.84 4130.4,773.6 4130.6,756.33 4130.7,740.87",
		style=solid];
	90	 [fillcolor=palegreen,
		height=0.94444,
		label="gini = 0.0\nsamples = 1\nvalue = [1, 0, 0, 0, 0]\nclass = 1",
		pos="3751,562.5",
		width=2.3333];
	89 -> 90	 [label="<= 0.5",
		lp="3878,629.5",
		op="<=",
		param=0.5,
		pos="e,3799.2,596.5 3881.9,654.84 3858.3,638.14 3831.1,618.98 3807.7,602.46",
		style=solid];
	91	 [fillcolor=honeydew,
		height=0.94444,
		label="gini = 0.0\nsamples = 11\nvalue = [0, 11, 0, 0, 0]\nclass = 2",
		pos="3941,562.5",
		width=2.4583];
	89 -> 91	 [label="> 0.5",
		lp="3961,629.5",
		op=">",
		param=0.5,
		pos="e,3941,596.5 3941,654.84 3941,639.6 3941,622.33 3941,606.87",
		style=solid];
	94	 [fillcolor=mistyrose,
		height=1.1528,
		label="BUN\ngini = 0.208\nsamples = 17\nvalue = [0, 2, 0, 15, 0]\nclass = 4",
		pos="4324,696.5",
		width=2.4583];
	93 -> 94	 [label="<= 1.5",
		lp="4351,763.5",
		op="<=",
		param=1.5,
		pos="e,4324.3,738.14 4324.7,788.84 4324.6,775.98 4324.5,761.66 4324.4,748.21",
		style=solid];
	99	 [fillcolor=honeydew,
		height=1.1528,
		label="Age\ngini = 0.444\nsamples = 6\nvalue = [0, 4, 0, 2, 0]\nclass = 2",
		pos="4514,696.5",
		width=2.3333];
	93 -> 99	 [label="> 1.5",
		lp="4446,763.5",
		op=">",
		param=1.5,
		pos="e,4455.3,738.14 4383.8,788.84 4403.8,774.66 4426.3,758.7 4446.9,744.09",
		style=solid];
	95	 [fillcolor=mistyrose,
		height=0.94444,
		label="gini = 0.0\nsamples = 14\nvalue = [0, 0, 0, 14, 0]\nclass = 4",
		pos="4136,562.5",
		width=2.4583];
	94 -> 95	 [label="<= 35.5",
		lp="4266.5,629.5",
		op="<=",
		param=35.5,
		pos="e,4183.7,596.5 4265.5,654.84 4242.1,638.14 4215.2,618.98 4192.1,602.46",
		style=solid];
	96	 [fillcolor=honeydew,
		height=1.1528,
		label="MAP\ngini = 0.444\nsamples = 3\nvalue = [0, 2, 0, 1, 0]\nclass = 2",
		pos="4326,562.5",
		width=2.3333];
	94 -> 96	 [label="> 35.5",
		lp="4350.5,629.5",
		op=">",
		param=35.5,
		pos="e,4325.4,604.14 4324.6,654.84 4324.8,641.98 4325,627.66 4325.2,614.21",
		style=dashed];
	97	 [fillcolor=honeydew,
		height=0.94444,
		label="gini = 0.0\nsamples = 2\nvalue = [0, 2, 0, 0, 0]\nclass = 2",
		pos="4233,428.5",
		width=2.3333];
	96 -> 97	 [label="<= 166.333",
		lp="4327,495.5",
		op="<=",
		param=166.333,
		pos="e,4256.6,462.5 4297.1,520.84 4286.1,505.02 4273.6,486.99 4262.6,471.09",
		style=solid];
	98	 [fillcolor=mistyrose,
		height=0.94444,
		label="gini = 0.0\nsamples = 1\nvalue = [0, 0, 0, 1, 0]\nclass = 4",
		pos="4419,428.5",
		width=2.3333];
	96 -> 98	 [label="> 166.333",
		lp="4423,495.5",
		op=">",
		param=166.333,
		pos="e,4400.4,462.57 4361.6,520.88 4366.3,514.99 4370.9,508.92 4375,503 4382,493 4389,481.85 4395.3,471.28",
		style=solid];
	100	 [fillcolor=honeydew,
		height=0.94444,
		label="gini = 0.0\nsamples = 4\nvalue = [0, 4, 0, 0, 0]\nclass = 2",
		pos="4512,562.5",
		width=2.3333];
	99 -> 100	 [label="<= 57.0",
		lp="4544.5,629.5",
		op="<=",
		param=57.0,
		pos="e,4512.5,596.5 4513.4,654.84 4513.2,639.6 4512.9,622.33 4512.7,606.87",
		style=solid];
	101	 [fillcolor=mistyrose,
		height=0.94444,
		label="gini = 0.0\nsamples = 2\nvalue = [0, 0, 0, 2, 0]\nclass = 4",
		pos="4698,562.5",
		width=2.3333];
	99 -> 101	 [label="> 57.0",
		lp="4636.5,629.5",
		op=">",
		param=57.0,
		pos="e,4651.3,596.5 4571.2,654.84 4594.1,638.14 4620.4,618.98 4643.1,602.46",
		style=solid];
	103	 [fillcolor=mistyrose,
		height=1.1528,
		label="Age\ngini = 0.272\nsamples = 26\nvalue = [0, 2, 0, 22, 2]\nclass = 4",
		pos="4975,964.5",
		width=2.4583];
	102 -> 103	 [label="<= 0.517",
		lp="5066,1031.5",
		op="<=",
		param=0.517,
		pos="e,5007.3,1006.1 5046.7,1056.8 5036.2,1043.3 5024.5,1028.3 5013.6,1014.2",
		style=solid];
	112	 [fillcolor=honeydew,
		height=0.94444,
		label="gini = 0.0\nsamples = 2\nvalue = [0, 2, 0, 0, 0]\nclass = 2",
		pos="5165,964.5",
		width=2.3333];
	102 -> 112	 [label="> 0.517",
		lp="5154,1031.5",
		op=">",
		param=0.517,
		pos="e,5143.2,998.5 5105.7,1056.8 5115.9,1041 5127.5,1023 5137.7,1007.1",
		style=solid];
	104	 [fillcolor=mistyrose,
		height=1.1528,
		label="WBC\ngini = 0.156\nsamples = 24\nvalue = [0, 1, 0, 22, 1]\nclass = 4",
		pos="4975,830.5",
		width=2.4583];
	103 -> 104	 [label="<= 75.0",
		lp="5005.5,897.5",
		op="<=",
		param=75.0,
		pos="e,4975,872.14 4975,922.84 4975,909.98 4975,895.66 4975,882.21",
		style=solid];
	109	 [fillcolor=honeydew,
		height=1.1528,
		label="HR\ngini = 0.5\nsamples = 2\nvalue = [0, 1, 0, 0, 1]\nclass = 2",
		pos="5173,830.5",
		width=2.3333];
	103 -> 109	 [label="> 75.0",
		lp="5104.5,897.5",
		op=">",
		param=75.0,
		pos="e,5111.5,872.14 5036.6,922.84 5057.6,908.59 5081.3,892.56 5103,877.9",
		style=solid];
	105	 [fillcolor=mistyrose,
		height=1.1528,
		label="BPSYS\ngini = 0.083\nsamples = 23\nvalue = [0, 0, 0, 22, 1]\nclass = 4",
		pos="4797,696.5",
		width=2.4583];
	104 -> 105	 [label="<= 9.85",
		lp="4922.5,763.5",
		op="<=",
		param=9.85,
		pos="e,4852.3,738.14 4919.7,788.84 4900.9,774.72 4879.8,758.84 4860.5,744.29",
		style=solid];
	108	 [fillcolor=honeydew,
		height=0.94444,
		label="gini = 0.0\nsamples = 1\nvalue = [0, 1, 0, 0, 0]\nclass = 2",
		pos="4987,696.5",
		width=2.3333];
	104 -> 108	 [label="> 9.85",
		lp="5006.5,763.5",
		op=">",
		param=9.85,
		pos="e,4984,730.5 4978.7,788.84 4980.1,773.6 4981.6,756.33 4983,740.87",
		style=solid];
	106	 [fillcolor=mistyrose,
		height=0.94444,
		label="gini = 0.0\nsamples = 22\nvalue = [0, 0, 0, 22, 0]\nclass = 4",
		pos="4888,562.5",
		width=2.4583];
	105 -> 106	 [label="<= 146.0",
		lp="4881,629.5",
		op="<=",
		param=146.0,
		pos="e,4864.9,596.5 4825.3,654.84 4836,639.02 4848.3,620.99 4859.1,605.09",
		style=solid];
	107	 [fillcolor=lightcoral,
		height=0.94444,
		label="gini = 0.0\nsamples = 1\nvalue = [0, 0, 0, 0, 1]\nclass = 5",
		pos="5078,562.5",
		width=2.3333];
	105 -> 107	 [label="> 146.0",
		lp="4975,629.5",
		op=">",
		param=146.0,
		pos="e,5006.7,596.5 4884.4,654.84 4920.5,637.63 4962,617.8 4997.4,600.95",
		style=solid];
	110	 [fillcolor=lightcoral,
		height=0.94444,
		label="gini = 0.0\nsamples = 1\nvalue = [0, 0, 0, 0, 1]\nclass = 5",
		pos="5173,696.5",
		width=2.3333];
	109 -> 110	 [label="<= 82.0",
		lp="5203.5,763.5",
		op="<=",
		param=82.0,
		pos="e,5173,730.5 5173,788.84 5173,773.6 5173,756.33 5173,740.87",
		style=solid];
	111	 [fillcolor=honeydew,
		height=0.94444,
		label="gini = 0.0\nsamples = 1\nvalue = [0, 1, 0, 0, 0]\nclass = 2",
		pos="5359,696.5",
		width=2.3333];
	109 -> 111	 [label="> 82.0",
		lp="5296.5,763.5",
		op=">",
		param=82.0,
		pos="e,5311.8,730.5 5230.8,788.84 5254,772.14 5280.6,752.98 5303.5,736.46",
		style=solid];
	114	 [fillcolor=honeydew,
		height=1.1528,
		label="MAP\ngini = 0.153\nsamples = 12\nvalue = [0, 11, 0, 1, 0]\nclass = 2",
		pos="5509,1098.5",
		width=2.4583];
	113 -> 114	 [label="<= 20.5",
		lp="5539.5,1165.5",
		op="<=",
		param=20.5,
		pos="e,5509,1140.1 5509,1190.8 5509,1178 5509,1163.7 5509,1150.2",
		style=dashed];
	117	 [fillcolor=mistyrose,
		height=1.1528,
		label="SOD\ngini = 0.214\nsamples = 74\nvalue = [0, 9, 0, 65, 0]\nclass = 4",
		pos="5731,1098.5",
		width=2.4583];
	113 -> 117	 [label="> 20.5",
		lp="5651.5,1165.5",
		op=">",
		param=20.5,
		pos="e,5662,1140.1 5578,1190.8 5601.9,1176.4 5628.9,1160.1 5653.4,1145.3",
		style=solid];
	115	 [fillcolor=honeydew,
		height=0.94444,
		label="gini = 0.0\nsamples = 11\nvalue = [0, 11, 0, 0, 0]\nclass = 2",
		pos="5355,964.5",
		width=2.4583];
	114 -> 115	 [label="<= 150.0",
		lp="5472,1031.5",
		op="<=",
		param=150.0,
		pos="e,5394.1,998.5 5461.1,1056.8 5442.2,1040.4 5420.5,1021.5 5401.7,1005.1",
		style=solid];
	116	 [fillcolor=mistyrose,
		height=0.94444,
		label="gini = 0.0\nsamples = 1\nvalue = [0, 0, 0, 1, 0]\nclass = 4",
		pos="5545,964.5",
		width=2.3333];
	114 -> 116	 [label="> 150.0",
		lp="5558,1031.5",
		op=">",
		param=150.0,
		pos="e,5535.9,998.5 5520.2,1056.8 5524.3,1041.5 5529,1024 5533.2,1008.4",
		style=solid];
	118	 [fillcolor=honeydew,
		height=1.1528,
		label="AST\ngini = 0.5\nsamples = 12\nvalue = [0, 6, 0, 6, 0]\nclass = 2",
		pos="5731,964.5",
		width=2.3333];
	117 -> 118	 [label="<= 128.5",
		lp="5766,1031.5",
		op="<=",
		param=128.5,
		pos="e,5731,1006.1 5731,1056.8 5731,1044 5731,1029.7 5731,1016.2",
		style=solid];
	123	 [fillcolor=mistyrose,
		height=1.1528,
		label="PLA\ngini = 0.092\nsamples = 62\nvalue = [0, 3, 0, 59, 0]\nclass = 4",
		pos="5921,964.5",
		width=2.4583];
	117 -> 123	 [label="> 128.5",
		lp="5861,1031.5",
		op=">",
		param=128.5,
		pos="e,5862,1006.1 5790.1,1056.8 5810.2,1042.7 5832.8,1026.7 5853.5,1012.1",
		style=solid];
	119	 [fillcolor=honeydew,
		height=1.1528,
		label="Wt\ngini = 0.245\nsamples = 7\nvalue = [0, 6, 0, 1, 0]\nclass = 2",
		pos="5545,830.5",
		width=2.3333];
	118 -> 119	 [label="<= 38.0",
		lp="5674.5,897.5",
		op="<=",
		param=38.0,
		pos="e,5602.8,872.14 5673.2,922.84 5653.5,908.66 5631.3,892.7 5611.1,878.09",
		style=solid];
	122	 [fillcolor=mistyrose,
		height=0.94444,
		label="gini = 0.0\nsamples = 5\nvalue = [0, 0, 0, 5, 0]\nclass = 4",
		pos="5731,830.5",
		width=2.3333];
	118 -> 122	 [label="> 38.0",
		lp="5755.5,897.5",
		op=">",
		param=38.0,
		pos="e,5731,864.5 5731,922.84 5731,907.6 5731,890.33 5731,874.87",
		style=solid];
	120	 [fillcolor=mistyrose,
		height=0.94444,
		label="gini = 0.0\nsamples = 1\nvalue = [0, 0, 0, 1, 0]\nclass = 4",
		pos="5545,696.5",
		width=2.3333];
	119 -> 120	 [label="<= 28.795",
		lp="5584.5,763.5",
		op="<=",
		param=28.795,
		pos="e,5545,730.5 5545,788.84 5545,773.6 5545,756.33 5545,740.87",
		style=solid];
	121	 [fillcolor=honeydew,
		height=0.94444,
		label="gini = 0.0\nsamples = 6\nvalue = [0, 6, 0, 0, 0]\nclass = 2",
		pos="5731,696.5",
		width=2.3333];
	119 -> 121	 [label="> 28.795",
		lp="5681.5,763.5",
		op=">",
		param=28.795,
		pos="e,5683.9,730.66 5603.1,788.92 5611.4,782.91 5619.9,776.8 5628,771 5643.4,759.9 5660.1,747.85 5675.5,736.73",
		style=solid];
	124	 [fillcolor=mistyrose,
		height=1.1528,
		label="PV\ngini = 0.063\nsamples = 61\nvalue = [0, 2, 0, 59, 0]\nclass = 4",
		pos="5921,830.5",
		width=2.4583];
	123 -> 124	 [label="<= 403.5",
		lp="5956,897.5",
		op="<=",
		param=403.5,
		pos="e,5921,872.14 5921,922.84 5921,909.98 5921,895.66 5921,882.21",
		style=solid];
	131	 [fillcolor=honeydew,
		height=0.94444,
		label="gini = 0.0\nsamples = 1\nvalue = [0, 1, 0, 0, 0]\nclass = 2",
		pos="6111,830.5",
		width=2.3333];
	123 -> 131	 [label="> 403.5",
		lp="6051,897.5",
		op=">",
		param=403.5,
		pos="e,6062.8,864.5 5980.1,922.84 6003.7,906.14 6030.9,886.98 6054.3,870.46",
		style=solid];
	125	 [fillcolor=mistyrose,
		height=0.94444,
		label="gini = 0.0\nsamples = 50\nvalue = [0, 0, 0, 50, 0]\nclass = 4",
		pos="5921,696.5",
		width=2.4583];
	124 -> 125	 [label="<= 26.929",
		lp="5960.5,763.5",
		op="<=",
		param=26.929,
		pos="e,5921,730.5 5921,788.84 5921,773.6 5921,756.33 5921,740.87",
		style=solid];
	126	 [fillcolor=mistyrose,
		height=1.1528,
		label="SixFtWlk\ngini = 0.298\nsamples = 11\nvalue = [0, 2, 0, 9, 0]\nclass = 4",
		pos="6111,696.5",
		width=2.3333];
	124 -> 126	 [label="> 26.929",
		lp="6055.5,763.5",
		op=">",
		param=26.929,
		pos="e,6052,738.14 5980.1,788.84 6000.2,774.66 6022.8,758.7 6043.5,744.09",
		style=dashed];
	127	 [fillcolor=honeydew,
		height=1.1528,
		label="ALB\ngini = 0.444\nsamples = 3\nvalue = [0, 2, 0, 1, 0]\nclass = 2",
		pos="5927,562.5",
		width=2.3333];
	126 -> 127	 [label="<= 125.0",
		lp="6060,629.5",
		op="<=",
		param=125.0,
		pos="e,5984.2,604.14 6053.8,654.84 6034.3,640.66 6012.4,624.7 5992.3,610.09",
		style=solid];
	130	 [fillcolor=mistyrose,
		height=0.94444,
		label="gini = 0.0\nsamples = 8\nvalue = [0, 0, 0, 8, 0]\nclass = 4",
		pos="6113,562.5",
		width=2.3333];
	126 -> 130	 [label="> 125.0",
		lp="6142,629.5",
		op=">",
		param=125.0,
		pos="e,6112.5,596.5 6111.6,654.84 6111.8,639.6 6112.1,622.33 6112.3,606.87",
		style=solid];
	128	 [fillcolor=mistyrose,
		height=0.94444,
		label="gini = 0.0\nsamples = 1\nvalue = [0, 0, 0, 1, 0]\nclass = 4",
		pos="5882,428.5",
		width=2.3333];
	127 -> 128	 [label="<= 1.7",
		lp="5932,495.5",
		op="<=",
		param=1.7,
		pos="e,5893.4,462.5 5913,520.84 5907.8,505.46 5902,487.99 5896.7,472.42",
		style=solid];
	129	 [fillcolor=honeydew,
		height=0.94444,
		label="gini = 0.0\nsamples = 2\nvalue = [0, 2, 0, 0, 0]\nclass = 2",
		pos="6068,428.5",
		width=2.3333];
	127 -> 129	 [label="> 1.7",
		lp="6022,495.5",
		op=">",
		param=1.7,
		pos="e,6032.2,462.5 5970.8,520.84 5987.9,504.58 6007.5,485.99 6024.6,469.77",
		style=solid];
	133	 [fillcolor=mistyrose,
		height=1.1528,
		label="ARRH\ngini = 0.415\nsamples = 77\nvalue = [0, 21, 0, 55, 1]\nclass = 4",
		pos="6389,1232.5",
		width=2.5833];
	132 -> 133	 [label="<= 0.5",
		lp="6415,1299.5",
		op="<=",
		param=0.5,
		pos="e,6389,1274.1 6389,1324.8 6389,1312 6389,1297.7 6389,1284.2",
		style=solid];
	154	 [fillcolor=mistyrose,
		height=1.1528,
		label="DIUR\ngini = 0.032\nsamples = 123\nvalue = [0, 0, 0, 121, 2]\nclass = 4",
		pos="6881,1232.5",
		width=2.5833];
	132 -> 154	 [label="> 0.5",
		lp="6670,1299.5",
		op=">",
		param=0.5,
		pos="e,6788,1257.8 6486.8,1339.9 6571.1,1316.9 6692.5,1283.8 6778.2,1260.5",
		style=solid];
	134	 [fillcolor=honeydew,
		height=1.1528,
		label="EjF\ngini = 0.526\nsamples = 35\nvalue = [0, 18, 0, 16, 1]\nclass = 2",
		pos="6305,1098.5",
		width=2.5833];
	133 -> 134	 [label="<= 0.5",
		lp="6376,1165.5",
		op="<=",
		param=0.5,
		pos="e,6331.1,1140.1 6362.9,1190.8 6354.5,1177.5 6345.1,1162.5 6336.4,1148.6",
		style=dashed];
	145	 [fillcolor=mistyrose,
		height=1.1528,
		label="HR\ngini = 0.133\nsamples = 42\nvalue = [0, 3, 0, 39, 0]\nclass = 4",
		pos="6504,1098.5",
		width=2.4583];
	133 -> 145	 [label="> 0.5",
		lp="6470,1165.5",
		op=">",
		param=0.5,
		pos="e,6468.3,1140.1 6424.8,1190.8 6436.4,1177.2 6449.5,1162 6461.6,1147.9",
		style=solid];
	135	 [fillcolor=honeydew,
		height=0.94444,
		label="gini = 0.0\nsamples = 12\nvalue = [0, 12, 0, 0, 0]\nclass = 2",
		pos="6116,964.5",
		width=2.4583];
	134 -> 135	 [label="<= 19.5",
		lp="6247.5,1031.5",
		op="<=",
		param=19.5,
		pos="e,6164,998.5 6246.2,1056.8 6222.7,1040.1 6195.7,1021 6172.4,1004.5",
		style=solid];
	136	 [fillcolor=mistyrose,
		height=1.1528,
		label="Wt\ngini = 0.446\nsamples = 23\nvalue = [0, 6, 0, 16, 1]\nclass = 4",
		pos="6311,964.5",
		width=2.4583];
	134 -> 136	 [label="> 19.5",
		lp="6333.5,1031.5",
		op=">",
		param=19.5,
		pos="e,6309.1,1006.1 6306.9,1056.8 6307.4,1044 6308.1,1029.7 6308.7,1016.2",
		style=solid];
	137	 [fillcolor=honeydew,
		height=0.94444,
		label="gini = 0.0\nsamples = 3\nvalue = [0, 3, 0, 0, 0]\nclass = 2",
		pos="6304,830.5",
		width=2.3333];
	136 -> 137	 [label="<= 64.205",
		lp="6347.5,897.5",
		op="<=",
		param=64.205,
		pos="e,6305.8,864.5 6308.8,922.84 6308,907.6 6307.1,890.33 6306.3,874.87",
		style=solid];
	138	 [fillcolor=mistyrose,
		height=1.1528,
		label="PP\ngini = 0.335\nsamples = 20\nvalue = [0, 3, 0, 16, 1]\nclass = 4",
		pos="6494,830.5",
		width=2.4583];
	136 -> 138	 [label="> 64.205",
		lp="6441.5,897.5",
		op=">",
		param=64.205,
		pos="e,6437.1,872.14 6367.9,922.84 6387.3,908.66 6409.1,892.7 6429,878.09",
		style=dashed];
	139	 [fillcolor=mistyrose,
		height=1.1528,
		label="TotalHospDays\ngini = 0.594\nsamples = 8\nvalue = [0, 3, 0, 4, 1]\nclass = 4",
		pos="6304,696.5",
		width=2.3333];
	138 -> 139	 [label="<= 37.5",
		lp="6435.5,763.5",
		op="<=",
		param=37.5,
		pos="e,6363,738.14 6434.9,788.84 6414.8,774.66 6392.2,758.7 6371.5,744.09",
		style=dashed];
	144	 [fillcolor=mistyrose,
		height=0.94444,
		label="gini = 0.0\nsamples = 12\nvalue = [0, 0, 0, 12, 0]\nclass = 4",
		pos="6494,696.5",
		width=2.4583];
	138 -> 144	 [label="> 37.5",
		lp="6518.5,763.5",
		op=">",
		param=37.5,
		pos="e,6494,730.5 6494,788.84 6494,773.6 6494,756.33 6494,740.87",
		style=solid];
	140	 [fillcolor=mistyrose,
		height=0.94444,
		label="gini = 0.0\nsamples = 4\nvalue = [0, 0, 0, 4, 0]\nclass = 4",
		pos="6302,562.5",
		width=2.3333];
	139 -> 140	 [label="<= 13.0",
		lp="6334.5,629.5",
		op="<=",
		param=13.0,
		pos="e,6302.5,596.5 6303.4,654.84 6303.2,639.6 6302.9,622.33 6302.7,606.87",
		style=solid];
	141	 [fillcolor=honeydew,
		height=1.1528,
		label="SixFtWlk\ngini = 0.375\nsamples = 4\nvalue = [0, 3, 0, 0, 1]\nclass = 2",
		pos="6488,562.5",
		width=2.3333];
	139 -> 141	 [label="> 13.0",
		lp="6426.5,629.5",
		op=">",
		param=13.0,
		pos="e,6430.8,604.14 6361.2,654.84 6380.7,640.66 6402.6,624.7 6422.7,610.09",
		style=solid];
	142	 [fillcolor=lightcoral,
		height=0.94444,
		label="gini = 0.0\nsamples = 1\nvalue = [0, 0, 0, 0, 1]\nclass = 5",
		pos="6347,428.5",
		width=2.3333];
	141 -> 142	 [label="<= 130.0",
		lp="6457,495.5",
		op="<=",
		param=130.0,
		pos="e,6382.8,462.5 6444.2,520.84 6427.1,504.58 6407.5,485.99 6390.4,469.77",
		style=solid];
	143	 [fillcolor=honeydew,
		height=0.94444,
		label="gini = 0.0\nsamples = 3\nvalue = [0, 3, 0, 0, 0]\nclass = 2",
		pos="6533,428.5",
		width=2.3333];
	141 -> 143	 [label="> 130.0",
		lp="6541,495.5",
		op=">",
		param=130.0,
		pos="e,6521.6,462.5 6502,520.84 6507.2,505.46 6513,487.99 6518.3,472.42",
		style=solid];
	146	 [fillcolor=honeydew,
		height=0.94444,
		label="gini = 0.0\nsamples = 1\nvalue = [0, 1, 0, 0, 0]\nclass = 2",
		pos="6501,964.5",
		width=2.3333];
	145 -> 146	 [label="<= 57.0",
		lp="6533.5,1031.5",
		op="<=",
		param=57.0,
		pos="e,6501.8,998.5 6503.1,1056.8 6502.7,1041.6 6502.3,1024.3 6502,1008.9",
		style=solid];
	147	 [fillcolor=mistyrose,
		height=1.1528,
		label="DIUR\ngini = 0.093\nsamples = 41\nvalue = [0, 2, 0, 39, 0]\nclass = 4",
		pos="6691,964.5",
		width=2.4583];
	145 -> 147	 [label="> 57.0",
		lp="6628.5,1031.5",
		op=">",
		param=57.0,
		pos="e,6632.9,1006.1 6562.1,1056.8 6581.9,1042.7 6604.2,1026.7 6624.6,1012.1",
		style=solid];
	148	 [fillcolor=honeydew,
		height=0.94444,
		label="gini = 0.0\nsamples = 1\nvalue = [0, 1, 0, 0, 0]\nclass = 2",
		pos="6686,830.5",
		width=2.3333];
	147 -> 148	 [label="<= 0.5",
		lp="6715,897.5",
		op="<=",
		param=0.5,
		pos="e,6687.3,864.5 6689.4,922.84 6688.9,907.6 6688.2,890.33 6687.7,874.87",
		style=solid];
	149	 [fillcolor=mistyrose,
		height=1.1528,
		label="BMI\ngini = 0.049\nsamples = 40\nvalue = [0, 1, 0, 39, 0]\nclass = 4",
		pos="6876,830.5",
		width=2.4583];
	147 -> 149	 [label="> 0.5",
		lp="6810,897.5",
		op=">",
		param=0.5,
		pos="e,6818.5,872.14 6748.5,922.84 6768.1,908.66 6790.1,892.7 6810.3,878.09",
		style=solid];
	150	 [fillcolor=mistyrose,
		height=1.1528,
		label="EjF\ngini = 0.444\nsamples = 3\nvalue = [0, 1, 0, 2, 0]\nclass = 4",
		pos="6687,696.5",
		width=2.3333];
	149 -> 150	 [label="<= 18.215",
		lp="6827.5,763.5",
		op="<=",
		param=18.215,
		pos="e,6745.7,738.14 6817.2,788.84 6797.2,774.66 6774.7,758.7 6754.1,744.09",
		style=solid];
	153	 [fillcolor=mistyrose,
		height=0.94444,
		label="gini = 0.0\nsamples = 37\nvalue = [0, 0, 0, 37, 0]\nclass = 4",
		pos="6877,696.5",
		width=2.4583];
	149 -> 153	 [label="> 18.215",
		lp="6910.5,763.5",
		op=">",
		param=18.215,
		pos="e,6876.7,730.5 6876.3,788.84 6876.4,773.6 6876.6,756.33 6876.7,740.87",
		style=solid];
	151	 [fillcolor=honeydew,
		height=0.94444,
		label="gini = 0.0\nsamples = 1\nvalue = [0, 1, 0, 0, 0]\nclass = 2",
		pos="6681,562.5",
		width=2.3333];
	150 -> 151	 [label="<= 18.0",
		lp="6715.5,629.5",
		op="<=",
		param=18.0,
		pos="e,6682.5,596.5 6685.1,654.84 6684.5,639.6 6683.7,622.33 6683,606.87",
		style=solid];
	152	 [fillcolor=mistyrose,
		height=0.94444,
		label="gini = 0.0\nsamples = 2\nvalue = [0, 0, 0, 2, 0]\nclass = 4",
		pos="6867,562.5",
		width=2.3333];
	150 -> 152	 [label="> 18.0",
		lp="6807.5,629.5",
		op=">",
		param=18.0,
		pos="e,6821.3,596.5 6743,654.84 6765.3,638.21 6790.9,619.15 6813,602.68",
		style=solid];
	155	 [fillcolor=mistyrose,
		height=1.1528,
		label="SixFtWlk\ngini = 0.5\nsamples = 4\nvalue = [0, 0, 0, 2, 2]\nclass = 4",
		pos="6881,1098.5",
		width=2.3333];
	154 -> 155	 [label="<= 0.5",
		lp="6907,1165.5",
		op="<=",
		param=0.5,
		pos="e,6881,1140.1 6881,1190.8 6881,1178 6881,1163.7 6881,1150.2",
		style=solid];
	158	 [fillcolor=mistyrose,
		height=0.94444,
		label="gini = 0.0\nsamples = 119\nvalue = [0, 0, 0, 119, 0]\nclass = 4",
		pos="7076,1098.5",
		width=2.5833];
	154 -> 158	 [label="> 0.5",
		lp="7005,1165.5",
		op=">",
		param=0.5,
		pos="e,7026.5,1132.5 6941.6,1190.8 6966,1174.1 6994,1154.8 7018.2,1138.2",
		style=solid];
	156	 [fillcolor=lightcoral,
		height=0.94444,
		label="gini = 0.0\nsamples = 2\nvalue = [0, 0, 0, 0, 2]\nclass = 5",
		pos="6881,964.5",
		width=2.3333];
	155 -> 156	 [label="<= 361.232",
		lp="6925,1031.5",
		op="<=",
		param=361.232,
		pos="e,6881,998.5 6881,1056.8 6881,1041.6 6881,1024.3 6881,1008.9",
		style=solid];
	157	 [fillcolor=mistyrose,
		height=0.94444,
		label="gini = 0.0\nsamples = 2\nvalue = [0, 0, 0, 2, 0]\nclass = 4",
		pos="7067,964.5",
		width=2.3333];
	155 -> 157	 [label="> 361.232",
		lp="7030,1031.5",
		op=">",
		param=361.232,
		pos="e,7025.5,998.76 6947.3,1056.7 6956.1,1050.9 6964.8,1044.9 6973,1039 6987.7,1028.4 7003.3,1016.5 7017.4,1005.3",
		style=solid];
}
