strict digraph Tree {
	graph [bb="0,0,976,1140"];
	node [color=black,
		fontname=helvetica,
		label="\N",
		shape=box,
		style="filled, rounded"
	];
	edge [fontname=helvetica];
	0	[fillcolor=palegreen,
		height=1.1528,
		label="Gender\ngini = 0.46\nsamples = 693\nvalue = [477, 2, 176, 11, 27]\nclass = 1",
		pos="605.5,1098.5",
		width=2.5694];
	1	[fillcolor=palegreen,
		height=1.1528,
		label="MAP\ngini = 0.139\nsamples = 515\nvalue = [477, 0, 0, 11, 27]\nclass = 1",
		pos="447.5,964.5",
		width=2.3611];
	0 -> 1	[label="<= 1.5",
		labelangle=45,
		labeldistance=2.5,
		lp="551.5,1031.5",
		op="<=",
		param=1.5,
		pos="e,496.03,1006 556.81,1056.8 540.06,1042.8 521.17,1027 503.86,1012.6",
		style=solid];
	22	[fillcolor=lightyellow,
		height=1.1528,
		label="NYHA\ngini = 0.022\nsamples = 178\nvalue = [0, 2, 176, 0, 0]\nclass = 3",
		pos="732.5,964.5",
		width=2.1528];
	0 -> 22	[label="> 1.5",
		labelangle=-45,
		labeldistance=2.5,
		lp="689,1031.5",
		op=">",
		param=1.5,
		pos="e,693.27,1006.3 644.64,1056.8 657.8,1043.1 672.6,1027.8 686.25,1013.6",
		style=solid];
	2	[fillcolor=lightcoral,
		height=1.1528,
		label="POT\ngini = 0.534\nsamples = 25\nvalue = [1, 0, 0, 11, 13]\nclass = 5",
		pos="238.5,830.5",
		width=2.1528];
	1 -> 2	[label="<= 104.0",
		lp="377,897.5",
		op="<=",
		param=104.0,
		pos="e,302.87,872.15 383.37,923 360.61,908.62 334.83,892.34 311.39,877.53",
		style=solid];
	7	[fillcolor=palegreen,
		height=1.1528,
		label="SOD\ngini = 0.056\nsamples = 490\nvalue = [476, 0, 0, 0, 14]\nclass = 1",
		pos="447.5,830.5",
		width=2.25];
	1 -> 7	[label="> 104.0",
		lp="470.5,897.5",
		op=">",
		param=104.0,
		pos="e,447.5,872.27 447.5,922.82 447.5,910.02 447.5,895.73 447.5,882.32",
		style=solid];
	3	[fillcolor=mistyrose,
		height=0.94444,
		label="gini = 0.0\nsamples = 11\nvalue = [0, 0, 0, 11, 0]\nclass = 4",
		pos="73.5,696.5",
		width=2.0417];
	2 -> 3	[label="<= 1.55",
		lp="185,763.5",
		op="<=",
		param=1.55,
		pos="e,114.79,730.53 187.65,788.82 167,772.3 143.24,753.29 122.75,736.9",
		style=solid];
	4	[fillcolor=lightcoral,
		height=1.1528,
		label="StrokeTIA\ngini = 0.133\nsamples = 14\nvalue = [1, 0, 0, 0, 13]\nclass = 5",
		pos="238.5,696.5",
		width=2.0417];
	2 -> 4	[label="> 1.55",
		lp="258,763.5",
		op=">",
		param=1.55,
		pos="e,238.5,738.27 238.5,788.82 238.5,776.02 238.5,761.73 238.5,748.32",
		style=solid];
	5	[fillcolor=lightcoral,
		height=0.94444,
		label="gini = 0.0\nsamples = 13\nvalue = [0, 0, 0, 0, 13]\nclass = 5",
		pos="103.5,562.5",
		width=2.0417];
	4 -> 5	[label="<= 0.5",
		lp="195.5,629.5",
		op="<=",
		param=0.5,
		pos="e,137.5,596.74 196.89,654.82 180.37,638.66 161.4,620.11 144.89,603.97",
		style=solid];
	6	[fillcolor=palegreen,
		height=0.94444,
		label="gini = 0.0\nsamples = 1\nvalue = [1, 0, 0, 0, 0]\nclass = 1",
		pos="265.5,562.5",
		width=1.9444];
	4 -> 6	[label="> 0.5",
		lp="269,629.5",
		op=">",
		param=0.5,
		pos="e,258.7,596.74 246.82,654.82 249.95,639.53 253.51,622.11 256.68,606.61",
		style=solid];
	8	[fillcolor=lightcoral,
		height=0.94444,
		label="gini = 0.0\nsamples = 9\nvalue = [0, 0, 0, 0, 9]\nclass = 5",
		pos="400.5,696.5",
		width=1.9444];
	7 -> 8	[label="<= 59.5",
		lp="449,763.5",
		op="<=",
		param=59.5,
		pos="e,412.34,730.74 433.01,788.82 427.52,773.39 421.25,755.78 415.69,740.17",
		style=solid];
	9	[fillcolor=palegreen,
		height=1.1528,
		label="PP\ngini = 0.021\nsamples = 481\nvalue = [476, 0, 0, 0, 5]\nclass = 1",
		pos="566.5,696.5",
		width=2.1528];
	7 -> 9	[label="> 59.5",
		lp="531,763.5",
		op=">",
		param=59.5,
		pos="e,529.74,738.27 484.17,788.82 496.39,775.27 510.12,760.04 522.81,745.96",
		style=solid];
	10	[fillcolor=lightcoral,
		height=0.94444,
		label="gini = 0.0\nsamples = 1\nvalue = [0, 0, 0, 0, 1]\nclass = 5",
		pos="508.5,562.5",
		width=1.9444];
	9 -> 10	[label="<= 7.5",
		lp="559.5,629.5",
		op="<=",
		param=7.5,
		pos="e,523.11,596.74 548.62,654.82 541.84,639.39 534.11,621.78 527.25,606.17",
		style=solid];
	11	[fillcolor=palegreen,
		height=1.1528,
		label="PP\ngini = 0.017\nsamples = 480\nvalue = [476, 0, 0, 0, 4]\nclass = 1",
		pos="674.5,562.5",
		width=2.1528];
	9 -> 11	[label="> 7.5",
		lp="640,629.5",
		op=">",
		param=7.5,
		pos="e,641.14,604.27 599.78,654.82 610.77,641.39 623.1,626.32 634.53,612.35",
		style=solid];
	12	[fillcolor=palegreen,
		height=1.1528,
		label="Wt\ngini = 0.147\nsamples = 50\nvalue = [46, 0, 0, 0, 4]\nclass = 1",
		pos="564.5,428.5",
		width=2.0417];
	11 -> 12	[label="<= 24.5",
		lp="647,495.5",
		op="<=",
		param=24.5,
		pos="e,598.48,470.27 640.6,520.82 629.31,507.27 616.62,492.04 604.88,477.96",
		style=dashed];
	21	[fillcolor=palegreen,
		height=0.94444,
		label="gini = 0.0\nsamples = 430\nvalue = [430, 0, 0, 0, 0]\nclass = 1",
		pos="733.5,428.5",
		width=2.1528];
	11 -> 21	[label="> 24.5",
		lp="726,495.5",
		op=">",
		param=24.5,
		pos="e,718.64,462.74 692.68,520.82 699.58,505.39 707.45,487.78 714.43,472.17",
		style=solid];
	13	[fillcolor=lightcoral,
		height=1.1528,
		label="BUN\ngini = 0.444\nsamples = 3\nvalue = [1, 0, 0, 0, 2]\nclass = 5",
		pos="483.5,294.5",
		width=1.9444];
	12 -> 13	[label="<= 25.7",
		lp="550,361.5",
		op="<=",
		param=25.7,
		pos="e,508.52,336.27 539.54,386.82 531.45,373.64 522.4,358.89 513.96,345.14",
		style=dashed];
	16	[fillcolor=palegreen,
		height=1.1528,
		label="TALB\ngini = 0.081\nsamples = 47\nvalue = [45, 0, 0, 0, 2]\nclass = 1",
		pos="645.5,294.5",
		width=2.0417];
	12 -> 16	[label="> 25.7",
		lp="627,361.5",
		op=">",
		param=25.7,
		pos="e,620.48,336.27 589.46,386.82 597.55,373.64 606.6,358.89 615.04,345.14",
		style=dashed];
	14	[fillcolor=palegreen,
		height=0.94444,
		label="gini = 0.0\nsamples = 1\nvalue = [1, 0, 0, 0, 0]\nclass = 1",
		pos="325.5,160.5",
		width=1.9444];
	13 -> 14	[label="<= 31.5",
		lp="433,227.5",
		op="<=",
		param=31.5,
		pos="e,365.03,194.53 434.81,252.82 415.12,236.37 392.48,217.46 372.93,201.12",
		style=solid];
	15	[fillcolor=lightcoral,
		height=0.94444,
		label="gini = 0.0\nsamples = 2\nvalue = [0, 0, 0, 0, 2]\nclass = 5",
		pos="483.5,160.5",
		width=1.9444];
	13 -> 15	[label="> 31.5",
		lp="503,227.5",
		op=">",
		param=31.5,
		pos="e,483.5,194.74 483.5,252.82 483.5,237.68 483.5,220.44 483.5,205.05",
		style=solid];
	17	[fillcolor=palegreen,
		height=1.1528,
		label="SOD\ngini = 0.043\nsamples = 46\nvalue = [45, 0, 0, 0, 1]\nclass = 1",
		pos="645.5,160.5",
		width=2.0417];
	16 -> 17	[label="<= 3.25",
		lp="669,227.5",
		op="<=",
		param=3.25,
		pos="e,645.5,202.27 645.5,252.82 645.5,240.02 645.5,225.73 645.5,212.32",
		style=solid];
	20	[fillcolor=lightcoral,
		height=0.94444,
		label="gini = 0.0\nsamples = 1\nvalue = [0, 0, 0, 0, 1]\nclass = 5",
		pos="807.5,160.5",
		width=1.9444];
	16 -> 20	[label="> 3.25",
		lp="751,227.5",
		op=">",
		param=3.25,
		pos="e,766.96,194.53 695.43,252.82 715.7,236.3 739.03,217.29 759.14,200.9",
		style=solid];
	18	[fillcolor=lightcoral,
		height=0.94444,
		label="gini = 0.0\nsamples = 1\nvalue = [0, 0, 0, 0, 1]\nclass = 5",
		pos="564.5,34",
		width=1.9444];
	17 -> 18	[label="<= 124.0",
		lp="635,93.5",
		op="<=",
		param=124.0,
		pos="e,586.22,68.379 618.98,118.73 610.27,105.35 600.59,90.465 591.82,76.995",
		style=solid];
	19	[fillcolor=palegreen,
		height=0.94444,
		label="gini = 0.0\nsamples = 45\nvalue = [45, 0, 0, 0, 0]\nclass = 1",
		pos="726.5,34",
		width=2.0417];
	17 -> 19	[label="> 124.0",
		lp="716.5,93.5",
		op=">",
		param=124.0,
		pos="e,704.78,68.379 672.02,118.73 680.73,105.35 690.41,90.465 699.18,76.995",
		style=solid];
	23	[fillcolor=lightyellow,
		height=1.1528,
		label="SOD\ngini = 0.48\nsamples = 5\nvalue = [0, 2, 3, 0, 0]\nclass = 3",
		pos="732.5,830.5",
		width=1.9444];
	22 -> 23	[label="<= 0.5",
		lp="752.5,897.5",
		op="<=",
		param=0.5,
		pos="e,732.5,872.27 732.5,922.82 732.5,910.02 732.5,895.73 732.5,882.32",
		style=solid];
	26	[fillcolor=lightyellow,
		height=0.94444,
		label="gini = 0.0\nsamples = 173\nvalue = [0, 0, 173, 0, 0]\nclass = 3",
		pos="898.5,830.5",
		width=2.1528];
	22 -> 26	[label="> 0.5",
		lp="836,897.5",
		op=">",
		param=0.5,
		pos="e,856.96,864.53 783.66,922.82 804.43,906.3 828.34,887.29 848.95,870.9",
		style=solid];
	24	[fillcolor=honeydew,
		height=0.94444,
		label="gini = 0.0\nsamples = 2\nvalue = [0, 2, 0, 0, 0]\nclass = 2",
		pos="732.5,696.5",
		width=1.9444];
	23 -> 24	[label="<= 66.5",
		lp="756,763.5",
		op="<=",
		param=66.5,
		pos="e,732.5,730.74 732.5,788.82 732.5,773.68 732.5,756.44 732.5,741.05",
		style=solid];
	25	[fillcolor=lightyellow,
		height=0.94444,
		label="gini = 0.0\nsamples = 3\nvalue = [0, 0, 3, 0, 0]\nclass = 3",
		pos="890.5,696.5",
		width=1.9444];
	23 -> 25	[label="> 66.5",
		lp="836,763.5",
		op=">",
		param=66.5,
		pos="e,850.97,730.53 781.19,788.82 800.88,772.37 823.52,753.46 843.07,737.12",
		style=solid];
}
