strict digraph Tree {
	graph [bb="0,0,1155.5,738"];
	node [color=black,
		fontname=helvetica,
		label="\N",
		shape=box,
		style="filled, rounded"
	];
	edge [fontname=helvetica];
	0	[fillcolor=palegreen,
		height=1.1528,
		label="TotalHospDays\ngini = 0.063\nsamples = 709\nvalue = [686, 10, 6, 7]\nclass = 1",
		pos="601.5,696.5",
		width=2.0417];
	1	[fillcolor=honeydew,
		height=1.1528,
		label="MAP\ngini = 0.588\nsamples = 17\nvalue = [1, 9, 6, 1]\nclass = 2",
		pos="526.5,562.5",
		width=1.7361];
	0 -> 1	[label="<= 0.5",
		labelangle=45,
		labeldistance=2.5,
		lp="586.5,629.5",
		op="<=",
		param=0.5,
		pos="e,549.67,604.27 578.39,654.82 570.9,641.64 562.51,626.89 554.7,613.14",
		style=dashed];
	12	[fillcolor=palegreen,
		height=1.1528,
		label="MAP\ngini = 0.02\nsamples = 692\nvalue = [685, 1, 0, 6]\nclass = 1",
		pos="744.5,562.5",
		width=1.9444];
	0 -> 12	[label="> 0.5",
		labelangle=-45,
		labeldistance=2.5,
		lp="693,629.5",
		op=">",
		param=0.5,
		pos="e,700.33,604.27 645.57,654.82 660.52,641.02 677.36,625.48 692.85,611.18",
		style=solid];
	2	[fillcolor=honeydew,
		height=1.1528,
		label="TOTP\ngini = 0.417\nsamples = 12\nvalue = [1, 9, 1, 1]\nclass = 2",
		pos="365.5,428.5",
		width=1.7361];
	1 -> 2	[label="<= 185.0",
		lp="479,495.5",
		op="<=",
		param=185.0,
		pos="e,414.96,470.05 476.88,520.82 459.81,506.83 440.57,491.04 422.93,476.59",
		style=solid];
	11	[fillcolor=lightyellow,
		height=0.94444,
		label="gini = 0.0\nsamples = 5\nvalue = [0, 0, 5, 0]\nclass = 3",
		pos="526.5,428.5",
		width=1.7361];
	1 -> 11	[label="> 185.0",
		lp="549.5,495.5",
		op=">",
		param=185.0,
		pos="e,526.5,462.74 526.5,520.82 526.5,505.68 526.5,488.44 526.5,473.05",
		style=solid];
	3	[fillcolor=palegreen,
		height=1.1528,
		label="PPP\ngini = 0.5\nsamples = 2\nvalue = [1, 0, 0, 1]\nclass = 1",
		pos="205.5,294.5",
		width=1.7361];
	2 -> 3	[label="<= 3.25",
		lp="314,361.5",
		op="<=",
		param=3.25,
		pos="e,254.65,336.05 316.19,386.82 299.23,372.83 280.1,357.04 262.57,342.59",
		style=solid];
	6	[fillcolor=honeydew,
		height=1.1528,
		label="CABG\ngini = 0.18\nsamples = 10\nvalue = [0, 9, 1, 0]\nclass = 2",
		pos="365.5,294.5",
		width=1.7361];
	2 -> 6	[label="> 3.25",
		lp="385,361.5",
		op=">",
		param=3.25,
		pos="e,365.5,336.27 365.5,386.82 365.5,374.02 365.5,359.73 365.5,346.32",
		style=solid];
	4	[fillcolor=mistyrose,
		height=0.94444,
		label="gini = 0.0\nsamples = 1\nvalue = [0, 0, 0, 1]\nclass = 4",
		pos="62.5,160.5",
		width=1.7361];
	3 -> 4	[label="<= 0.13",
		lp="162,227.5",
		op="<=",
		param=0.13,
		pos="e,98.514,194.74 161.43,252.82 143.76,236.51 123.47,217.78 105.87,201.54",
		style=solid];
	5	[fillcolor=palegreen,
		height=0.94444,
		label="gini = 0.0\nsamples = 1\nvalue = [1, 0, 0, 0]\nclass = 1",
		pos="205.5,160.5",
		width=1.7361];
	3 -> 5	[label="> 0.13",
		lp="225,227.5",
		op=">",
		param=0.13,
		pos="e,205.5,194.74 205.5,252.82 205.5,237.68 205.5,220.44 205.5,205.05",
		style=solid];
	7	[fillcolor=honeydew,
		height=0.94444,
		label="gini = 0.0\nsamples = 8\nvalue = [0, 8, 0, 0]\nclass = 2",
		pos="348.5,160.5",
		width=1.7361];
	6 -> 7	[label="<= 0.5",
		lp="378.5,227.5",
		op="<=",
		param=0.5,
		pos="e,352.78,194.74 360.26,252.82 358.31,237.68 356.09,220.44 354.11,205.05",
		style=solid];
	8	[fillcolor=honeydew,
		height=1.1528,
		label="Age\ngini = 0.5\nsamples = 2\nvalue = [0, 1, 1, 0]\nclass = 2",
		pos="491.5,160.5",
		width=1.7361];
	6 -> 8	[label="> 0.5",
		lp="448,227.5",
		op=">",
		param=0.5,
		pos="e,452.58,202.27 404.33,252.82 417.39,239.14 432.07,223.76 445.62,209.57",
		style=solid];
	9	[fillcolor=lightyellow,
		height=0.94444,
		label="gini = 0.0\nsamples = 1\nvalue = [0, 0, 1, 0]\nclass = 3",
		pos="348.5,34",
		width=1.7361];
	8 -> 9	[label="<= 58.0",
		lp="448,93.5",
		op="<=",
		param=58.0,
		pos="e,386.84,68.379 444.68,118.73 428.58,104.72 410.57,89.043 394.54,75.081",
		style=solid];
	10	[fillcolor=honeydew,
		height=0.94444,
		label="gini = 0.0\nsamples = 1\nvalue = [0, 1, 0, 0]\nclass = 2",
		pos="491.5,34",
		width=1.7361];
	8 -> 10	[label="> 58.0",
		lp="511,93.5",
		op=">",
		param=58.0,
		pos="e,491.5,68.379 491.5,118.73 491.5,105.86 491.5,91.597 491.5,78.541",
		style=solid];
	13	[fillcolor=palegreen,
		height=1.1528,
		label="DIUR\ngini = 0.375\nsamples = 24\nvalue = [18, 0, 0, 6]\nclass = 1",
		pos="744.5,428.5",
		width=1.8333];
	12 -> 13	[label="<= 42.833",
		lp="775.5,495.5",
		op="<=",
		param=42.833,
		pos="e,744.5,470.27 744.5,520.82 744.5,508.02 744.5,493.73 744.5,480.32",
		style=dashed];
	20	[fillcolor=palegreen,
		height=1.1528,
		label="PV\ngini = 0.003\nsamples = 668\nvalue = [667, 1, 0, 0]\nclass = 1",
		pos="931.5,428.5",
		width=1.9444];
	12 -> 20	[label="> 42.833",
		lp="871.5,495.5",
		op=">",
		param=42.833,
		pos="e,873.91,470.15 801.88,521 822.07,506.75 844.91,490.62 865.73,475.92",
		style=solid];
	14	[fillcolor=palegreen,
		height=1.1528,
		label="MLHFS\ngini = 0.5\nsamples = 12\nvalue = [6, 0, 0, 6]\nclass = 1",
		pos="634.5,294.5",
		width=1.7361];
	13 -> 14	[label="<= 0.5",
		lp="713.5,361.5",
		op="<=",
		param=0.5,
		pos="e,668.48,336.27 710.6,386.82 699.31,373.27 686.62,358.04 674.88,343.96",
		style=dashed];
	19	[fillcolor=palegreen,
		height=0.94444,
		label="gini = 0.0\nsamples = 12\nvalue = [12, 0, 0, 0]\nclass = 1",
		pos="781.5,294.5",
		width=1.8333];
	13 -> 19	[label="> 0.5",
		lp="780,361.5",
		op=">",
		param=0.5,
		pos="e,772.18,328.74 755.9,386.82 760.19,371.53 765.07,354.11 769.42,338.61",
		style=solid];
	15	[fillcolor=mistyrose,
		height=1.1528,
		label="COPD\ngini = 0.245\nsamples = 7\nvalue = [1, 0, 0, 6]\nclass = 4",
		pos="634.5,160.5",
		width=1.7361];
	14 -> 15	[label="<= 87.0",
		lp="658,227.5",
		op="<=",
		param=87.0,
		pos="e,634.5,202.27 634.5,252.82 634.5,240.02 634.5,225.73 634.5,212.32",
		style=solid];
	18	[fillcolor=palegreen,
		height=0.94444,
		label="gini = 0.0\nsamples = 5\nvalue = [5, 0, 0, 0]\nclass = 1",
		pos="777.5,160.5",
		width=1.7361];
	14 -> 18	[label="> 87.0",
		lp="730,227.5",
		op=">",
		param=87.0,
		pos="e,741.49,194.74 678.57,252.82 696.24,236.51 716.53,217.78 734.13,201.54",
		style=solid];
	16	[fillcolor=mistyrose,
		height=0.94444,
		label="gini = 0.0\nsamples = 6\nvalue = [0, 0, 0, 6]\nclass = 4",
		pos="634.5,34",
		width=1.7361];
	15 -> 16	[label="<= 0.5",
		lp="654.5,93.5",
		op="<=",
		param=0.5,
		pos="e,634.5,68.379 634.5,118.73 634.5,105.86 634.5,91.597 634.5,78.541",
		style=solid];
	17	[fillcolor=palegreen,
		height=0.94444,
		label="gini = 0.0\nsamples = 1\nvalue = [1, 0, 0, 0]\nclass = 1",
		pos="777.5,34",
		width=1.7361];
	15 -> 17	[label="> 0.5",
		lp="735,93.5",
		op=">",
		param=0.5,
		pos="e,739.16,68.379 681.32,118.73 697.42,104.72 715.43,89.043 731.46,75.081",
		style=solid];
	21	[fillcolor=palegreen,
		height=1.1528,
		label="PV\ngini = 0.124\nsamples = 15\nvalue = [14, 1, 0, 0]\nclass = 1",
		pos="931.5,294.5",
		width=1.8333];
	20 -> 21	[label="<= -30.95",
		lp="961,361.5",
		op="<=",
		param=-30.95,
		pos="e,931.5,336.27 931.5,386.82 931.5,374.02 931.5,359.73 931.5,346.32",
		style=dashed];
	24	[fillcolor=palegreen,
		height=0.94444,
		label="gini = 0.0\nsamples = 653\nvalue = [653, 0, 0, 0]\nclass = 1",
		pos="1085.5,294.5",
		width=1.9444];
	20 -> 24	[label="> -30.95",
		lp="1039,361.5",
		op=">",
		param=-30.95,
		pos="e,1047,328.53 978.96,386.82 998.15,370.37 1020.2,351.46 1039.3,335.12",
		style=solid];
	22	[fillcolor=palegreen,
		height=0.94444,
		label="gini = 0.0\nsamples = 14\nvalue = [14, 0, 0, 0]\nclass = 1",
		pos="927.5,160.5",
		width=1.8333];
	21 -> 22	[label="<= -31.928",
		lp="964,227.5",
		op="<=",
		param=-31.928,
		pos="e,928.51,194.74 930.27,252.82 929.81,237.68 929.29,220.44 928.82,205.05",
		style=solid];
	23	[fillcolor=honeydew,
		height=0.94444,
		label="gini = 0.0\nsamples = 1\nvalue = [0, 1, 0, 0]\nclass = 2",
		pos="1074.5,160.5",
		width=1.7361];
	21 -> 23	[label="> -31.928",
		lp="1045.5,227.5",
		op=">",
		param=-31.928,
		pos="e,1042.8,194.72 981.33,252.83 988.19,246.95 995.08,240.89 1001.5,235 1012.8,224.63 1024.7,213 1035.5,202.12",
		style=solid];
}
