strict digraph Tree {
	graph [bb="0,0,1017,1140"];
	node [color=black,
		fontname=helvetica,
		label="\N",
		shape=box,
		style="filled, rounded"
	];
	edge [fontname=helvetica];
	0	[fillcolor=lightyellow,
		height=1.1528,
		label="Gender\ngini = 0.459\nsamples = 693\nvalue = [11, 2, 477, 177, 26]\nclass = 3",
		pos="605.5,1098.5",
		width=2.5694];
	1	[fillcolor=lightyellow,
		height=1.1528,
		label="MAP\ngini = 0.136\nsamples = 514\nvalue = [11, 0, 477, 0, 26]\nclass = 3",
		pos="447.5,964.5",
		width=2.3611];
	0 -> 1	[label="<= 1.5",
		labelangle=45,
		labeldistance=2.5,
		lp="551.5,1031.5",
		op="<=",
		param=1.5,
		pos="e,496.03,1006 556.81,1056.8 540.06,1042.8 521.17,1027 503.86,1012.6",
		style=solid];
	24	[fillcolor=mistyrose,
		height=1.1528,
		label="HR\ngini = 0.022\nsamples = 179\nvalue = [0, 2, 0, 177, 0]\nclass = 4",
		pos="732.5,964.5",
		width=2.1528];
	0 -> 24	[label="> 1.5",
		labelangle=-45,
		labeldistance=2.5,
		lp="689,1031.5",
		op=">",
		param=1.5,
		pos="e,693.27,1006.3 644.64,1056.8 657.8,1043.1 672.6,1027.8 686.25,1013.6",
		style=solid];
	2	[fillcolor=lightcoral,
		height=1.1528,
		label="POT\ngini = 0.497\nsamples = 24\nvalue = [11, 0, 0, 0, 13]\nclass = 5",
		pos="238.5,830.5",
		width=2.1528];
	1 -> 2	[label="<= 98.333",
		lp="380.5,897.5",
		op="<=",
		param=98.333,
		pos="e,302.87,872.15 383.37,923 360.61,908.62 334.83,892.34 311.39,877.53",
		style=solid];
	5	[fillcolor=lightyellow,
		height=1.1528,
		label="SOD\ngini = 0.052\nsamples = 490\nvalue = [0, 0, 477, 0, 13]\nclass = 3",
		pos="447.5,830.5",
		width=2.25];
	1 -> 5	[label="> 98.333",
		lp="474.5,897.5",
		op=">",
		param=98.333,
		pos="e,447.5,872.27 447.5,922.82 447.5,910.02 447.5,895.73 447.5,882.32",
		style=solid];
	3	[fillcolor=palegreen,
		height=0.94444,
		label="gini = 0.0\nsamples = 11\nvalue = [11, 0, 0, 0, 0]\nclass = 1",
		pos="73.5,696.5",
		width=2.0417];
	2 -> 3	[label="<= 1.55",
		lp="185,763.5",
		op="<=",
		param=1.55,
		pos="e,114.79,730.53 187.65,788.82 167,772.3 143.24,753.29 122.75,736.9",
		style=solid];
	4	[fillcolor=lightcoral,
		height=0.94444,
		label="gini = 0.0\nsamples = 13\nvalue = [0, 0, 0, 0, 13]\nclass = 5",
		pos="238.5,696.5",
		width=2.0417];
	2 -> 4	[label="> 1.55",
		lp="258,763.5",
		op=">",
		param=1.55,
		pos="e,238.5,730.74 238.5,788.82 238.5,773.68 238.5,756.44 238.5,741.05",
		style=solid];
	6	[fillcolor=lightcoral,
		height=0.94444,
		label="gini = 0.0\nsamples = 7\nvalue = [0, 0, 0, 0, 7]\nclass = 5",
		pos="400.5,696.5",
		width=1.9444];
	5 -> 6	[label="<= 59.5",
		lp="449,763.5",
		op="<=",
		param=59.5,
		pos="e,412.34,730.74 433.01,788.82 427.52,773.39 421.25,755.78 415.69,740.17",
		style=solid];
	7	[fillcolor=lightyellow,
		height=1.1528,
		label="PP\ngini = 0.025\nsamples = 483\nvalue = [0, 0, 477, 0, 6]\nclass = 3",
		pos="566.5,696.5",
		width=2.1528];
	5 -> 7	[label="> 59.5",
		lp="531,763.5",
		op=">",
		param=59.5,
		pos="e,529.74,738.27 484.17,788.82 496.39,775.27 510.12,760.04 522.81,745.96",
		style=solid];
	8	[fillcolor=lightcoral,
		height=0.94444,
		label="gini = 0.0\nsamples = 1\nvalue = [0, 0, 0, 0, 1]\nclass = 5",
		pos="509.5,562.5",
		width=1.9444];
	7 -> 8	[label="<= 7.5",
		lp="560.5,629.5",
		op="<=",
		param=7.5,
		pos="e,523.86,596.74 548.93,654.82 542.27,639.39 534.67,621.78 527.92,606.17",
		style=solid];
	9	[fillcolor=lightyellow,
		height=1.1528,
		label="PP\ngini = 0.021\nsamples = 482\nvalue = [0, 0, 477, 0, 5]\nclass = 3",
		pos="675.5,562.5",
		width=2.1528];
	7 -> 9	[label="> 7.5",
		lp="640,629.5",
		op=">",
		param=7.5,
		pos="e,641.83,604.27 600.09,654.82 611.18,641.39 623.62,626.32 635.16,612.35",
		style=solid];
	10	[fillcolor=lightyellow,
		height=1.1528,
		label="BMI\ngini = 0.145\nsamples = 51\nvalue = [0, 0, 47, 0, 4]\nclass = 3",
		pos="484.5,428.5",
		width=2.0417];
	9 -> 10	[label="<= 24.5",
		lp="610,495.5",
		op="<=",
		param=24.5,
		pos="e,543.32,470.15 616.9,521 596.28,506.75 572.94,490.62 551.67,475.92",
		style=solid];
	19	[fillcolor=lightyellow,
		height=1.1528,
		label="EjF\ngini = 0.005\nsamples = 431\nvalue = [0, 0, 430, 0, 1]\nclass = 3",
		pos="773.5,428.5",
		width=2.1528];
	9 -> 19	[label="> 24.5",
		lp="747,495.5",
		op=">",
		param=24.5,
		pos="e,743.23,470.27 705.7,520.82 715.67,507.39 726.86,492.32 737.23,478.35",
		style=solid];
	11	[fillcolor=lightcoral,
		height=1.1528,
		label="Wt\ngini = 0.48\nsamples = 5\nvalue = [0, 0, 2, 0, 3]\nclass = 5",
		pos="291.5,294.5",
		width=1.9444];
	10 -> 11	[label="<= 18.962",
		lp="425.5,361.5",
		op="<=",
		param=18.962,
		pos="e,350.94,336.15 425.28,387 404.45,372.75 380.87,356.62 359.38,341.92",
		style=dashed];
	14	[fillcolor=lightyellow,
		height=1.1528,
		label="TALB\ngini = 0.043\nsamples = 46\nvalue = [0, 0, 45, 0, 1]\nclass = 3",
		pos="484.5,294.5",
		width=2.0417];
	10 -> 14	[label="> 18.962",
		lp="511.5,361.5",
		op=">",
		param=18.962,
		pos="e,484.5,336.27 484.5,386.82 484.5,374.02 484.5,359.73 484.5,346.32",
		style=dashed];
	12	[fillcolor=lightcoral,
		height=0.94444,
		label="gini = 0.0\nsamples = 3\nvalue = [0, 0, 0, 0, 3]\nclass = 5",
		pos="133.5,160.5",
		width=1.9444];
	11 -> 12	[label="<= 69.555",
		lp="248.5,227.5",
		op="<=",
		param=69.555,
		pos="e,173.03,194.53 242.81,252.82 223.12,236.37 200.48,217.46 180.93,201.12",
		style=solid];
	13	[fillcolor=lightyellow,
		height=0.94444,
		label="gini = 0.0\nsamples = 2\nvalue = [0, 0, 2, 0, 0]\nclass = 3",
		pos="291.5,160.5",
		width=1.9444];
	11 -> 13	[label="> 69.555",
		lp="318.5,227.5",
		op=">",
		param=69.555,
		pos="e,291.5,194.74 291.5,252.82 291.5,237.68 291.5,220.44 291.5,205.05",
		style=solid];
	15	[fillcolor=lightyellow,
		height=0.94444,
		label="gini = 0.0\nsamples = 44\nvalue = [0, 0, 44, 0, 0]\nclass = 3",
		pos="453.5,160.5",
		width=2.0417];
	14 -> 15	[label="<= 3.25",
		lp="494,227.5",
		op="<=",
		param=3.25,
		pos="e,461.31,194.74 474.95,252.82 471.36,237.53 467.26,220.11 463.62,204.61",
		style=solid];
	16	[fillcolor=lightyellow,
		height=1.1528,
		label="VHD\ngini = 0.5\nsamples = 2\nvalue = [0, 0, 1, 0, 1]\nclass = 3",
		pos="615.5,160.5",
		width=1.9444];
	14 -> 16	[label="> 3.25",
		lp="574,227.5",
		op=">",
		param=3.25,
		pos="e,575.03,202.27 524.87,252.82 538.45,239.14 553.71,223.76 567.79,209.57",
		style=dashed];
	17	[fillcolor=lightyellow,
		height=0.94444,
		label="gini = 0.0\nsamples = 1\nvalue = [0, 0, 1, 0, 0]\nclass = 3",
		pos="536.5,34",
		width=1.9444];
	16 -> 17	[label="<= 0.5",
		lp="598.5,93.5",
		op="<=",
		param=0.5,
		pos="e,557.68,68.379 589.63,118.73 581.14,105.35 571.69,90.465 563.15,76.995",
		style=solid];
	18	[fillcolor=lightcoral,
		height=0.94444,
		label="gini = 0.0\nsamples = 1\nvalue = [0, 0, 0, 0, 1]\nclass = 5",
		pos="694.5,34",
		width=1.9444];
	16 -> 18	[label="> 0.5",
		lp="678,93.5",
		op=">",
		param=0.5,
		pos="e,673.32,68.379 641.37,118.73 649.86,105.35 659.31,90.465 667.85,76.995",
		style=solid];
	20	[fillcolor=lightyellow,
		height=1.1528,
		label="BUN\ngini = 0.198\nsamples = 9\nvalue = [0, 0, 8, 0, 1]\nclass = 3",
		pos="773.5,294.5",
		width=1.9444];
	19 -> 20	[label="<= 2.5",
		lp="793.5,361.5",
		op="<=",
		param=2.5,
		pos="e,773.5,336.27 773.5,386.82 773.5,374.02 773.5,359.73 773.5,346.32",
		style=solid];
	23	[fillcolor=lightyellow,
		height=0.94444,
		label="gini = 0.0\nsamples = 422\nvalue = [0, 0, 422, 0, 0]\nclass = 3",
		pos="939.5,294.5",
		width=2.1528];
	19 -> 23	[label="> 2.5",
		lp="877,361.5",
		op=">",
		param=2.5,
		pos="e,897.96,328.53 824.66,386.82 845.43,370.3 869.34,351.29 889.95,334.9",
		style=solid];
	21	[fillcolor=lightcoral,
		height=0.94444,
		label="gini = 0.0\nsamples = 1\nvalue = [0, 0, 0, 0, 1]\nclass = 5",
		pos="773.5,160.5",
		width=1.9444];
	20 -> 21	[label="<= 15.5",
		lp="797,227.5",
		op="<=",
		param=15.5,
		pos="e,773.5,194.74 773.5,252.82 773.5,237.68 773.5,220.44 773.5,205.05",
		style=solid];
	22	[fillcolor=lightyellow,
		height=0.94444,
		label="gini = 0.0\nsamples = 8\nvalue = [0, 0, 8, 0, 0]\nclass = 3",
		pos="931.5,160.5",
		width=1.9444];
	20 -> 22	[label="> 15.5",
		lp="877,227.5",
		op=">",
		param=15.5,
		pos="e,891.97,194.53 822.19,252.82 841.88,236.37 864.52,217.46 884.07,201.12",
		style=solid];
	25	[fillcolor=honeydew,
		height=1.1528,
		label="SOD\ngini = 0.5\nsamples = 4\nvalue = [0, 2, 0, 2, 0]\nclass = 2",
		pos="732.5,830.5",
		width=1.9444];
	24 -> 25	[label="<= 17.0",
		lp="756,897.5",
		op="<=",
		param=17.0,
		pos="e,732.5,872.27 732.5,922.82 732.5,910.02 732.5,895.73 732.5,882.32",
		style=solid];
	28	[fillcolor=mistyrose,
		height=0.94444,
		label="gini = 0.0\nsamples = 175\nvalue = [0, 0, 0, 175, 0]\nclass = 4",
		pos="898.5,830.5",
		width=2.1528];
	24 -> 28	[label="> 17.0",
		lp="840,897.5",
		op=">",
		param=17.0,
		pos="e,856.96,864.53 783.66,922.82 804.43,906.3 828.34,887.29 848.95,870.9",
		style=solid];
	26	[fillcolor=honeydew,
		height=0.94444,
		label="gini = 0.0\nsamples = 2\nvalue = [0, 2, 0, 0, 0]\nclass = 2",
		pos="732.5,696.5",
		width=1.9444];
	25 -> 26	[label="<= 70.0",
		lp="756,763.5",
		op="<=",
		param=70.0,
		pos="e,732.5,730.74 732.5,788.82 732.5,773.68 732.5,756.44 732.5,741.05",
		style=solid];
	27	[fillcolor=mistyrose,
		height=0.94444,
		label="gini = 0.0\nsamples = 2\nvalue = [0, 0, 0, 2, 0]\nclass = 4",
		pos="890.5,696.5",
		width=1.9444];
	25 -> 27	[label="> 70.0",
		lp="836,763.5",
		op=">",
		param=70.0,
		pos="e,850.97,730.53 781.19,788.82 800.88,772.37 823.52,753.46 843.07,737.12",
		style=solid];
}
