strict digraph Tree {
	graph [bb="0,0,2495.5,1408"];
	node [color=black,
		fontname=helvetica,
		label="\N",
		shape=box,
		style="filled, rounded"
	];
	edge [fontname=helvetica];
	0	[fillcolor=honeydew,
		height=1.1528,
		label="ARRH\ngini = 0.783\nsamples = 693\nvalue = [113, 202, 86, 163, 129]\nclass = 2",
		pos="1305.5,1366.5",
		width=2.875];
	1	[fillcolor=honeydew,
		height=1.1528,
		label="ISCHD\ngini = 0.627\nsamples = 398\nvalue = [113, 198, 84, 2, 1]\nclass = 2",
		pos="989.5,1232.5",
		width=2.4583];
	0 -> 1	[label="<= 0.5",
		labelangle=45,
		labeldistance=2.5,
		lp="1177.5,1299.5",
		op="<=",
		param=0.5,
		pos="e,1078.2,1270.6 1208.5,1325 1170.2,1309 1126.3,1290.6 1087.9,1274.6",
		style=solid];
	46	[fillcolor=mistyrose,
		height=1.1528,
		label="ISCHEME\ngini = 0.514\nsamples = 295\nvalue = [0, 4, 2, 161, 128]\nclass = 4",
		pos="1778.5,1232.5",
		width=2.3611];
	0 -> 46	[label="> 0.5",
		labelangle=-45,
		labeldistance=2.5,
		lp="1572,1299.5",
		op=">",
		param=0.5,
		pos="e,1693.4,1257.3 1409,1336.6 1490.7,1313.8 1603.9,1282.2 1683.4,1260",
		style=dashed];
	2	[fillcolor=honeydew,
		height=1.1528,
		label="ISCHEME\ngini = 0.1\nsamples = 209\nvalue = [0, 198, 10, 0, 1]\nclass = 2",
		pos="499.5,1098.5",
		width=2.25];
	1 -> 2	[label="<= 0.5",
		lp="779.5,1165.5",
		op="<=",
		param=0.5,
		pos="e,580.66,1121.4 900.76,1207.6 812.91,1183.9 679.04,1147.9 590.43,1124",
		style=solid];
	11	[fillcolor=palegreen,
		height=1.1528,
		label="PTCI\ngini = 0.489\nsamples = 189\nvalue = [113, 0, 74, 2, 0]\nclass = 1",
		pos="989.5,1098.5",
		width=2.25];
	1 -> 11	[label="> 0.5",
		lp="1005,1165.5",
		op=">",
		param=0.5,
		pos="e,989.5,1140.3 989.5,1190.8 989.5,1178 989.5,1163.7 989.5,1150.3",
		style=dashed];
	3	[fillcolor=honeydew,
		height=1.1528,
		label="TotalHospDays\ngini = 0.01\nsamples = 197\nvalue = [0, 196, 0, 0, 1]\nclass = 2",
		pos="243.5,964.5",
		width=2.1528];
	2 -> 3	[label="<= 0.5",
		lp="399.5,1031.5",
		op="<=",
		param=0.5,
		pos="e,321.02,1005.5 420.95,1057 392.18,1042.2 359.47,1025.3 330.04,1010.1",
		style=dashed];
	8	[fillcolor=lightyellow,
		height=1.1528,
		label="MLHFS\ngini = 0.278\nsamples = 12\nvalue = [0, 2, 10, 0, 0]\nclass = 3",
		pos="499.5,964.5",
		width=2.0417];
	2 -> 8	[label="> 0.5",
		lp="515,1031.5",
		op=">",
		param=0.5,
		pos="e,499.5,1006.3 499.5,1056.8 499.5,1044 499.5,1029.7 499.5,1016.3",
		style=solid];
	4	[fillcolor=honeydew,
		height=0.94444,
		label="gini = 0.0\nsamples = 193\nvalue = [0, 193, 0, 0, 0]\nclass = 2",
		pos="77.5,830.5",
		width=2.1528];
	3 -> 4	[label="<= 94.0",
		lp="189,897.5",
		op="<=",
		param=94.0,
		pos="e,119.04,864.53 192.34,922.82 171.57,906.3 147.66,887.29 127.05,870.9",
		style=solid];
	5	[fillcolor=honeydew,
		height=1.1528,
		label="BPDIAS\ngini = 0.375\nsamples = 4\nvalue = [0, 3, 0, 0, 1]\nclass = 2",
		pos="243.5,830.5",
		width=1.9444];
	3 -> 5	[label="> 94.0",
		lp="263,897.5",
		op=">",
		param=94.0,
		pos="e,243.5,872.27 243.5,922.82 243.5,910.02 243.5,895.73 243.5,882.32",
		style=solid];
	6	[fillcolor=lightcoral,
		height=0.94444,
		label="gini = 0.0\nsamples = 1\nvalue = [0, 0, 0, 0, 1]\nclass = 5",
		pos="164.5,696.5",
		width=1.9444];
	5 -> 6	[label="<= 57.0",
		lp="230,763.5",
		op="<=",
		param=57.0,
		pos="e,184.4,730.74 219.15,788.82 209.83,773.24 199.18,755.45 189.77,739.73",
		style=solid];
	7	[fillcolor=honeydew,
		height=0.94444,
		label="gini = 0.0\nsamples = 3\nvalue = [0, 3, 0, 0, 0]\nclass = 2",
		pos="322.5,696.5",
		width=1.9444];
	5 -> 7	[label="> 57.0",
		lp="305,763.5",
		op=">",
		param=57.0,
		pos="e,302.6,730.74 267.85,788.82 277.17,773.24 287.82,755.45 297.23,739.73",
		style=solid];
	9	[fillcolor=honeydew,
		height=0.94444,
		label="gini = 0.0\nsamples = 2\nvalue = [0, 2, 0, 0, 0]\nclass = 2",
		pos="401.5,830.5",
		width=1.9444];
	8 -> 9	[label="<= 64.5",
		lp="477,897.5",
		op="<=",
		param=64.5,
		pos="e,426.18,864.74 469.3,922.82 457.52,906.95 444.03,888.78 432.2,872.85",
		style=solid];
	10	[fillcolor=lightyellow,
		height=0.94444,
		label="gini = 0.0\nsamples = 10\nvalue = [0, 0, 10, 0, 0]\nclass = 3",
		pos="563.5,830.5",
		width=2.0417];
	8 -> 10	[label="> 64.5",
		lp="553,897.5",
		op=">",
		param=64.5,
		pos="e,547.38,864.74 519.22,922.82 526.71,907.39 535.24,889.78 542.81,874.17",
		style=solid];
	12	[fillcolor=lightyellow,
		height=1.1528,
		label="DIAB\ngini = 0.486\nsamples = 112\nvalue = [41, 0, 69, 2, 0]\nclass = 3",
		pos="904.5,964.5",
		width=2.1528];
	11 -> 12	[label="<= 0.5",
		lp="970.5,1031.5",
		op="<=",
		param=0.5,
		pos="e,930.76,1006.3 963.3,1056.8 954.74,1043.5 945.13,1028.6 936.21,1014.7",
		style=solid];
	37	[fillcolor=palegreen,
		height=1.1528,
		label="ISCHEME\ngini = 0.121\nsamples = 77\nvalue = [72, 0, 5, 0, 0]\nclass = 1",
		pos="1073.5,964.5",
		width=2.0417];
	11 -> 37	[label="> 0.5",
		lp="1050,1031.5",
		op=">",
		param=0.5,
		pos="e,1047.6,1006.3 1015.4,1056.8 1023.9,1043.5 1033.3,1028.6 1042.2,1014.7",
		style=dashed];
	13	[fillcolor=lightyellow,
		height=1.1528,
		label="Age\ngini = 0.34\nsamples = 72\nvalue = [13, 0, 57, 2, 0]\nclass = 3",
		pos="732.5,830.5",
		width=2.1528];
	12 -> 13	[label="<= 0.5",
		lp="844.5,897.5",
		op="<=",
		param=0.5,
		pos="e,785.33,872.05 851.49,922.82 833.09,908.7 812.32,892.76 793.35,878.2",
		style=dashed];
	30	[fillcolor=palegreen,
		height=1.1528,
		label="ISCHEME\ngini = 0.42\nsamples = 40\nvalue = [28, 0, 12, 0, 0]\nclass = 1",
		pos="905.5,830.5",
		width=2.1528];
	12 -> 30	[label="> 0.5",
		lp="921,897.5",
		op=">",
		param=0.5,
		pos="e,905.19,872.27 904.81,922.82 904.91,910.02 905.01,895.73 905.12,882.32",
		style=dashed];
	14	[fillcolor=lightyellow,
		height=1.1528,
		label="BPSYS\ngini = 0.166\nsamples = 56\nvalue = [3, 0, 51, 2, 0]\nclass = 3",
		pos="567.5,696.5",
		width=2.0417];
	13 -> 14	[label="<= 72.0",
		lp="679,763.5",
		op="<=",
		param=72.0,
		pos="e,618.18,738.05 681.65,788.82 664.16,774.83 644.43,759.04 626.36,744.59",
		style=dashed];
	27	[fillcolor=palegreen,
		height=1.1528,
		label="MI\ngini = 0.469\nsamples = 16\nvalue = [10, 0, 6, 0, 0]\nclass = 1",
		pos="732.5,696.5",
		width=2.0417];
	13 -> 27	[label="> 72.0",
		lp="752,763.5",
		op=">",
		param=72.0,
		pos="e,732.5,738.27 732.5,788.82 732.5,776.02 732.5,761.73 732.5,748.32",
		style=solid];
	15	[fillcolor=palegreen,
		height=1.1528,
		label="TotalHospDays\ngini = 0.5\nsamples = 2\nvalue = [1, 0, 0, 1, 0]\nclass = 1",
		pos="405.5,562.5",
		width=1.9444];
	14 -> 15	[label="<= 69.5",
		lp="515,629.5",
		op="<=",
		param=69.5,
		pos="e,455.26,604.05 517.57,654.82 500.4,640.83 481.03,625.04 463.29,610.59",
		style=solid];
	18	[fillcolor=lightyellow,
		height=1.1528,
		label="TOR\ngini = 0.106\nsamples = 54\nvalue = [2, 0, 51, 1, 0]\nclass = 3",
		pos="567.5,562.5",
		width=2.0417];
	14 -> 18	[label="> 69.5",
		lp="587,629.5",
		op=">",
		param=69.5,
		pos="e,567.5,604.27 567.5,654.82 567.5,642.02 567.5,627.73 567.5,614.32",
		style=dashed];
	16	[fillcolor=mistyrose,
		height=0.94444,
		label="gini = 0.0\nsamples = 1\nvalue = [0, 0, 0, 1, 0]\nclass = 4",
		pos="247.5,428.5",
		width=1.9444];
	15 -> 16	[label="<= 9.5",
		lp="351.5,495.5",
		op="<=",
		param=9.5,
		pos="e,287.03,462.53 356.81,520.82 337.12,504.37 314.48,485.46 294.93,469.12",
		style=solid];
	17	[fillcolor=palegreen,
		height=0.94444,
		label="gini = 0.0\nsamples = 1\nvalue = [1, 0, 0, 0, 0]\nclass = 1",
		pos="405.5,428.5",
		width=1.9444];
	15 -> 17	[label="> 9.5",
		lp="421,495.5",
		op=">",
		param=9.5,
		pos="e,405.5,462.74 405.5,520.82 405.5,505.68 405.5,488.44 405.5,473.05",
		style=solid];
	19	[fillcolor=lightyellow,
		height=1.1528,
		label="RAM\ngini = 0.073\nsamples = 53\nvalue = [2, 0, 51, 0, 0]\nclass = 3",
		pos="567.5,428.5",
		width=2.0417];
	18 -> 19	[label="<= 30.0",
		lp="591,495.5",
		op="<=",
		param=30.0,
		pos="e,567.5,470.27 567.5,520.82 567.5,508.02 567.5,493.73 567.5,480.32",
		style=dashed];
	26	[fillcolor=mistyrose,
		height=0.94444,
		label="gini = 0.0\nsamples = 1\nvalue = [0, 0, 0, 1, 0]\nclass = 4",
		pos="729.5,428.5",
		width=1.9444];
	18 -> 26	[label="> 30.0",
		lp="673,495.5",
		op=">",
		param=30.0,
		pos="e,688.96,462.53 617.43,520.82 637.7,504.3 661.03,485.29 681.14,468.9",
		style=solid];
	20	[fillcolor=lightyellow,
		height=1.1528,
		label="SOD\ngini = 0.038\nsamples = 52\nvalue = [1, 0, 51, 0, 0]\nclass = 3",
		pos="463.5,294.5",
		width=2.0417];
	19 -> 20	[label="<= 17.5",
		lp="543,361.5",
		op="<=",
		param=17.5,
		pos="e,495.63,336.27 535.45,386.82 524.87,373.39 513,358.32 501.99,344.35",
		style=solid];
	25	[fillcolor=palegreen,
		height=0.94444,
		label="gini = 0.0\nsamples = 1\nvalue = [1, 0, 0, 0, 0]\nclass = 1",
		pos="625.5,294.5",
		width=1.9444];
	19 -> 25	[label="> 17.5",
		lp="618,361.5",
		op=">",
		param=17.5,
		pos="e,610.89,328.74 585.38,386.82 592.16,371.39 599.89,353.78 606.75,338.17",
		style=solid];
	21	[fillcolor=lightyellow,
		height=1.1528,
		label="Race\ngini = 0.32\nsamples = 5\nvalue = [1, 0, 4, 0, 0]\nclass = 3",
		pos="382.5,160.5",
		width=1.9444];
	20 -> 21	[label="<= 130.5",
		lp="453,227.5",
		op="<=",
		param=130.5,
		pos="e,407.52,202.27 438.54,252.82 430.45,239.64 421.4,224.89 412.96,211.14",
		style=solid];
	24	[fillcolor=lightyellow,
		height=0.94444,
		label="gini = 0.0\nsamples = 47\nvalue = [0, 0, 47, 0, 0]\nclass = 3",
		pos="544.5,160.5",
		width=2.0417];
	20 -> 24	[label="> 130.5",
		lp="529.5,227.5",
		op=">",
		param=130.5,
		pos="e,524.1,194.74 488.46,252.82 498.11,237.1 509.15,219.11 518.86,203.29",
		style=solid];
	22	[fillcolor=palegreen,
		height=0.94444,
		label="gini = 0.0\nsamples = 1\nvalue = [1, 0, 0, 0, 0]\nclass = 1",
		pos="303.5,34",
		width=1.9444];
	21 -> 22	[label="<= 1.5",
		lp="365.5,93.5",
		op="<=",
		param=1.5,
		pos="e,324.68,68.379 356.63,118.73 348.14,105.35 338.69,90.465 330.15,76.995",
		style=solid];
	23	[fillcolor=lightyellow,
		height=0.94444,
		label="gini = 0.0\nsamples = 4\nvalue = [0, 0, 4, 0, 0]\nclass = 3",
		pos="461.5,34",
		width=1.9444];
	21 -> 23	[label="> 1.5",
		lp="445,93.5",
		op=">",
		param=1.5,
		pos="e,440.32,68.379 408.37,118.73 416.86,105.35 426.31,90.465 434.85,76.995",
		style=solid];
	28	[fillcolor=lightyellow,
		height=0.94444,
		label="gini = 0.0\nsamples = 6\nvalue = [0, 0, 6, 0, 0]\nclass = 3",
		pos="729.5,562.5",
		width=1.9444];
	27 -> 28	[label="<= 0.5",
		lp="751.5,629.5",
		op="<=",
		param=0.5,
		pos="e,730.26,596.74 731.58,654.82 731.23,639.68 730.84,622.44 730.49,607.05",
		style=solid];
	29	[fillcolor=palegreen,
		height=0.94444,
		label="gini = 0.0\nsamples = 10\nvalue = [10, 0, 0, 0, 0]\nclass = 1",
		pos="891.5,562.5",
		width=2.0417];
	27 -> 29	[label="> 0.5",
		lp="833,629.5",
		op=">",
		param=0.5,
		pos="e,851.71,596.53 781.5,654.82 801.31,638.37 824.1,619.46 843.77,603.12",
		style=solid];
	31	[fillcolor=lightyellow,
		height=0.94444,
		label="gini = 0.0\nsamples = 8\nvalue = [0, 0, 8, 0, 0]\nclass = 3",
		pos="894.5,696.5",
		width=1.9444];
	30 -> 31	[label="<= 0.5",
		lp="920.5,763.5",
		op="<=",
		param=0.5,
		pos="e,897.27,730.74 902.11,788.82 900.85,773.68 899.41,756.44 898.13,741.05",
		style=solid];
	32	[fillcolor=palegreen,
		height=1.1528,
		label="PV\ngini = 0.219\nsamples = 32\nvalue = [28, 0, 4, 0, 0]\nclass = 1",
		pos="1056.5,696.5",
		width=2.0417];
	30 -> 32	[label="> 0.5",
		lp="1002,763.5",
		op=">",
		param=0.5,
		pos="e,1010.1,738.05 952.04,788.82 967.9,774.95 985.77,759.33 1002.2,744.98",
		style=dashed];
	33	[fillcolor=lightyellow,
		height=0.94444,
		label="gini = 0.0\nsamples = 2\nvalue = [0, 0, 2, 0, 0]\nclass = 3",
		pos="1053.5,562.5",
		width=1.9444];
	32 -> 33	[label="<= -21.318",
		lp="1089,629.5",
		op="<=",
		param=-21.318,
		pos="e,1054.3,596.74 1055.6,654.82 1055.2,639.68 1054.8,622.44 1054.5,607.05",
		style=solid];
	34	[fillcolor=palegreen,
		height=1.1528,
		label="PTREG\ngini = 0.124\nsamples = 30\nvalue = [28, 0, 2, 0, 0]\nclass = 1",
		pos="1215.5,562.5",
		width=2.0417];
	32 -> 34	[label="> -21.318",
		lp="1170.5,629.5",
		op=">",
		param=-21.318,
		pos="e,1166.7,604.05 1105.5,654.82 1122.4,640.83 1141.4,625.04 1158.8,610.59",
		style=dashed];
	35	[fillcolor=palegreen,
		height=0.94444,
		label="gini = 0.0\nsamples = 28\nvalue = [28, 0, 0, 0, 0]\nclass = 1",
		pos="1137.5,428.5",
		width=2.0417];
	34 -> 35	[label="<= 0.5",
		lp="1199.5,495.5",
		op="<=",
		param=0.5,
		pos="e,1157.1,462.74 1191.5,520.82 1182.3,505.24 1171.7,487.45 1162.5,471.73",
		style=solid];
	36	[fillcolor=lightyellow,
		height=0.94444,
		label="gini = 0.0\nsamples = 2\nvalue = [0, 0, 2, 0, 0]\nclass = 3",
		pos="1299.5,428.5",
		width=1.9444];
	34 -> 36	[label="> 0.5",
		lp="1276,495.5",
		op=">",
		param=0.5,
		pos="e,1278.3,462.74 1241.4,520.82 1251.4,505.1 1262.8,487.11 1272.9,471.29",
		style=solid];
	38	[fillcolor=lightyellow,
		height=0.94444,
		label="gini = 0.0\nsamples = 2\nvalue = [0, 0, 2, 0, 0]\nclass = 3",
		pos="1072.5,830.5",
		width=1.9444];
	37 -> 38	[label="<= 0.5",
		lp="1093.5,897.5",
		op="<=",
		param=0.5,
		pos="e,1072.8,864.74 1073.2,922.82 1073.1,907.68 1072.9,890.44 1072.8,875.05",
		style=solid];
	39	[fillcolor=palegreen,
		height=1.1528,
		label="MLHFS\ngini = 0.077\nsamples = 75\nvalue = [72, 0, 3, 0, 0]\nclass = 1",
		pos="1234.5,830.5",
		width=2.0417];
	37 -> 39	[label="> 0.5",
		lp="1175,897.5",
		op=">",
		param=0.5,
		pos="e,1185,872.05 1123.1,922.82 1140.2,908.83 1159.4,893.04 1177.1,878.59",
		style=dashed];
	40	[fillcolor=lightyellow,
		height=0.94444,
		label="gini = 0.0\nsamples = 2\nvalue = [0, 0, 2, 0, 0]\nclass = 3",
		pos="1218.5,696.5",
		width=1.9444];
	39 -> 40	[label="<= 40.0",
		lp="1251,763.5",
		op="<=",
		param=40.0,
		pos="e,1222.5,730.74 1229.6,788.82 1227.7,773.68 1225.6,756.44 1223.8,741.05",
		style=solid];
	41	[fillcolor=palegreen,
		height=1.1528,
		label="ALB\ngini = 0.027\nsamples = 73\nvalue = [72, 0, 1, 0, 0]\nclass = 1",
		pos="1380.5,696.5",
		width=2.0417];
	39 -> 41	[label="> 40.0",
		lp="1332,763.5",
		op=">",
		param=40.0,
		pos="e,1335.7,738.05 1279.5,788.82 1294.8,774.95 1312.1,759.33 1328,744.98",
		style=dashed];
	42	[fillcolor=palegreen,
		height=0.94444,
		label="gini = 0.0\nsamples = 69\nvalue = [69, 0, 0, 0, 0]\nclass = 1",
		pos="1380.5,562.5",
		width=2.0417];
	41 -> 42	[label="<= 4.25",
		lp="1404,629.5",
		op="<=",
		param=4.25,
		pos="e,1380.5,596.74 1380.5,654.82 1380.5,639.68 1380.5,622.44 1380.5,607.05",
		style=solid];
	43	[fillcolor=palegreen,
		height=1.1528,
		label="BPSYS\ngini = 0.375\nsamples = 4\nvalue = [3, 0, 1, 0, 0]\nclass = 1",
		pos="1542.5,562.5",
		width=1.9444];
	41 -> 43	[label="> 4.25",
		lp="1486,629.5",
		op=">",
		param=4.25,
		pos="e,1492.7,604.05 1430.4,654.82 1447.6,640.83 1467,625.04 1484.7,610.59",
		style=solid];
	44	[fillcolor=palegreen,
		height=0.94444,
		label="gini = 0.0\nsamples = 3\nvalue = [3, 0, 0, 0, 0]\nclass = 1",
		pos="1462.5,428.5",
		width=1.9444];
	43 -> 44	[label="<= 110.0",
		lp="1533,495.5",
		op="<=",
		param=110.0,
		pos="e,1482.6,462.74 1517.8,520.82 1508.4,505.24 1497.6,487.45 1488.1,471.73",
		style=solid];
	45	[fillcolor=lightyellow,
		height=0.94444,
		label="gini = 0.0\nsamples = 1\nvalue = [0, 0, 1, 0, 0]\nclass = 3",
		pos="1620.5,428.5",
		width=1.9444];
	43 -> 45	[label="> 110.0",
		lp="1607.5,495.5",
		op=">",
		param=110.0,
		pos="e,1600.9,462.74 1566.5,520.82 1575.7,505.24 1586.3,487.45 1595.5,471.73",
		style=solid];
	47	[fillcolor=lightcoral,
		height=1.1528,
		label="TIA\ngini = 0.065\nsamples = 118\nvalue = [0, 4, 0, 0, 114]\nclass = 5",
		pos="1778.5,1098.5",
		width=2.1528];
	46 -> 47	[label="<= 0.5",
		lp="1798.5,1165.5",
		op="<=",
		param=0.5,
		pos="e,1778.5,1140.3 1778.5,1190.8 1778.5,1178 1778.5,1163.7 1778.5,1150.3",
		style=dashed];
	56	[fillcolor=mistyrose,
		height=1.1528,
		label="ISCHD\ngini = 0.166\nsamples = 177\nvalue = [0, 0, 2, 161, 14]\nclass = 4",
		pos="2036.5,1098.5",
		width=2.25];
	46 -> 56	[label="> 0.5",
		lp="1931,1165.5",
		op=">",
		param=0.5,
		pos="e,1957,1140.2 1857.7,1191 1886.3,1176.4 1918.7,1159.8 1948,1144.8",
		style=dashed];
	48	[fillcolor=lightcoral,
		height=1.1528,
		label="EjF\ngini = 0.034\nsamples = 114\nvalue = [0, 2, 0, 0, 112]\nclass = 5",
		pos="1708.5,964.5",
		width=2.1528];
	47 -> 48	[label="<= 0.5",
		lp="1766.5,1031.5",
		op="<=",
		param=0.5,
		pos="e,1730.1,1006.3 1756.9,1056.8 1749.9,1043.6 1742.1,1028.9 1734.8,1015.1",
		style=solid];
	53	[fillcolor=honeydew,
		height=1.1528,
		label="QUI\ngini = 0.5\nsamples = 4\nvalue = [0, 2, 0, 0, 2]\nclass = 2",
		pos="1874.5,964.5",
		width=1.9444];
	47 -> 53	[label="> 0.5",
		lp="1845,1031.5",
		op=">",
		param=0.5,
		pos="e,1844.8,1006.3 1808.1,1056.8 1817.8,1043.5 1828.6,1028.6 1838.7,1014.7",
		style=dashed];
	49	[fillcolor=lightcoral,
		height=1.1528,
		label="PV\ngini = 0.375\nsamples = 8\nvalue = [0, 2, 0, 0, 6]\nclass = 5",
		pos="1542.5,830.5",
		width=1.9444];
	48 -> 49	[label="<= 11.0",
		lp="1654,897.5",
		op="<=",
		param=11.0,
		pos="e,1593.5,872.05 1657.3,922.82 1639.7,908.83 1619.9,893.04 1601.7,878.59",
		style=solid];
	52	[fillcolor=lightcoral,
		height=0.94444,
		label="gini = 0.0\nsamples = 106\nvalue = [0, 0, 0, 0, 106]\nclass = 5",
		pos="1708.5,830.5",
		width=2.1528];
	48 -> 52	[label="> 11.0",
		lp="1728,897.5",
		op=">",
		param=11.0,
		pos="e,1708.5,864.74 1708.5,922.82 1708.5,907.68 1708.5,890.44 1708.5,875.05",
		style=solid];
	50	[fillcolor=honeydew,
		height=0.94444,
		label="gini = 0.0\nsamples = 2\nvalue = [0, 2, 0, 0, 0]\nclass = 2",
		pos="1542.5,696.5",
		width=1.9444];
	49 -> 50	[label="<= -11.672",
		lp="1576,763.5",
		op="<=",
		param=-11.672,
		pos="e,1542.5,730.74 1542.5,788.82 1542.5,773.68 1542.5,756.44 1542.5,741.05",
		style=solid];
	51	[fillcolor=lightcoral,
		height=0.94444,
		label="gini = 0.0\nsamples = 6\nvalue = [0, 0, 0, 0, 6]\nclass = 5",
		pos="1700.5,696.5",
		width=1.9444];
	49 -> 51	[label="> -11.672",
		lp="1659.5,763.5",
		op=">",
		param=-11.672,
		pos="e,1661.6,730.53 1591.8,788.98 1599.1,782.97 1606.5,776.83 1613.5,771 1626.6,760.09 1640.7,748.2 1653.7,737.23",
		style=solid];
	54	[fillcolor=honeydew,
		height=0.94444,
		label="gini = 0.0\nsamples = 2\nvalue = [0, 2, 0, 0, 0]\nclass = 2",
		pos="1874.5,830.5",
		width=1.9444];
	53 -> 54	[label="<= 10.0",
		lp="1898,897.5",
		op="<=",
		param=10.0,
		pos="e,1874.5,864.74 1874.5,922.82 1874.5,907.68 1874.5,890.44 1874.5,875.05",
		style=solid];
	55	[fillcolor=lightcoral,
		height=0.94444,
		label="gini = 0.0\nsamples = 2\nvalue = [0, 0, 0, 0, 2]\nclass = 5",
		pos="2032.5,830.5",
		width=1.9444];
	53 -> 55	[label="> 10.0",
		lp="1978,897.5",
		op=">",
		param=10.0,
		pos="e,1993,864.53 1923.2,922.82 1942.9,906.37 1965.5,887.46 1985.1,871.12",
		style=solid];
	57	[fillcolor=lightcoral,
		height=0.94444,
		label="gini = 0.0\nsamples = 10\nvalue = [0, 0, 0, 0, 10]\nclass = 5",
		pos="2036.5,964.5",
		width=2.0417];
	56 -> 57	[label="<= 0.5",
		lp="2056.5,1031.5",
		op="<=",
		param=0.5,
		pos="e,2036.5,998.74 2036.5,1056.8 2036.5,1041.7 2036.5,1024.4 2036.5,1009.1",
		style=solid];
	58	[fillcolor=mistyrose,
		height=1.1528,
		label="OTHUNE\ngini = 0.07\nsamples = 167\nvalue = [0, 0, 2, 161, 4]\nclass = 4",
		pos="2205.5,964.5",
		width=2.1528];
	56 -> 58	[label="> 0.5",
		lp="2142,1031.5",
		op=">",
		param=0.5,
		pos="e,2153.6,1006 2088.6,1056.8 2106.6,1042.8 2126.9,1026.9 2145.5,1012.4",
		style=solid];
	59	[fillcolor=mistyrose,
		height=0.94444,
		label="gini = 0.0\nsamples = 155\nvalue = [0, 0, 0, 155, 0]\nclass = 4",
		pos="2202.5,830.5",
		width=2.1528];
	58 -> 59	[label="<= 0.5",
		lp="2224.5,897.5",
		op="<=",
		param=0.5,
		pos="e,2203.3,864.74 2204.6,922.82 2204.2,907.68 2203.8,890.44 2203.5,875.05",
		style=solid];
	60	[fillcolor=mistyrose,
		height=1.1528,
		label="Wt\ngini = 0.611\nsamples = 12\nvalue = [0, 0, 2, 6, 4]\nclass = 4",
		pos="2368.5,830.5",
		width=1.9444];
	58 -> 60	[label="> 0.5",
		lp="2308,897.5",
		op=">",
		param=0.5,
		pos="e,2318.4,872.05 2255.7,922.82 2273,908.83 2292.5,893.04 2310.4,878.59",
		style=dashed];
	61	[fillcolor=lightcoral,
		height=1.1528,
		label="BMI\ngini = 0.444\nsamples = 6\nvalue = [0, 0, 2, 0, 4]\nclass = 5",
		pos="2267.5,696.5",
		width=1.9444];
	60 -> 61	[label="<= 82.4",
		lp="2345,763.5",
		op="<=",
		param=82.4,
		pos="e,2298.7,738.27 2337.4,788.82 2327.1,775.39 2315.6,760.32 2304.9,746.35",
		style=solid];
	64	[fillcolor=mistyrose,
		height=0.94444,
		label="gini = 0.0\nsamples = 6\nvalue = [0, 0, 0, 6, 0]\nclass = 4",
		pos="2425.5,696.5",
		width=1.9444];
	60 -> 64	[label="> 82.4",
		lp="2419,763.5",
		op=">",
		param=82.4,
		pos="e,2411.1,730.74 2386.1,788.82 2392.7,773.39 2400.3,755.78 2407.1,740.17",
		style=solid];
	62	[fillcolor=lightcoral,
		height=0.94444,
		label="gini = 0.0\nsamples = 4\nvalue = [0, 0, 0, 0, 4]\nclass = 5",
		pos="2188.5,562.5",
		width=1.9444];
	61 -> 62	[label="<= 23.533",
		lp="2261.5,629.5",
		op="<=",
		param=23.533,
		pos="e,2208.4,596.74 2243.2,654.82 2233.8,639.24 2223.2,621.45 2213.8,605.73",
		style=solid];
	63	[fillcolor=lightyellow,
		height=0.94444,
		label="gini = 0.0\nsamples = 2\nvalue = [0, 0, 2, 0, 0]\nclass = 3",
		pos="2346.5,562.5",
		width=1.9444];
	61 -> 63	[label="> 23.533",
		lp="2336.5,629.5",
		op=">",
		param=23.533,
		pos="e,2326.6,596.74 2291.8,654.82 2301.2,639.24 2311.8,621.45 2321.2,605.73",
		style=solid];
}
