strict digraph Tree {
	graph [bb="0,0,3191.5,1542"];
	node [color=black,
		fontname=helvetica,
		label="\N",
		shape=box,
		style="filled, rounded"
	];
	edge [fontname=helvetica];
	0	[fillcolor=honeydew,
		height=1.1528,
		label="PCWP\ngini = 0.739\nsamples = 418\nvalue = [48, 142, 34, 137, 57]\nclass = 2",
		pos="993.5,1500.5",
		width=2.6667];
	1	[fillcolor=honeydew,
		height=1.1528,
		label="HRTRT\ngini = 0.587\nsamples = 205\nvalue = [32, 122, 34, 17, 0]\nclass = 2",
		pos="633.5,1366.5",
		width=2.4583];
	0 -> 1	[label="> 18.5",
		labelangle=45,
		labeldistance=2.5,
		lp="844,1433.5",
		op=">",
		param=18.5,
		pos="e,722.13,1400 897.5,1464.3 846.22,1445.5 783.22,1422.4 731.63,1403.5",
		style=dashed];
	34	[fillcolor=mistyrose,
		height=1.1528,
		label="PCWPMod\ngini = 0.597\nsamples = 213\nvalue = [16, 20, 0, 120, 57]\nclass = 4",
		pos="1325.5,1366.5",
		width=2.4583];
	0 -> 34	[label="> 18.5",
		labelangle=-45,
		labeldistance=2.5,
		lp="1189,1433.5",
		op=">",
		param=18.5,
		pos="e,1236.8,1402.8 1089.5,1461.3 1132.8,1444.1 1183.8,1423.8 1227.3,1406.5",
		style=dashed];
	2	[fillcolor=lightyellow,
		height=1.1528,
		label="MPAP\ngini = 0.056\nsamples = 35\nvalue = [1, 0, 34, 0, 0]\nclass = 3",
		pos="392.5,1232.5",
		width=2.0417];
	1 -> 2	[label="> 25.5",
		lp="540,1299.5",
		op=">",
		param=25.5,
		pos="e,466.31,1273.9 559.55,1325 532.84,1310.4 502.51,1293.8 475.1,1278.7",
		style=solid];
	5	[fillcolor=honeydew,
		height=1.1528,
		label="CPI\ngini = 0.442\nsamples = 170\nvalue = [31, 122, 0, 17, 0]\nclass = 2",
		pos="633.5,1232.5",
		width=2.3611];
	1 -> 5	[label="> 25.5",
		lp="653,1299.5",
		op=">",
		param=25.5,
		pos="e,633.5,1274.3 633.5,1324.8 633.5,1312 633.5,1297.7 633.5,1284.3",
		style=solid];
	3	[fillcolor=lightyellow,
		height=0.94444,
		label="gini = 0.0\nsamples = 34\nvalue = [0, 0, 34, 0, 0]\nclass = 3",
		pos="230.5,1098.5",
		width=2.0417];
	2 -> 3	[label="<= 35.167",
		lp="347.5,1165.5",
		op="<=",
		param=35.167,
		pos="e,271.04,1132.5 342.57,1190.8 322.3,1174.3 298.97,1155.3 278.86,1138.9",
		style=solid];
	4	[fillcolor=palegreen,
		height=0.94444,
		label="gini = 0.0\nsamples = 1\nvalue = [1, 0, 0, 0, 0]\nclass = 1",
		pos="392.5,1098.5",
		width=1.9444];
	2 -> 4	[label="<= 35.167",
		lp="423.5,1165.5",
		op="<=",
		param=35.167,
		pos="e,392.5,1132.7 392.5,1190.8 392.5,1175.7 392.5,1158.4 392.5,1143.1",
		style=solid];
	6	[fillcolor=palegreen,
		height=1.1528,
		label="PAD\ngini = 0.443\nsamples = 32\nvalue = [23, 5, 0, 4, 0]\nclass = 1",
		pos="554.5,1098.5",
		width=2.0417];
	5 -> 6	[label="> 0.497",
		lp="619.5,1165.5",
		op=">",
		param=0.497,
		pos="e,578.9,1140.3 609.15,1190.8 601.27,1177.6 592.43,1162.9 584.21,1149.1",
		style=dashed];
	15	[fillcolor=honeydew,
		height=1.1528,
		label="PAD\ngini = 0.269\nsamples = 138\nvalue = [8, 117, 0, 13, 0]\nclass = 2",
		pos="727.5,1098.5",
		width=2.25];
	5 -> 15	[label="> 0.497",
		lp="706.5,1165.5",
		op=">",
		param=0.497,
		pos="e,698.46,1140.3 662.47,1190.8 671.94,1177.5 682.56,1162.6 692.43,1148.7",
		style=dashed];
	7	[fillcolor=palegreen,
		height=1.1528,
		label="EjF\ngini = 0.293\nsamples = 28\nvalue = [23, 5, 0, 0, 0]\nclass = 1",
		pos="392.5,964.5",
		width=2.0417];
	6 -> 7	[label="> 29.5",
		lp="498,1031.5",
		op=">",
		param=29.5,
		pos="e,442.26,1006 504.57,1056.8 487.4,1042.8 468.03,1027 450.29,1012.6",
		style=solid];
	14	[fillcolor=mistyrose,
		height=0.94444,
		label="gini = 0.0\nsamples = 4\nvalue = [0, 0, 0, 4, 0]\nclass = 4",
		pos="554.5,964.5",
		width=1.9444];
	6 -> 14	[label="<= 29.5",
		lp="578,1031.5",
		op="<=",
		param=29.5,
		pos="e,554.5,998.74 554.5,1056.8 554.5,1041.7 554.5,1024.4 554.5,1009.1",
		style=solid];
	8	[fillcolor=palegreen,
		height=1.1528,
		label="MAP\ngini = 0.147\nsamples = 25\nvalue = [23, 2, 0, 0, 0]\nclass = 1",
		pos="233.5,830.5",
		width=2.0417];
	7 -> 8	[label="> 29.5",
		lp="338,897.5",
		op=">",
		param=29.5,
		pos="e,282.34,872.05 343.5,922.82 326.64,908.83 307.63,893.04 290.22,878.59",
		style=solid];
	13	[fillcolor=honeydew,
		height=0.94444,
		label="gini = 0.0\nsamples = 3\nvalue = [0, 3, 0, 0, 0]\nclass = 2",
		pos="395.5,830.5",
		width=1.9444];
	7 -> 13	[label="<= 29.5",
		lp="418,897.5",
		op="<=",
		param=29.5,
		pos="e,394.74,864.74 393.42,922.82 393.77,907.68 394.16,890.44 394.51,875.05",
		style=solid];
	9	[fillcolor=palegreen,
		height=0.94444,
		label="gini = 0.0\nsamples = 22\nvalue = [22, 0, 0, 0, 0]\nclass = 1",
		pos="73.5,696.5",
		width=2.0417];
	8 -> 9	[label="<= 148.5",
		lp="186,763.5",
		op="<=",
		param=148.5,
		pos="e,113.54,730.53 184.19,788.82 164.17,772.3 141.12,753.29 121.26,736.9",
		style=solid];
	10	[fillcolor=honeydew,
		height=1.1528,
		label="PAD\ngini = 0.444\nsamples = 3\nvalue = [1, 2, 0, 0, 0]\nclass = 2",
		pos="235.5,696.5",
		width=1.9444];
	8 -> 10	[label="> 148.5",
		lp="258.5,763.5",
		op=">",
		param=148.5,
		pos="e,234.88,738.27 234.12,788.82 234.31,776.02 234.53,761.73 234.73,748.32",
		style=solid];
	11	[fillcolor=palegreen,
		height=0.94444,
		label="gini = 0.0\nsamples = 1\nvalue = [1, 0, 0, 0, 0]\nclass = 1",
		pos="78.5,562.5",
		width=1.9444];
	10 -> 11	[label="<= 18.0",
		lp="186,629.5",
		op="<=",
		param=18.0,
		pos="e,117.78,596.53 187.11,654.82 167.55,638.37 145.05,619.46 125.63,603.12",
		style=solid];
	12	[fillcolor=honeydew,
		height=0.94444,
		label="gini = 0.0\nsamples = 2\nvalue = [0, 2, 0, 0, 0]\nclass = 2",
		pos="236.5,562.5",
		width=1.9444];
	10 -> 12	[label="<= 18.0",
		lp="260,629.5",
		op="<=",
		param=18.0,
		pos="e,236.25,596.74 235.81,654.82 235.92,639.68 236.05,622.44 236.17,607.05",
		style=solid];
	16	[fillcolor=honeydew,
		height=1.1528,
		label="PAPP\ngini = 0.219\nsamples = 133\nvalue = [8, 117, 0, 8, 0]\nclass = 2",
		pos="720.5,964.5",
		width=2.1528];
	15 -> 16	[label="> 31.5",
		lp="744,1031.5",
		op=">",
		param=31.5,
		pos="e,722.66,1006.3 725.34,1056.8 724.66,1044 723.91,1029.7 723.19,1016.3",
		style=dashed];
	33	[fillcolor=mistyrose,
		height=0.94444,
		label="gini = 0.0\nsamples = 5\nvalue = [0, 0, 0, 5, 0]\nclass = 4",
		pos="886.5,964.5",
		width=1.9444];
	15 -> 33	[label="<= 31.5",
		lp="836,1031.5",
		op="<=",
		param=31.5,
		pos="e,846.71,998.53 776.5,1056.8 796.31,1040.4 819.1,1021.5 838.77,1005.1",
		style=solid];
	17	[fillcolor=palegreen,
		height=0.94444,
		label="gini = 0.0\nsamples = 4\nvalue = [4, 0, 0, 0, 0]\nclass = 1",
		pos="555.5,830.5",
		width=1.9444];
	16 -> 17	[label="<= 0.155",
		lp="671,897.5",
		op="<=",
		param=0.155,
		pos="e,596.79,864.53 669.65,922.82 649,906.3 625.24,887.29 604.75,870.9",
		style=solid];
	18	[fillcolor=honeydew,
		height=1.1528,
		label="PCWPMN\ngini = 0.173\nsamples = 129\nvalue = [4, 117, 0, 8, 0]\nclass = 2",
		pos="721.5,830.5",
		width=2.1528];
	16 -> 18	[label="> 0.155",
		lp="744.5,897.5",
		op=">",
		param=0.155,
		pos="e,721.19,872.27 720.81,922.82 720.91,910.02 721.01,895.73 721.12,882.32",
		style=solid];
	19	[fillcolor=honeydew,
		height=1.1528,
		label="CPI\ngini = 0.04\nsamples = 97\nvalue = [2, 95, 0, 0, 0]\nclass = 2",
		pos="556.5,696.5",
		width=2.0417];
	18 -> 19	[label="> 14.5",
		lp="664,763.5",
		op=">",
		param=14.5,
		pos="e,607.18,738.05 670.65,788.82 653.16,774.83 633.43,759.04 615.36,744.59",
		style=dashed];
	24	[fillcolor=honeydew,
		height=1.1528,
		label="PAS\ngini = 0.461\nsamples = 32\nvalue = [2, 22, 0, 8, 0]\nclass = 2",
		pos="721.5,696.5",
		width=2.0417];
	18 -> 24	[label="> 14.5",
		lp="741,763.5",
		op=">",
		param=14.5,
		pos="e,721.5,738.27 721.5,788.82 721.5,776.02 721.5,761.73 721.5,748.32",
		style=dashed];
	20	[fillcolor=honeydew,
		height=1.1528,
		label="SVR\ngini = 0.444\nsamples = 6\nvalue = [2, 4, 0, 0, 0]\nclass = 2",
		pos="394.5,562.5",
		width=1.9444];
	19 -> 20	[label="> 0.531",
		lp="503.5,629.5",
		op=">",
		param=0.531,
		pos="e,444.26,604.05 506.57,654.82 489.4,640.83 470.03,625.04 452.29,610.59",
		style=dashed];
	23	[fillcolor=honeydew,
		height=0.94444,
		label="gini = 0.0\nsamples = 91\nvalue = [0, 91, 0, 0, 0]\nclass = 2",
		pos="556.5,562.5",
		width=2.0417];
	19 -> 23	[label="<= 0.531",
		lp="584,629.5",
		op="<=",
		param=0.531,
		pos="e,556.5,596.74 556.5,654.82 556.5,639.68 556.5,622.44 556.5,607.05",
		style=solid];
	21	[fillcolor=palegreen,
		height=0.94444,
		label="gini = 0.0\nsamples = 2\nvalue = [2, 0, 0, 0, 0]\nclass = 1",
		pos="240.5,428.5",
		width=1.9444];
	20 -> 21	[label="<= 2750.461",
		lp="354,495.5",
		op="<=",
		param=2750.461,
		pos="e,272.43,462.71 337.66,520.88 330.08,515.04 322.51,508.98 315.5,503 303.44,492.71 290.92,480.93 279.64,469.86",
		style=solid];
	22	[fillcolor=honeydew,
		height=0.94444,
		label="gini = 0.0\nsamples = 4\nvalue = [0, 4, 0, 0, 0]\nclass = 2",
		pos="398.5,428.5",
		width=1.9444];
	20 -> 22	[label="<= 2750.461",
		lp="436,495.5",
		op="<=",
		param=2750.461,
		pos="e,397.49,462.74 395.73,520.82 396.19,505.68 396.71,488.44 397.18,473.05",
		style=solid];
	25	[fillcolor=honeydew,
		height=1.1528,
		label="CPI\ngini = 0.234\nsamples = 23\nvalue = [2, 20, 0, 1, 0]\nclass = 2",
		pos="721.5,562.5",
		width=2.0417];
	24 -> 25	[label="> 48.5",
		lp="741,629.5",
		op=">",
		param=48.5,
		pos="e,721.5,604.27 721.5,654.82 721.5,642.02 721.5,627.73 721.5,614.32",
		style=solid];
	30	[fillcolor=mistyrose,
		height=1.1528,
		label="SVR\ngini = 0.346\nsamples = 9\nvalue = [0, 2, 0, 7, 0]\nclass = 4",
		pos="883.5,562.5",
		width=1.9444];
	24 -> 30	[label="> 48.5",
		lp="827,629.5",
		op=">",
		param=48.5,
		pos="e,833.74,604.05 771.43,654.82 788.6,640.83 807.97,625.04 825.71,610.59",
		style=solid];
	26	[fillcolor=palegreen,
		height=0.94444,
		label="gini = 0.0\nsamples = 2\nvalue = [2, 0, 0, 0, 0]\nclass = 1",
		pos="559.5,428.5",
		width=1.9444];
	25 -> 26	[label="<= 0.564",
		lp="673,495.5",
		op="<=",
		param=0.564,
		pos="e,600.04,462.53 671.57,520.82 651.3,504.3 627.97,485.29 607.86,468.9",
		style=solid];
	27	[fillcolor=honeydew,
		height=1.1528,
		label="RATHemo\ngini = 0.091\nsamples = 21\nvalue = [0, 20, 0, 1, 0]\nclass = 2",
		pos="721.5,428.5",
		width=2.0417];
	25 -> 27	[label="> 0.564",
		lp="744.5,495.5",
		op=">",
		param=0.564,
		pos="e,721.5,470.27 721.5,520.82 721.5,508.02 721.5,493.73 721.5,480.32",
		style=solid];
	28	[fillcolor=honeydew,
		height=0.94444,
		label="gini = 0.0\nsamples = 20\nvalue = [0, 20, 0, 0, 0]\nclass = 2",
		pos="640.5,294.5",
		width=2.0417];
	27 -> 28	[label="<= 0.885",
		lp="711,361.5",
		op="<=",
		param=0.885,
		pos="e,660.9,328.74 696.54,386.82 686.89,371.1 675.85,353.11 666.14,337.29",
		style=solid];
	29	[fillcolor=mistyrose,
		height=0.94444,
		label="gini = 0.0\nsamples = 1\nvalue = [0, 0, 0, 1, 0]\nclass = 4",
		pos="802.5,294.5",
		width=1.9444];
	27 -> 29	[label="<= 0.885",
		lp="792,361.5",
		op="<=",
		param=0.885,
		pos="e,782.1,328.74 746.46,386.82 756.11,371.1 767.15,353.11 776.86,337.29",
		style=solid];
	31	[fillcolor=honeydew,
		height=0.94444,
		label="gini = 0.0\nsamples = 2\nvalue = [0, 2, 0, 0, 0]\nclass = 2",
		pos="883.5,428.5",
		width=1.9444];
	30 -> 31	[label="<= 1838.53",
		lp="918.5,495.5",
		op="<=",
		param=1838.53,
		pos="e,883.5,462.74 883.5,520.82 883.5,505.68 883.5,488.44 883.5,473.05",
		style=solid];
	32	[fillcolor=mistyrose,
		height=0.94444,
		label="gini = 0.0\nsamples = 7\nvalue = [0, 0, 0, 7, 0]\nclass = 4",
		pos="1041.5,428.5",
		width=1.9444];
	30 -> 32	[label="<= 1838.53",
		lp="1009.5,495.5",
		op="<=",
		param=1838.53,
		pos="e,1004.2,462.83 935.52,520.91 942.94,514.96 950.45,508.87 957.5,503 970.33,492.33 984.03,480.52 996.57,469.54",
		style=solid];
	35	[fillcolor=mistyrose,
		height=1.1528,
		label="MPAP\ngini = 0.422\nsamples = 148\nvalue = [11, 20, 0, 110, 7]\nclass = 4",
		pos="1325.5,1232.5",
		width=2.3611];
	34 -> 35	[label="> 29.5",
		lp="1345,1299.5",
		op=">",
		param=29.5,
		pos="e,1325.5,1274.3 1325.5,1324.8 1325.5,1312 1325.5,1297.7 1325.5,1284.3",
		style=dashed];
	72	[fillcolor=lightcoral,
		height=1.1528,
		label="MPAP\ngini = 0.379\nsamples = 65\nvalue = [5, 0, 0, 10, 50]\nclass = 5",
		pos="2264.5,1232.5",
		width=2.1528];
	34 -> 72	[label="> 29.5",
		lp="1843,1299.5",
		op=">",
		param=29.5,
		pos="e,2186.8,1244.4 1414.3,1353 1593.8,1327.8 1998,1271 2176.7,1245.8",
		style=solid];
	36	[fillcolor=palegreen,
		height=1.1528,
		label="PAS\ngini = 0.498\nsamples = 15\nvalue = [8, 7, 0, 0, 0]\nclass = 1",
		pos="1202.5,1098.5",
		width=1.9444];
	35 -> 36	[label="> 51.167",
		lp="1295.5,1165.5",
		op=">",
		param=51.167,
		pos="e,1240.5,1140.3 1287.6,1190.8 1275,1177.3 1260.8,1162 1247.7,1148",
		style=solid];
	41	[fillcolor=mistyrose,
		height=1.1528,
		label="PAD\ngini = 0.303\nsamples = 133\nvalue = [3, 13, 0, 110, 7]\nclass = 4",
		pos="1447.5,1098.5",
		width=2.25];
	35 -> 41	[label="> 51.167",
		lp="1417.5,1165.5",
		op=">",
		param=51.167,
		pos="e,1409.8,1140.3 1363.1,1190.8 1375.6,1177.3 1389.7,1162 1402.7,1148",
		style=dashed];
	37	[fillcolor=palegreen,
		height=0.94444,
		label="gini = 0.0\nsamples = 7\nvalue = [7, 0, 0, 0, 0]\nclass = 1",
		pos="1044.5,964.5",
		width=1.9444];
	36 -> 37	[label="<= 16.0",
		lp="1152,1031.5",
		op="<=",
		param=16.0,
		pos="e,1084,998.53 1153.8,1056.8 1134.1,1040.4 1111.5,1021.5 1091.9,1005.1",
		style=solid];
	38	[fillcolor=honeydew,
		height=1.1528,
		label="CI\ngini = 0.219\nsamples = 8\nvalue = [1, 7, 0, 0, 0]\nclass = 2",
		pos="1202.5,964.5",
		width=1.9444];
	36 -> 38	[label="> 16.0",
		lp="1222,1031.5",
		op=">",
		param=16.0,
		pos="e,1202.5,1006.3 1202.5,1056.8 1202.5,1044 1202.5,1029.7 1202.5,1016.3",
		style=solid];
	39	[fillcolor=palegreen,
		height=0.94444,
		label="gini = 0.0\nsamples = 1\nvalue = [1, 0, 0, 0, 0]\nclass = 1",
		pos="1044.5,830.5",
		width=1.9444];
	38 -> 39	[label="<= 1.645",
		lp="1156,897.5",
		op="<=",
		param=1.645,
		pos="e,1084,864.53 1153.8,922.82 1134.1,906.37 1111.5,887.46 1091.9,871.12",
		style=solid];
	40	[fillcolor=honeydew,
		height=0.94444,
		label="gini = 0.0\nsamples = 7\nvalue = [0, 7, 0, 0, 0]\nclass = 2",
		pos="1202.5,830.5",
		width=1.9444];
	38 -> 40	[label="<= 1.645",
		lp="1230,897.5",
		op="<=",
		param=1.645,
		pos="e,1202.5,864.74 1202.5,922.82 1202.5,907.68 1202.5,890.44 1202.5,875.05",
		style=solid];
	42	[fillcolor=mistyrose,
		height=1.1528,
		label="CO\ngini = 0.242\nsamples = 125\nvalue = [3, 13, 0, 108, 1]\nclass = 4",
		pos="1447.5,964.5",
		width=2.25];
	41 -> 42	[label="> 35.5",
		lp="1467,1031.5",
		op=">",
		param=35.5,
		pos="e,1447.5,1006.3 1447.5,1056.8 1447.5,1044 1447.5,1029.7 1447.5,1016.3",
		style=dashed];
	69	[fillcolor=lightcoral,
		height=1.1528,
		label="PPP\ngini = 0.375\nsamples = 8\nvalue = [0, 0, 0, 2, 6]\nclass = 5",
		pos="1691.5,964.5",
		width=1.9444];
	41 -> 69	[label="> 35.5",
		lp="1597,1031.5",
		op=">",
		param=35.5,
		pos="e,1621.4,1003.4 1522.4,1057 1550.9,1041.5 1583.6,1023.9 1612.5,1008.2",
		style=dashed];
	43	[fillcolor=mistyrose,
		height=1.1528,
		label="PPRatio\ngini = 0.128\nsamples = 104\nvalue = [3, 4, 0, 97, 0]\nclass = 4",
		pos="1364.5,830.5",
		width=2.0417];
	42 -> 43	[label="> 5.35",
		lp="1428,897.5",
		op=">",
		param=5.35,
		pos="e,1390.1,872.27 1421.9,922.82 1413.6,909.52 1404.2,894.6 1395.5,880.74",
		style=solid];
	58	[fillcolor=mistyrose,
		height=1.1528,
		label="PAD\ngini = 0.54\nsamples = 21\nvalue = [0, 9, 0, 11, 1]\nclass = 4",
		pos="1529.5,830.5",
		width=2.0417];
	42 -> 58	[label="> 5.35",
		lp="1511,897.5",
		op=">",
		param=5.35,
		pos="e,1504.2,872.27 1472.8,922.82 1481,909.64 1490.1,894.89 1498.7,881.14",
		style=solid];
	44	[fillcolor=palegreen,
		height=0.94444,
		label="gini = 0.0\nsamples = 2\nvalue = [2, 0, 0, 0, 0]\nclass = 1",
		pos="1202.5,696.5",
		width=1.9444];
	43 -> 44	[label="<= 0.09",
		lp="1312,763.5",
		op="<=",
		param=0.09,
		pos="e,1243,730.53 1314.6,788.82 1294.3,772.3 1271,753.29 1250.9,736.9",
		style=solid];
	45	[fillcolor=mistyrose,
		height=1.1528,
		label="PAMN\ngini = 0.094\nsamples = 102\nvalue = [1, 4, 0, 97, 0]\nclass = 4",
		pos="1364.5,696.5",
		width=2.0417];
	43 -> 45	[label="> 0.09",
		lp="1384,763.5",
		op=">",
		param=0.09,
		pos="e,1364.5,738.27 1364.5,788.82 1364.5,776.02 1364.5,761.73 1364.5,748.32",
		style=solid];
	46	[fillcolor=mistyrose,
		height=1.1528,
		label="RATHemo\ngini = 0.322\nsamples = 26\nvalue = [1, 4, 0, 21, 0]\nclass = 4",
		pos="1199.5,562.5",
		width=2.0417];
	45 -> 46	[label="> 31.5",
		lp="1307,629.5",
		op=">",
		param=31.5,
		pos="e,1250.2,604.05 1313.6,654.82 1296.2,640.83 1276.4,625.04 1258.4,610.59",
		style=solid];
	57	[fillcolor=mistyrose,
		height=0.94444,
		label="gini = 0.0\nsamples = 76\nvalue = [0, 0, 0, 76, 0]\nclass = 4",
		pos="1364.5,562.5",
		width=2.0417];
	45 -> 57	[label="<= 31.5",
		lp="1388,629.5",
		op="<=",
		param=31.5,
		pos="e,1364.5,596.74 1364.5,654.82 1364.5,639.68 1364.5,622.44 1364.5,607.05",
		style=solid];
	47	[fillcolor=honeydew,
		height=1.1528,
		label="PP\ngini = 0.375\nsamples = 4\nvalue = [0, 3, 0, 1, 0]\nclass = 2",
		pos="1199.5,428.5",
		width=1.9444];
	46 -> 47	[label="> 0.33",
		lp="1219,495.5",
		op=">",
		param=0.33,
		pos="e,1199.5,470.27 1199.5,520.82 1199.5,508.02 1199.5,493.73 1199.5,480.32",
		style=solid];
	50	[fillcolor=mistyrose,
		height=1.1528,
		label="MAP\ngini = 0.169\nsamples = 22\nvalue = [1, 1, 0, 20, 0]\nclass = 4",
		pos="1361.5,428.5",
		width=2.0417];
	46 -> 50	[label="> 0.33",
		lp="1305,495.5",
		op=">",
		param=0.33,
		pos="e,1311.7,470.05 1249.4,520.82 1266.6,506.83 1286,491.04 1303.7,476.59",
		style=dashed];
	48	[fillcolor=mistyrose,
		height=0.94444,
		label="gini = 0.0\nsamples = 1\nvalue = [0, 0, 0, 1, 0]\nclass = 4",
		pos="1042.5,294.5",
		width=1.9444];
	47 -> 48	[label="<= 30.5",
		lp="1150,361.5",
		op="<=",
		param=30.5,
		pos="e,1081.8,328.53 1151.1,386.82 1131.6,370.37 1109.1,351.46 1089.6,335.12",
		style=solid];
	49	[fillcolor=honeydew,
		height=0.94444,
		label="gini = 0.0\nsamples = 3\nvalue = [0, 3, 0, 0, 0]\nclass = 2",
		pos="1200.5,294.5",
		width=1.9444];
	47 -> 49	[label="<= 30.5",
		lp="1224,361.5",
		op="<=",
		param=30.5,
		pos="e,1200.2,328.74 1199.8,386.82 1199.9,371.68 1200.1,354.44 1200.2,339.05",
		style=solid];
	51	[fillcolor=palegreen,
		height=0.94444,
		label="gini = 0.0\nsamples = 1\nvalue = [1, 0, 0, 0, 0]\nclass = 1",
		pos="1360.5,294.5",
		width=1.9444];
	50 -> 51	[label="<= 115.667",
		lp="1396.5,361.5",
		op="<=",
		param=115.667,
		pos="e,1360.8,328.74 1361.2,386.82 1361.1,371.68 1360.9,354.44 1360.8,339.05",
		style=solid];
	52	[fillcolor=mistyrose,
		height=1.1528,
		label="CO\ngini = 0.091\nsamples = 21\nvalue = [0, 1, 0, 20, 0]\nclass = 4",
		pos="1522.5,294.5",
		width=2.0417];
	50 -> 52	[label="> 115.667",
		lp="1483,361.5",
		op=">",
		param=115.667,
		pos="e,1474.9,336.22 1413.4,386.8 1420.9,380.87 1428.4,374.8 1435.5,369 1445.7,360.62 1456.6,351.6 1467,342.85",
		style=solid];
	53	[fillcolor=mistyrose,
		height=0.94444,
		label="gini = 0.0\nsamples = 18\nvalue = [0, 0, 0, 18, 0]\nclass = 4",
		pos="1464.5,160.5",
		width=2.0417];
	52 -> 53	[label="<= 4.59",
		lp="1519,227.5",
		op="<=",
		param=4.59,
		pos="e,1479.1,194.74 1504.6,252.82 1497.8,237.39 1490.1,219.78 1483.2,204.17",
		style=solid];
	54	[fillcolor=mistyrose,
		height=1.1528,
		label="RAP\ngini = 0.444\nsamples = 3\nvalue = [0, 1, 0, 2, 0]\nclass = 4",
		pos="1626.5,160.5",
		width=1.9444];
	52 -> 54	[label="> 4.59",
		lp="1598,227.5",
		op=">",
		param=4.59,
		pos="e,1594.4,202.27 1554.6,252.82 1565.1,239.39 1577,224.32 1588,210.35",
		style=solid];
	55	[fillcolor=honeydew,
		height=0.94444,
		label="gini = 0.0\nsamples = 1\nvalue = [0, 1, 0, 0, 0]\nclass = 2",
		pos="1547.5,34",
		width=1.9444];
	54 -> 55	[label="<= 11.0",
		lp="1613,93.5",
		op="<=",
		param=11.0,
		pos="e,1568.7,68.379 1600.6,118.73 1592.1,105.35 1582.7,90.465 1574.1,76.995",
		style=solid];
	56	[fillcolor=mistyrose,
		height=0.94444,
		label="gini = 0.0\nsamples = 2\nvalue = [0, 0, 0, 2, 0]\nclass = 4",
		pos="1705.5,34",
		width=1.9444];
	54 -> 56	[label="<= 11.0",
		lp="1697,93.5",
		op="<=",
		param=11.0,
		pos="e,1684.3,68.379 1652.4,118.73 1660.9,105.35 1670.3,90.465 1678.9,76.995",
		style=solid];
	59	[fillcolor=honeydew,
		height=1.1528,
		label="MPAP\ngini = 0.219\nsamples = 8\nvalue = [0, 7, 0, 1, 0]\nclass = 2",
		pos="1529.5,696.5",
		width=1.9444];
	58 -> 59	[label="> 21.0",
		lp="1549,763.5",
		op=">",
		param=21.0,
		pos="e,1529.5,738.27 1529.5,788.82 1529.5,776.02 1529.5,761.73 1529.5,748.32",
		style=dashed];
	62	[fillcolor=mistyrose,
		height=1.1528,
		label="PPRatio\ngini = 0.379\nsamples = 13\nvalue = [0, 2, 0, 10, 1]\nclass = 4",
		pos="1842.5,696.5",
		width=2.0417];
	58 -> 62	[label="> 21.0",
		lp="1708,763.5",
		op=">",
		param=21.0,
		pos="e,1768.9,725.16 1603.1,793.21 1606.3,791.77 1609.4,790.36 1612.5,789 1660.7,767.71 1715.4,745.84 1759.4,728.83",
		style=dashed];
	60	[fillcolor=honeydew,
		height=0.94444,
		label="gini = 0.0\nsamples = 7\nvalue = [0, 7, 0, 0, 0]\nclass = 2",
		pos="1526.5,562.5",
		width=1.9444];
	59 -> 60	[label="<= 81.833",
		lp="1559.5,629.5",
		op="<=",
		param=81.833,
		pos="e,1527.3,596.74 1528.6,654.82 1528.2,639.68 1527.8,622.44 1527.5,607.05",
		style=solid];
	61	[fillcolor=mistyrose,
		height=0.94444,
		label="gini = 0.0\nsamples = 1\nvalue = [0, 0, 0, 1, 0]\nclass = 4",
		pos="1684.5,562.5",
		width=1.9444];
	59 -> 61	[label="<= 81.833",
		lp="1643.5,629.5",
		op="<=",
		param=81.833,
		pos="e,1645.7,596.53 1577.3,654.82 1596.6,638.37 1618.8,619.46 1638,603.12",
		style=solid];
	63	[fillcolor=mistyrose,
		height=1.1528,
		label="PAD\ngini = 0.18\nsamples = 10\nvalue = [0, 0, 0, 9, 1]\nclass = 4",
		pos="1842.5,562.5",
		width=1.9444];
	62 -> 63	[label="> 0.924",
		lp="1865.5,629.5",
		op=">",
		param=0.924,
		pos="e,1842.5,604.27 1842.5,654.82 1842.5,642.02 1842.5,627.73 1842.5,614.32",
		style=dashed];
	66	[fillcolor=honeydew,
		height=1.1528,
		label="Age\ngini = 0.444\nsamples = 3\nvalue = [0, 2, 0, 1, 0]\nclass = 2",
		pos="2000.5,562.5",
		width=1.9444];
	62 -> 66	[label="> 0.924",
		lp="1949.5,629.5",
		op=">",
		param=0.924,
		pos="e,1952,604.05 1891.2,654.82 1907.9,640.83 1926.8,625.04 1944.1,610.59",
		style=dashed];
	64	[fillcolor=mistyrose,
		height=0.94444,
		label="gini = 0.0\nsamples = 9\nvalue = [0, 0, 0, 9, 0]\nclass = 4",
		pos="1684.5,428.5",
		width=1.9444];
	63 -> 64	[label="<= 33.5",
		lp="1792,495.5",
		op="<=",
		param=33.5,
		pos="e,1724,462.53 1793.8,520.82 1774.1,504.37 1751.5,485.46 1731.9,469.12",
		style=solid];
	65	[fillcolor=lightcoral,
		height=0.94444,
		label="gini = 0.0\nsamples = 1\nvalue = [0, 0, 0, 0, 1]\nclass = 5",
		pos="1842.5,428.5",
		width=1.9444];
	63 -> 65	[label="<= 33.5",
		lp="1866,495.5",
		op="<=",
		param=33.5,
		pos="e,1842.5,462.74 1842.5,520.82 1842.5,505.68 1842.5,488.44 1842.5,473.05",
		style=solid];
	67	[fillcolor=mistyrose,
		height=0.94444,
		label="gini = 0.0\nsamples = 1\nvalue = [0, 0, 0, 1, 0]\nclass = 4",
		pos="2000.5,428.5",
		width=1.9444];
	66 -> 67	[label="<= 49.5",
		lp="2024,495.5",
		op="<=",
		param=49.5,
		pos="e,2000.5,462.74 2000.5,520.82 2000.5,505.68 2000.5,488.44 2000.5,473.05",
		style=solid];
	68	[fillcolor=honeydew,
		height=0.94444,
		label="gini = 0.0\nsamples = 2\nvalue = [0, 2, 0, 0, 0]\nclass = 2",
		pos="2158.5,428.5",
		width=1.9444];
	66 -> 68	[label="<= 49.5",
		lp="2108,495.5",
		op="<=",
		param=49.5,
		pos="e,2119,462.53 2049.2,520.82 2068.9,504.37 2091.5,485.46 2111.1,469.12",
		style=solid];
	70	[fillcolor=mistyrose,
		height=0.94444,
		label="gini = 0.0\nsamples = 2\nvalue = [0, 0, 0, 2, 0]\nclass = 4",
		pos="1691.5,830.5",
		width=1.9444];
	69 -> 70	[label="<= 0.297",
		lp="1719,897.5",
		op="<=",
		param=0.297,
		pos="e,1691.5,864.74 1691.5,922.82 1691.5,907.68 1691.5,890.44 1691.5,875.05",
		style=solid];
	71	[fillcolor=lightcoral,
		height=0.94444,
		label="gini = 0.0\nsamples = 6\nvalue = [0, 0, 0, 0, 6]\nclass = 5",
		pos="1849.5,830.5",
		width=1.9444];
	69 -> 71	[label="<= 0.297",
		lp="1803,897.5",
		op="<=",
		param=0.297,
		pos="e,1810,864.53 1740.2,922.82 1759.9,906.37 1782.5,887.46 1802.1,871.12",
		style=solid];
	73	[fillcolor=palegreen,
		height=1.1528,
		label="HRTRT\ngini = 0.663\nsamples = 14\nvalue = [5, 0, 0, 5, 4]\nclass = 1",
		pos="2264.5,1098.5",
		width=1.9444];
	72 -> 73	[label="> 77.0",
		lp="2284,1165.5",
		op=">",
		param=77.0,
		pos="e,2264.5,1140.3 2264.5,1190.8 2264.5,1178 2264.5,1163.7 2264.5,1150.3",
		style=dashed];
	82	[fillcolor=lightcoral,
		height=1.1528,
		label="CO\ngini = 0.177\nsamples = 51\nvalue = [0, 0, 0, 5, 46]\nclass = 5",
		pos="2737.5,1098.5",
		width=2.0417];
	72 -> 82	[label="> 77.0",
		lp="2535,1165.5",
		op=">",
		param=77.0,
		pos="e,2663.8,1120.1 2342.1,1209.9 2428,1185.9 2565.9,1147.4 2654.1,1122.8",
		style=dashed];
	74	[fillcolor=palegreen,
		height=1.1528,
		label="BPDIAS\ngini = 0.278\nsamples = 6\nvalue = [5, 0, 0, 1, 0]\nclass = 1",
		pos="2165.5,964.5",
		width=1.9444];
	73 -> 74	[label="> 84.0",
		lp="2238,1031.5",
		op=">",
		param=84.0,
		pos="e,2196.1,1006.3 2234,1056.8 2223.9,1043.4 2212.6,1028.3 2202.1,1014.4",
		style=solid];
	77	[fillcolor=mistyrose,
		height=1.1528,
		label="PCWPA\ngini = 0.5\nsamples = 8\nvalue = [0, 0, 0, 4, 4]\nclass = 4",
		pos="2323.5,964.5",
		width=1.9444];
	73 -> 77	[label="> 84.0",
		lp="2316,1031.5",
		op=">",
		param=84.0,
		pos="e,2305.3,1006.3 2282.7,1056.8 2288.5,1043.8 2295,1029.2 2301.1,1015.5",
		style=dashed];
	75	[fillcolor=palegreen,
		height=0.94444,
		label="gini = 0.0\nsamples = 5\nvalue = [5, 0, 0, 0, 0]\nclass = 1",
		pos="2007.5,830.5",
		width=1.9444];
	74 -> 75	[label="<= 79.0",
		lp="2115,897.5",
		op="<=",
		param=79.0,
		pos="e,2047,864.53 2116.8,922.82 2097.1,906.37 2074.5,887.46 2054.9,871.12",
		style=solid];
	76	[fillcolor=mistyrose,
		height=0.94444,
		label="gini = 0.0\nsamples = 1\nvalue = [0, 0, 0, 1, 0]\nclass = 4",
		pos="2165.5,830.5",
		width=1.9444];
	74 -> 76	[label="<= 79.0",
		lp="2189,897.5",
		op="<=",
		param=79.0,
		pos="e,2165.5,864.74 2165.5,922.82 2165.5,907.68 2165.5,890.44 2165.5,875.05",
		style=solid];
	78	[fillcolor=mistyrose,
		height=0.94444,
		label="gini = 0.0\nsamples = 3\nvalue = [0, 0, 0, 3, 0]\nclass = 4",
		pos="2323.5,830.5",
		width=1.9444];
	77 -> 78	[label="<= 15.0",
		lp="2347,897.5",
		op="<=",
		param=15.0,
		pos="e,2323.5,864.74 2323.5,922.82 2323.5,907.68 2323.5,890.44 2323.5,875.05",
		style=solid];
	79	[fillcolor=lightcoral,
		height=1.1528,
		label="PCWPMN\ngini = 0.32\nsamples = 5\nvalue = [0, 0, 0, 1, 4]\nclass = 5",
		pos="2481.5,830.5",
		width=1.9444];
	77 -> 79	[label="> 15.0",
		lp="2427,897.5",
		op=">",
		param=15.0,
		pos="e,2433,872.05 2372.2,922.82 2388.9,908.83 2407.8,893.04 2425.1,878.59",
		style=solid];
	80	[fillcolor=mistyrose,
		height=0.94444,
		label="gini = 0.0\nsamples = 1\nvalue = [0, 0, 0, 1, 0]\nclass = 4",
		pos="2323.5,696.5",
		width=1.9444];
	79 -> 80	[label="<= 14.5",
		lp="2431,763.5",
		op="<=",
		param=14.5,
		pos="e,2363,730.53 2432.8,788.82 2413.1,772.37 2390.5,753.46 2370.9,737.12",
		style=solid];
	81	[fillcolor=lightcoral,
		height=0.94444,
		label="gini = 0.0\nsamples = 4\nvalue = [0, 0, 0, 0, 4]\nclass = 5",
		pos="2481.5,696.5",
		width=1.9444];
	79 -> 81	[label="<= 14.5",
		lp="2505,763.5",
		op="<=",
		param=14.5,
		pos="e,2481.5,730.74 2481.5,788.82 2481.5,773.68 2481.5,756.44 2481.5,741.05",
		style=solid];
	83	[fillcolor=lightcoral,
		height=1.1528,
		label="PAS\ngini = 0.043\nsamples = 46\nvalue = [0, 0, 0, 1, 45]\nclass = 5",
		pos="2737.5,964.5",
		width=2.0417];
	82 -> 83	[label="> 5.35",
		lp="2757,1031.5",
		op=">",
		param=5.35,
		pos="e,2737.5,1006.3 2737.5,1056.8 2737.5,1044 2737.5,1029.7 2737.5,1016.3",
		style=dashed];
	88	[fillcolor=mistyrose,
		height=1.1528,
		label="MIXED\ngini = 0.32\nsamples = 5\nvalue = [0, 0, 0, 4, 1]\nclass = 4",
		pos="2963.5,964.5",
		width=1.9444];
	82 -> 88	[label="> 5.35",
		lp="2877,1031.5",
		op=">",
		param=5.35,
		pos="e,2893.9,1006.2 2806.8,1057 2831.6,1042.6 2859.6,1026.2 2885,1011.3",
		style=solid];
	84	[fillcolor=mistyrose,
		height=1.1528,
		label="PP\ngini = 0.5\nsamples = 2\nvalue = [0, 0, 0, 1, 1]\nclass = 4",
		pos="2639.5,830.5",
		width=1.9444];
	83 -> 84	[label="> 55.5",
		lp="2711,897.5",
		op=">",
		param=55.5,
		pos="e,2669.8,872.27 2707.3,922.82 2697.3,909.39 2686.1,894.32 2675.8,880.35",
		style=dashed];
	87	[fillcolor=lightcoral,
		height=0.94444,
		label="gini = 0.0\nsamples = 44\nvalue = [0, 0, 0, 0, 44]\nclass = 5",
		pos="2801.5,830.5",
		width=2.0417];
	83 -> 87	[label="<= 55.5",
		lp="2795,897.5",
		op="<=",
		param=55.5,
		pos="e,2785.4,864.74 2757.2,922.82 2764.7,907.39 2773.2,889.78 2780.8,874.17",
		style=solid];
	85	[fillcolor=lightcoral,
		height=0.94444,
		label="gini = 0.0\nsamples = 1\nvalue = [0, 0, 0, 0, 1]\nclass = 5",
		pos="2639.5,696.5",
		width=1.9444];
	84 -> 85	[label="<= 32.5",
		lp="2663,763.5",
		op="<=",
		param=32.5,
		pos="e,2639.5,730.74 2639.5,788.82 2639.5,773.68 2639.5,756.44 2639.5,741.05",
		style=solid];
	86	[fillcolor=mistyrose,
		height=0.94444,
		label="gini = 0.0\nsamples = 1\nvalue = [0, 0, 0, 1, 0]\nclass = 4",
		pos="2797.5,696.5",
		width=1.9444];
	84 -> 86	[label="<= 32.5",
		lp="2747,763.5",
		op="<=",
		param=32.5,
		pos="e,2758,730.53 2688.2,788.82 2707.9,772.37 2730.5,753.46 2750.1,737.12",
		style=solid];
	89	[fillcolor=mistyrose,
		height=0.94444,
		label="gini = 0.0\nsamples = 4\nvalue = [0, 0, 0, 4, 0]\nclass = 4",
		pos="2963.5,830.5",
		width=1.9444];
	88 -> 89	[label="<= 71.5",
		lp="2987,897.5",
		op="<=",
		param=71.5,
		pos="e,2963.5,864.74 2963.5,922.82 2963.5,907.68 2963.5,890.44 2963.5,875.05",
		style=solid];
	90	[fillcolor=lightcoral,
		height=0.94444,
		label="gini = 0.0\nsamples = 1\nvalue = [0, 0, 0, 0, 1]\nclass = 5",
		pos="3121.5,830.5",
		width=1.9444];
	88 -> 90	[label="<= 71.5",
		lp="3071,897.5",
		op="<=",
		param=71.5,
		pos="e,3082,864.53 3012.2,922.82 3031.9,906.37 3054.5,887.46 3074.1,871.12",
		style=solid];
}
