strict digraph Tree {
	graph [bb="0,0,2542,1408"];
	node [color=black,
		fontname=helvetica,
		label="\N",
		shape=box,
		style="filled, rounded"
	];
	edge [fontname=helvetica];
	0	[fillcolor=honeydew,
		height=1.1528,
		label="PCWP\ngini = 0.74\nsamples = 334\nvalue = [39, 113, 109, 27, 46]\nclass = 2",
		pos="914,1366.5",
		width=2.6667];
	1	[fillcolor=honeydew,
		height=1.1528,
		label="PCWPMod\ngini = 0.587\nsamples = 166\nvalue = [25, 99, 15, 27, 0]\nclass = 2",
		pos="579,1232.5",
		width=2.3611];
	0 -> 1	[label="<= 18.5",
		labelangle=45,
		labeldistance=2.5,
		lp="780.5,1299.5",
		op="<=",
		param=18.5,
		pos="e,664.23,1267.1 817.55,1327.5 772.35,1309.7 718.67,1288.5 673.69,1270.8",
		style=solid];
	28	[fillcolor=lightyellow,
		height=1.1528,
		label="PCWPMod\ngini = 0.598\nsamples = 168\nvalue = [14, 14, 94, 0, 46]\nclass = 3",
		pos="1273,1232.5",
		width=2.3611];
	0 -> 28	[label="> 18.5",
		labelangle=-45,
		labeldistance=2.5,
		lp="1124.5,1299.5",
		op=">",
		param=18.5,
		pos="e,1187.9,1264.8 1010.2,1330.1 1062.3,1311 1126.5,1287.4 1178.3,1268.3",
		style=solid];
	2	[fillcolor=mistyrose,
		height=1.1528,
		label="MPAP\ngini = 0.069\nsamples = 28\nvalue = [0, 0, 1, 27, 0]\nclass = 4",
		pos="348,1098.5",
		width=2.0417];
	1 -> 2	[label="<= 1.5",
		lp="491,1165.5",
		op="<=",
		param=1.5,
		pos="e,419.14,1140.2 508.12,1191 482.74,1176.5 453.97,1160.1 427.88,1145.1",
		style=solid];
	5	[fillcolor=honeydew,
		height=1.1528,
		label="CPI\ngini = 0.442\nsamples = 138\nvalue = [25, 99, 14, 0, 0]\nclass = 2",
		pos="579,1098.5",
		width=2.25];
	1 -> 5	[label="> 1.5",
		lp="594.5,1165.5",
		op=">",
		param=1.5,
		pos="e,579,1140.3 579,1190.8 579,1178 579,1163.7 579,1150.3",
		style=solid];
	3	[fillcolor=mistyrose,
		height=0.94444,
		label="gini = 0.0\nsamples = 27\nvalue = [0, 0, 0, 27, 0]\nclass = 4",
		pos="186,964.5",
		width=2.0417];
	2 -> 3	[label="<= 37.5",
		lp="295.5,1031.5",
		op="<=",
		param=37.5,
		pos="e,226.54,998.53 298.07,1056.8 277.8,1040.3 254.47,1021.3 234.36,1004.9",
		style=solid];
	4	[fillcolor=lightyellow,
		height=0.94444,
		label="gini = 0.0\nsamples = 1\nvalue = [0, 0, 1, 0, 0]\nclass = 3",
		pos="348,964.5",
		width=1.9444];
	2 -> 4	[label="> 37.5",
		lp="367.5,1031.5",
		op=">",
		param=37.5,
		pos="e,348,998.74 348,1056.8 348,1041.7 348,1024.4 348,1009.1",
		style=solid];
	6	[fillcolor=palegreen,
		height=1.1528,
		label="MAP\ngini = 0.563\nsamples = 36\nvalue = [21, 10, 5, 0, 0]\nclass = 1",
		pos="514,964.5",
		width=2.1528];
	5 -> 6	[label="<= 0.555",
		lp="576.5,1031.5",
		op="<=",
		param=0.555,
		pos="e,534.08,1006.3 558.97,1056.8 552.54,1043.8 545.35,1029.2 538.64,1015.5",
		style=solid];
	17	[fillcolor=honeydew,
		height=1.1528,
		label="PAD\ngini = 0.229\nsamples = 102\nvalue = [4, 89, 9, 0, 0]\nclass = 2",
		pos="683,964.5",
		width=2.0417];
	5 -> 17	[label="> 0.555",
		lp="658,1031.5",
		op=">",
		param=0.555,
		pos="e,650.87,1006.3 611.05,1056.8 621.63,1043.4 633.5,1028.3 644.51,1014.4",
		style=solid];
	7	[fillcolor=palegreen,
		height=1.1528,
		label="Age\ngini = 0.172\nsamples = 21\nvalue = [19, 2, 0, 0, 0]\nclass = 1",
		pos="232,830.5",
		width=2.0417];
	6 -> 7	[label="<= 135.0",
		lp="409.5,897.5",
		op="<=",
		param=135.0,
		pos="e,305.67,865.98 436.2,927.08 398.46,909.42 353.12,888.19 314.75,870.24",
		style=solid];
	12	[fillcolor=honeydew,
		height=1.1528,
		label="PAD\ngini = 0.587\nsamples = 15\nvalue = [2, 8, 5, 0, 0]\nclass = 2",
		pos="514,830.5",
		width=1.9444];
	6 -> 12	[label="> 135.0",
		lp="537,897.5",
		op=">",
		param=135.0,
		pos="e,514,872.27 514,922.82 514,910.02 514,895.73 514,882.32",
		style=solid];
	8	[fillcolor=honeydew,
		height=0.94444,
		label="gini = 0.0\nsamples = 1\nvalue = [0, 1, 0, 0, 0]\nclass = 2",
		pos="70,696.5",
		width=1.9444];
	7 -> 8	[label="<= 27.0",
		lp="179.5,763.5",
		op="<=",
		param=27.0,
		pos="e,110.54,730.53 182.07,788.82 161.8,772.3 138.47,753.29 118.36,736.9",
		style=solid];
	9	[fillcolor=palegreen,
		height=1.1528,
		label="MPAP\ngini = 0.095\nsamples = 20\nvalue = [19, 1, 0, 0, 0]\nclass = 1",
		pos="232,696.5",
		width=2.0417];
	7 -> 9	[label="> 27.0",
		lp="251.5,763.5",
		op=">",
		param=27.0,
		pos="e,232,738.27 232,788.82 232,776.02 232,761.73 232,748.32",
		style=solid];
	10	[fillcolor=honeydew,
		height=0.94444,
		label="gini = 0.0\nsamples = 1\nvalue = [0, 1, 0, 0, 0]\nclass = 2",
		pos="70,562.5",
		width=1.9444];
	9 -> 10	[label="<= 29.167",
		lp="187,629.5",
		op="<=",
		param=29.167,
		pos="e,110.54,596.53 182.07,654.82 161.8,638.3 138.47,619.29 118.36,602.9",
		style=solid];
	11	[fillcolor=palegreen,
		height=0.94444,
		label="gini = 0.0\nsamples = 19\nvalue = [19, 0, 0, 0, 0]\nclass = 1",
		pos="232,562.5",
		width=2.0417];
	9 -> 11	[label="> 29.167",
		lp="259,629.5",
		op=">",
		param=29.167,
		pos="e,232,596.74 232,654.82 232,639.68 232,622.44 232,607.05",
		style=solid];
	13	[fillcolor=honeydew,
		height=1.1528,
		label="SVR\ngini = 0.32\nsamples = 10\nvalue = [2, 8, 0, 0, 0]\nclass = 2",
		pos="394,696.5",
		width=1.9444];
	12 -> 13	[label="<= 24.0",
		lp="481.5,763.5",
		op="<=",
		param=24.0,
		pos="e,431.07,738.27 477.02,788.82 464.7,775.27 450.85,760.04 438.05,745.96",
		style=solid];
	16	[fillcolor=lightyellow,
		height=0.94444,
		label="gini = 0.0\nsamples = 5\nvalue = [0, 0, 5, 0, 0]\nclass = 3",
		pos="552,696.5",
		width=1.9444];
	12 -> 16	[label="> 24.0",
		lp="554.5,763.5",
		op=">",
		param=24.0,
		pos="e,542.43,730.74 525.71,788.82 530.11,773.53 535.13,756.11 539.59,740.61",
		style=solid];
	14	[fillcolor=palegreen,
		height=0.94444,
		label="gini = 0.0\nsamples = 2\nvalue = [2, 0, 0, 0, 0]\nclass = 1",
		pos="394,562.5",
		width=1.9444];
	13 -> 14	[label="<= 190.933",
		lp="429,629.5",
		op="<=",
		param=190.933,
		pos="e,394,596.74 394,654.82 394,639.68 394,622.44 394,607.05",
		style=solid];
	15	[fillcolor=honeydew,
		height=0.94444,
		label="gini = 0.0\nsamples = 8\nvalue = [0, 8, 0, 0, 0]\nclass = 2",
		pos="552,562.5",
		width=1.9444];
	13 -> 15	[label="> 190.933",
		lp="515.5,629.5",
		op=">",
		param=190.933,
		pos="e,514.71,596.83 446.02,654.91 453.44,648.96 460.95,642.87 468,637 480.83,626.33 494.53,614.52 507.07,603.54",
		style=solid];
	18	[fillcolor=palegreen,
		height=0.94444,
		label="gini = 0.0\nsamples = 4\nvalue = [4, 0, 0, 0, 0]\nclass = 1",
		pos="677,830.5",
		width=1.9444];
	17 -> 18	[label="<= 3.5",
		lp="701,897.5",
		op="<=",
		param=3.5,
		pos="e,678.51,864.74 681.15,922.82 680.46,907.68 679.68,890.44 678.98,875.05",
		style=solid];
	19	[fillcolor=honeydew,
		height=1.1528,
		label="PAD\ngini = 0.167\nsamples = 98\nvalue = [0, 89, 9, 0, 0]\nclass = 2",
		pos="839,830.5",
		width=2.0417];
	17 -> 19	[label="> 3.5",
		lp="781.5,897.5",
		op=">",
		param=3.5,
		pos="e,791.08,872.05 731.08,922.82 747.61,908.83 766.27,893.04 783.35,878.59",
		style=solid];
	20	[fillcolor=honeydew,
		height=1.1528,
		label="PCWPMN\ngini = 0.118\nsamples = 95\nvalue = [0, 89, 6, 0, 0]\nclass = 2",
		pos="714,696.5",
		width=2.0417];
	19 -> 20	[label="<= 31.5",
		lp="804.5,763.5",
		op="<=",
		param=31.5,
		pos="e,752.61,738.27 800.48,788.82 787.53,775.14 772.96,759.76 759.52,745.57",
		style=solid];
	27	[fillcolor=lightyellow,
		height=0.94444,
		label="gini = 0.0\nsamples = 3\nvalue = [0, 0, 3, 0, 0]\nclass = 3",
		pos="876,696.5",
		width=1.9444];
	19 -> 27	[label="> 31.5",
		lp="878.5,763.5",
		op=">",
		param=31.5,
		pos="e,866.68,730.74 850.4,788.82 854.69,773.53 859.57,756.11 863.92,740.61",
		style=solid];
	21	[fillcolor=honeydew,
		height=1.1528,
		label="CI\ngini = 0.024\nsamples = 81\nvalue = [0, 80, 1, 0, 0]\nclass = 2",
		pos="714,562.5",
		width=2.0417];
	20 -> 21	[label="<= 16.5",
		lp="737.5,629.5",
		op="<=",
		param=16.5,
		pos="e,714,604.27 714,654.82 714,642.02 714,627.73 714,614.32",
		style=solid];
	24	[fillcolor=honeydew,
		height=1.1528,
		label="PAS\ngini = 0.459\nsamples = 14\nvalue = [0, 9, 5, 0, 0]\nclass = 2",
		pos="876,562.5",
		width=1.9444];
	20 -> 24	[label="> 16.5",
		lp="819.5,629.5",
		op=">",
		param=16.5,
		pos="e,826.24,604.05 763.93,654.82 781.1,640.83 800.47,625.04 818.21,610.59",
		style=solid];
	22	[fillcolor=lightyellow,
		height=0.94444,
		label="gini = 0.0\nsamples = 1\nvalue = [0, 0, 1, 0, 0]\nclass = 3",
		pos="552,428.5",
		width=1.9444];
	21 -> 22	[label="<= 1.685",
		lp="665.5,495.5",
		op="<=",
		param=1.685,
		pos="e,592.54,462.53 664.07,520.82 643.8,504.3 620.47,485.29 600.36,468.9",
		style=solid];
	23	[fillcolor=honeydew,
		height=0.94444,
		label="gini = 0.0\nsamples = 80\nvalue = [0, 80, 0, 0, 0]\nclass = 2",
		pos="714,428.5",
		width=2.0417];
	21 -> 23	[label="> 1.685",
		lp="737,495.5",
		op=">",
		param=1.685,
		pos="e,714,462.74 714,520.82 714,505.68 714,488.44 714,473.05",
		style=solid];
	25	[fillcolor=honeydew,
		height=0.94444,
		label="gini = 0.0\nsamples = 9\nvalue = [0, 9, 0, 0, 0]\nclass = 2",
		pos="876,428.5",
		width=1.9444];
	24 -> 25	[label="<= 44.5",
		lp="899.5,495.5",
		op="<=",
		param=44.5,
		pos="e,876,462.74 876,520.82 876,505.68 876,488.44 876,473.05",
		style=solid];
	26	[fillcolor=lightyellow,
		height=0.94444,
		label="gini = 0.0\nsamples = 5\nvalue = [0, 0, 5, 0, 0]\nclass = 3",
		pos="1034,428.5",
		width=1.9444];
	24 -> 26	[label="> 44.5",
		lp="979.5,495.5",
		op=">",
		param=44.5,
		pos="e,994.47,462.53 924.69,520.82 944.38,504.37 967.02,485.46 986.57,469.12",
		style=solid];
	29	[fillcolor=lightyellow,
		height=1.1528,
		label="MPAP\ngini = 0.411\nsamples = 113\nvalue = [9, 14, 85, 0, 5]\nclass = 3",
		pos="1273,1098.5",
		width=2.1528];
	28 -> 29	[label="<= 28.5",
		lp="1296.5,1165.5",
		op="<=",
		param=28.5,
		pos="e,1273,1140.3 1273,1190.8 1273,1178 1273,1163.7 1273,1150.3",
		style=solid];
	62	[fillcolor=lightcoral,
		height=1.1528,
		label="PAD\ngini = 0.409\nsamples = 55\nvalue = [5, 0, 9, 0, 41]\nclass = 5",
		pos="1777,1098.5",
		width=2.0417];
	28 -> 62	[label="> 28.5",
		lp="1560.5,1165.5",
		op=">",
		param=28.5,
		pos="e,1703.3,1118.8 1358.2,1209.2 1451.6,1184.7 1600.6,1145.7 1693.4,1121.4",
		style=solid];
	30	[fillcolor=palegreen,
		height=1.1528,
		label="PAPP\ngini = 0.5\nsamples = 12\nvalue = [6, 6, 0, 0, 0]\nclass = 1",
		pos="1192,964.5",
		width=1.9444];
	29 -> 30	[label="<= 51.167",
		lp="1266,1031.5",
		op="<=",
		param=51.167,
		pos="e,1217,1006.3 1248,1056.8 1240,1043.6 1230.9,1028.9 1222.5,1015.1",
		style=solid];
	35	[fillcolor=lightyellow,
		height=1.1528,
		label="PAD\ngini = 0.282\nsamples = 101\nvalue = [3, 8, 85, 0, 5]\nclass = 3",
		pos="1433,964.5",
		width=2.0417];
	29 -> 35	[label="> 51.167",
		lp="1385,1031.5",
		op=">",
		param=51.167,
		pos="e,1383.9,1006 1322.3,1056.8 1339.3,1042.8 1358.4,1027 1375.9,1012.6",
		style=solid];
	31	[fillcolor=palegreen,
		height=0.94444,
		label="gini = 0.0\nsamples = 5\nvalue = [5, 0, 0, 0, 0]\nclass = 1",
		pos="1034,830.5",
		width=1.9444];
	30 -> 31	[label="<= 0.176",
		lp="1145.5,897.5",
		op="<=",
		param=0.176,
		pos="e,1073.5,864.53 1143.3,922.82 1123.6,906.37 1101,887.46 1081.4,871.12",
		style=solid];
	32	[fillcolor=honeydew,
		height=1.1528,
		label="BPSYS\ngini = 0.245\nsamples = 7\nvalue = [1, 6, 0, 0, 0]\nclass = 2",
		pos="1192,830.5",
		width=1.9444];
	30 -> 32	[label="> 0.176",
		lp="1215,897.5",
		op=">",
		param=0.176,
		pos="e,1192,872.27 1192,922.82 1192,910.02 1192,895.73 1192,882.32",
		style=solid];
	33	[fillcolor=palegreen,
		height=0.94444,
		label="gini = 0.0\nsamples = 1\nvalue = [1, 0, 0, 0, 0]\nclass = 1",
		pos="1034,696.5",
		width=1.9444];
	32 -> 33	[label="<= 91.0",
		lp="1141.5,763.5",
		op="<=",
		param=91.0,
		pos="e,1073.5,730.53 1143.3,788.82 1123.6,772.37 1101,753.46 1081.4,737.12",
		style=solid];
	34	[fillcolor=honeydew,
		height=0.94444,
		label="gini = 0.0\nsamples = 6\nvalue = [0, 6, 0, 0, 0]\nclass = 2",
		pos="1192,696.5",
		width=1.9444];
	32 -> 34	[label="> 91.0",
		lp="1211.5,763.5",
		op=">",
		param=91.0,
		pos="e,1192,730.74 1192,788.82 1192,773.68 1192,756.44 1192,741.05",
		style=solid];
	36	[fillcolor=lightyellow,
		height=1.1528,
		label="MAP\ngini = 0.228\nsamples = 95\nvalue = [3, 8, 83, 0, 1]\nclass = 3",
		pos="1433,830.5",
		width=2.0417];
	35 -> 36	[label="<= 35.5",
		lp="1456.5,897.5",
		op="<=",
		param=35.5,
		pos="e,1433,872.27 1433,922.82 1433,910.02 1433,895.73 1433,882.32",
		style=solid];
	59	[fillcolor=lightcoral,
		height=1.1528,
		label="PCWPA\ngini = 0.444\nsamples = 6\nvalue = [0, 0, 2, 0, 4]\nclass = 5",
		pos="1674,830.5",
		width=1.9444];
	35 -> 59	[label="> 35.5",
		lp="1580.5,897.5",
		op=">",
		param=35.5,
		pos="e,1603.7,869.99 1506.6,923.18 1534.5,907.92 1566.3,890.5 1594.6,874.96",
		style=solid];
	37	[fillcolor=palegreen,
		height=1.1528,
		label="CO\ngini = 0.444\nsamples = 3\nvalue = [2, 1, 0, 0, 0]\nclass = 1",
		pos="1350,696.5",
		width=1.9444];
	36 -> 37	[label="<= 107.333",
		lp="1429,763.5",
		op="<=",
		param=107.333,
		pos="e,1375.6,738.27 1407.4,788.82 1399.1,775.52 1389.7,760.6 1381,746.74",
		style=solid];
	40	[fillcolor=lightyellow,
		height=1.1528,
		label="PPP\ngini = 0.18\nsamples = 92\nvalue = [1, 7, 83, 0, 1]\nclass = 3",
		pos="1512,696.5",
		width=2.0417];
	36 -> 40	[label="> 107.333",
		lp="1505.5,763.5",
		op=">",
		param=107.333,
		pos="e,1487.6,738.27 1457.3,788.82 1465.2,775.64 1474.1,760.89 1482.3,747.14",
		style=solid];
	38	[fillcolor=palegreen,
		height=0.94444,
		label="gini = 0.0\nsamples = 2\nvalue = [2, 0, 0, 0, 0]\nclass = 1",
		pos="1192,562.5",
		width=1.9444];
	37 -> 38	[label="<= 4.405",
		lp="1303.5,629.5",
		op="<=",
		param=4.405,
		pos="e,1231.5,596.53 1301.3,654.82 1281.6,638.37 1259,619.46 1239.4,603.12",
		style=solid];
	39	[fillcolor=honeydew,
		height=0.94444,
		label="gini = 0.0\nsamples = 1\nvalue = [0, 1, 0, 0, 0]\nclass = 2",
		pos="1350,562.5",
		width=1.9444];
	37 -> 39	[label="> 4.405",
		lp="1373,629.5",
		op=">",
		param=4.405,
		pos="e,1350,596.74 1350,654.82 1350,639.68 1350,622.44 1350,607.05",
		style=solid];
	41	[fillcolor=lightyellow,
		height=1.1528,
		label="PAD\ngini = 0.134\nsamples = 85\nvalue = [1, 4, 79, 0, 1]\nclass = 3",
		pos="1512,562.5",
		width=2.0417];
	40 -> 41	[label="<= 0.544",
		lp="1539.5,629.5",
		op="<=",
		param=0.544,
		pos="e,1512,604.27 1512,654.82 1512,642.02 1512,627.73 1512,614.32",
		style=solid];
	56	[fillcolor=lightyellow,
		height=1.1528,
		label="HRTRT\ngini = 0.49\nsamples = 7\nvalue = [0, 3, 4, 0, 0]\nclass = 3",
		pos="1674,562.5",
		width=1.9444];
	40 -> 56	[label="> 0.544",
		lp="1621,629.5",
		op=">",
		param=0.544,
		pos="e,1624.2,604.05 1561.9,654.82 1579.1,640.83 1598.5,625.04 1616.2,610.59",
		style=solid];
	42	[fillcolor=lightyellow,
		height=1.1528,
		label="SVR\ngini = 0.368\nsamples = 22\nvalue = [1, 4, 17, 0, 0]\nclass = 3",
		pos="1347,428.5",
		width=2.0417];
	41 -> 42	[label="<= 23.5",
		lp="1458.5,495.5",
		op="<=",
		param=23.5,
		pos="e,1397.7,470.05 1461.1,520.82 1443.7,506.83 1423.9,491.04 1405.9,476.59",
		style=solid];
	51	[fillcolor=lightyellow,
		height=1.1528,
		label="PCWPMN\ngini = 0.031\nsamples = 63\nvalue = [0, 0, 62, 0, 1]\nclass = 3",
		pos="1512,428.5",
		width=2.0417];
	41 -> 51	[label="> 23.5",
		lp="1531.5,495.5",
		op=">",
		param=23.5,
		pos="e,1512,470.27 1512,520.82 1512,508.02 1512,493.73 1512,480.32",
		style=solid];
	43	[fillcolor=lightyellow,
		height=1.1528,
		label="EjF\ngini = 0.542\nsamples = 12\nvalue = [1, 4, 7, 0, 0]\nclass = 3",
		pos="1185,294.5",
		width=1.9444];
	42 -> 43	[label="<= 2636.229",
		lp="1304.5,361.5",
		op="<=",
		param=2636.229,
		pos="e,1227.9,336.08 1288.9,386.73 1281.1,380.91 1273.3,374.9 1266,369 1255.9,360.81 1245.4,351.73 1235.4,342.83",
		style=solid];
	50	[fillcolor=lightyellow,
		height=0.94444,
		label="gini = 0.0\nsamples = 10\nvalue = [0, 0, 10, 0, 0]\nclass = 3",
		pos="1347,294.5",
		width=2.0417];
	42 -> 50	[label="> 2636.229",
		lp="1381.5,361.5",
		op=">",
		param=2636.229,
		pos="e,1347,328.74 1347,386.82 1347,371.68 1347,354.44 1347,339.05",
		style=solid];
	44	[fillcolor=lightyellow,
		height=1.1528,
		label="CO\ngini = 0.245\nsamples = 7\nvalue = [1, 0, 6, 0, 0]\nclass = 3",
		pos="1084,160.5",
		width=1.9444];
	43 -> 44	[label="<= 18.0",
		lp="1161.5,227.5",
		op="<=",
		param=18.0,
		pos="e,1115.2,202.27 1153.9,252.82 1143.6,239.39 1132.1,224.32 1121.4,210.35",
		style=solid];
	47	[fillcolor=honeydew,
		height=1.1528,
		label="CO\ngini = 0.32\nsamples = 5\nvalue = [0, 4, 1, 0, 0]\nclass = 2",
		pos="1242,160.5",
		width=1.9444];
	43 -> 47	[label="> 18.0",
		lp="1235.5,227.5",
		op=">",
		param=18.0,
		pos="e,1224.4,202.27 1202.6,252.82 1208.2,239.77 1214.5,225.17 1220.4,211.53",
		style=solid];
	45	[fillcolor=palegreen,
		height=0.94444,
		label="gini = 0.0\nsamples = 1\nvalue = [1, 0, 0, 0, 0]\nclass = 1",
		pos="926,34",
		width=1.9444];
	44 -> 45	[label="<= 3.55",
		lp="1033.5,93.5",
		op="<=",
		param=3.55,
		pos="e,968.1,68.177 1032.3,118.73 1014.2,104.53 994.05,88.62 976.15,74.517",
		style=solid];
	46	[fillcolor=lightyellow,
		height=0.94444,
		label="gini = 0.0\nsamples = 6\nvalue = [0, 0, 6, 0, 0]\nclass = 3",
		pos="1084,34",
		width=1.9444];
	44 -> 46	[label="> 3.55",
		lp="1103.5,93.5",
		op=">",
		param=3.55,
		pos="e,1084,68.379 1084,118.73 1084,105.86 1084,91.597 1084,78.541",
		style=solid];
	48	[fillcolor=lightyellow,
		height=0.94444,
		label="gini = 0.0\nsamples = 1\nvalue = [0, 0, 1, 0, 0]\nclass = 3",
		pos="1242,34",
		width=1.9444];
	47 -> 48	[label="<= 2.0",
		lp="1262,93.5",
		op="<=",
		param=2.0,
		pos="e,1242,68.379 1242,118.73 1242,105.86 1242,91.597 1242,78.541",
		style=solid];
	49	[fillcolor=honeydew,
		height=0.94444,
		label="gini = 0.0\nsamples = 4\nvalue = [0, 4, 0, 0, 0]\nclass = 2",
		pos="1400,34",
		width=1.9444];
	47 -> 49	[label="> 2.0",
		lp="1351.5,93.5",
		op=">",
		param=2.0,
		pos="e,1357.9,68.177 1293.7,118.73 1311.8,104.53 1332,88.62 1349.8,74.517",
		style=solid];
	52	[fillcolor=lightyellow,
		height=0.94444,
		label="gini = 0.0\nsamples = 61\nvalue = [0, 0, 61, 0, 0]\nclass = 3",
		pos="1512,294.5",
		width=2.0417];
	51 -> 52	[label="<= 28.5",
		lp="1535.5,361.5",
		op="<=",
		param=28.5,
		pos="e,1512,328.74 1512,386.82 1512,371.68 1512,354.44 1512,339.05",
		style=solid];
	53	[fillcolor=lightyellow,
		height=1.1528,
		label="HRTRT\ngini = 0.5\nsamples = 2\nvalue = [0, 0, 1, 0, 1]\nclass = 3",
		pos="1674,294.5",
		width=1.9444];
	51 -> 53	[label="> 28.5",
		lp="1617.5,361.5",
		op=">",
		param=28.5,
		pos="e,1624.2,336.05 1561.9,386.82 1579.1,372.83 1598.5,357.04 1616.2,342.59",
		style=solid];
	54	[fillcolor=lightyellow,
		height=0.94444,
		label="gini = 0.0\nsamples = 1\nvalue = [0, 0, 1, 0, 0]\nclass = 3",
		pos="1595,160.5",
		width=1.9444];
	53 -> 54	[label="<= 90.0",
		lp="1660.5,227.5",
		op="<=",
		param=90.0,
		pos="e,1614.9,194.74 1649.7,252.82 1640.3,237.24 1629.7,219.45 1620.3,203.73",
		style=solid];
	55	[fillcolor=lightcoral,
		height=0.94444,
		label="gini = 0.0\nsamples = 1\nvalue = [0, 0, 0, 0, 1]\nclass = 5",
		pos="1753,160.5",
		width=1.9444];
	53 -> 55	[label="> 90.0",
		lp="1735.5,227.5",
		op=">",
		param=90.0,
		pos="e,1733.1,194.74 1698.3,252.82 1707.7,237.24 1718.3,219.45 1727.7,203.73",
		style=solid];
	57	[fillcolor=honeydew,
		height=0.94444,
		label="gini = 0.0\nsamples = 3\nvalue = [0, 3, 0, 0, 0]\nclass = 2",
		pos="1674,428.5",
		width=1.9444];
	56 -> 57	[label="<= 72.5",
		lp="1697.5,495.5",
		op="<=",
		param=72.5,
		pos="e,1674,462.74 1674,520.82 1674,505.68 1674,488.44 1674,473.05",
		style=solid];
	58	[fillcolor=lightyellow,
		height=0.94444,
		label="gini = 0.0\nsamples = 4\nvalue = [0, 0, 4, 0, 0]\nclass = 3",
		pos="1832,428.5",
		width=1.9444];
	56 -> 58	[label="> 72.5",
		lp="1777.5,495.5",
		op=">",
		param=72.5,
		pos="e,1792.5,462.53 1722.7,520.82 1742.4,504.37 1765,485.46 1784.6,469.12",
		style=solid];
	60	[fillcolor=lightyellow,
		height=0.94444,
		label="gini = 0.0\nsamples = 2\nvalue = [0, 0, 2, 0, 0]\nclass = 3",
		pos="1674,696.5",
		width=1.9444];
	59 -> 60	[label="<= 10.0",
		lp="1697.5,763.5",
		op="<=",
		param=10.0,
		pos="e,1674,730.74 1674,788.82 1674,773.68 1674,756.44 1674,741.05",
		style=solid];
	61	[fillcolor=lightcoral,
		height=0.94444,
		label="gini = 0.0\nsamples = 4\nvalue = [0, 0, 0, 0, 4]\nclass = 5",
		pos="1832,696.5",
		width=1.9444];
	59 -> 61	[label="> 10.0",
		lp="1777.5,763.5",
		op=">",
		param=10.0,
		pos="e,1792.5,730.53 1722.7,788.82 1742.4,772.37 1765,753.46 1784.6,737.12",
		style=solid];
	63	[fillcolor=palegreen,
		height=0.94444,
		label="gini = 0.0\nsamples = 4\nvalue = [4, 0, 0, 0, 0]\nclass = 1",
		pos="1777,964.5",
		width=1.9444];
	62 -> 63	[label="<= 10.0",
		lp="1800.5,1031.5",
		op="<=",
		param=10.0,
		pos="e,1777,998.74 1777,1056.8 1777,1041.7 1777,1024.4 1777,1009.1",
		style=solid];
	64	[fillcolor=lightcoral,
		height=1.1528,
		label="CPI\ngini = 0.322\nsamples = 51\nvalue = [1, 0, 9, 0, 41]\nclass = 5",
		pos="2075,964.5",
		width=2.0417];
	62 -> 64	[label="> 10.0",
		lp="1954.5,1031.5",
		op=">",
		param=10.0,
		pos="e,2001.4,998.1 1850.7,1064.9 1893.5,1045.9 1947.7,1021.9 1992.1,1002.2",
		style=solid];
	65	[fillcolor=lightcoral,
		height=1.1528,
		label="HRTRT\ngini = 0.206\nsamples = 44\nvalue = [1, 0, 4, 0, 39]\nclass = 5",
		pos="2075,830.5",
		width=2.0417];
	64 -> 65	[label="<= 0.871",
		lp="2102.5,897.5",
		op="<=",
		param=0.871,
		pos="e,2075,872.27 2075,922.82 2075,910.02 2075,895.73 2075,882.32",
		style=dashed];
	76	[fillcolor=lightyellow,
		height=1.1528,
		label="RAP\ngini = 0.408\nsamples = 7\nvalue = [0, 0, 5, 0, 2]\nclass = 3",
		pos="2314,830.5",
		width=1.9444];
	64 -> 76	[label="> 0.871",
		lp="2225,897.5",
		op=">",
		param=0.871,
		pos="e,2243.7,870.34 2148.3,923 2175.7,907.89 2206.9,890.66 2234.7,875.27",
		style=solid];
	66	[fillcolor=lightcoral,
		height=1.1528,
		label="PPRatio\ngini = 0.096\nsamples = 40\nvalue = [1, 0, 1, 0, 38]\nclass = 5",
		pos="1994,696.5",
		width=2.0417];
	65 -> 66	[label="<= 111.0",
		lp="2065,763.5",
		op="<=",
		param=111.0,
		pos="e,2018,738.04 2049.2,788.98 2045.4,782.97 2041.6,776.83 2038,771 2033.2,763.19 2028.1,754.87 2023.3,746.75",
		style=dashed];
	73	[fillcolor=lightyellow,
		height=1.1528,
		label="MAP\ngini = 0.375\nsamples = 4\nvalue = [0, 0, 3, 0, 1]\nclass = 3",
		pos="2156,696.5",
		width=1.9444];
	65 -> 73	[label="> 111.0",
		lp="2141,763.5",
		op=">",
		param=111.0,
		pos="e,2131,738.27 2100,788.82 2108,775.64 2117.1,760.89 2125.5,747.14",
		style=dashed];
	67	[fillcolor=palegreen,
		height=0.94444,
		label="gini = 0.0\nsamples = 1\nvalue = [1, 0, 0, 0, 0]\nclass = 1",
		pos="1832,562.5",
		width=1.9444];
	66 -> 67	[label="<= 0.118",
		lp="1945.5,629.5",
		op="<=",
		param=0.118,
		pos="e,1872.5,596.53 1944.1,654.82 1923.8,638.3 1900.5,619.29 1880.4,602.9",
		style=solid];
	68	[fillcolor=lightcoral,
		height=1.1528,
		label="RAP\ngini = 0.05\nsamples = 39\nvalue = [0, 0, 1, 0, 38]\nclass = 5",
		pos="1994,562.5",
		width=2.0417];
	66 -> 68	[label="> 0.118",
		lp="2017,629.5",
		op=">",
		param=0.118,
		pos="e,1994,604.27 1994,654.82 1994,642.02 1994,627.73 1994,614.32",
		style=dashed];
	69	[fillcolor=lightyellow,
		height=1.1528,
		label="RATHemo\ngini = 0.5\nsamples = 2\nvalue = [0, 0, 1, 0, 1]\nclass = 3",
		pos="1992,428.5",
		width=1.9444];
	68 -> 69	[label="<= 6.0",
		lp="2014,495.5",
		op="<=",
		param=6.0,
		pos="e,1992.6,470.27 1993.4,520.82 1993.2,508.02 1993,493.73 1992.8,480.32",
		style=dashed];
	72	[fillcolor=lightcoral,
		height=0.94444,
		label="gini = 0.0\nsamples = 37\nvalue = [0, 0, 0, 0, 37]\nclass = 5",
		pos="2154,428.5",
		width=2.0417];
	68 -> 72	[label="> 6.0",
		lp="2094.5,495.5",
		op=">",
		param=6.0,
		pos="e,2114,462.53 2043.3,520.82 2063.3,504.3 2086.4,485.29 2106.2,468.9",
		style=solid];
	70	[fillcolor=lightcoral,
		height=0.94444,
		label="gini = 0.0\nsamples = 1\nvalue = [0, 0, 0, 0, 1]\nclass = 5",
		pos="1911,294.5",
		width=1.9444];
	69 -> 70	[label="<= 0.08",
		lp="1977.5,361.5",
		op="<=",
		param=0.08,
		pos="e,1931.4,328.74 1967,386.82 1957.4,371.1 1946.4,353.11 1936.6,337.29",
		style=solid];
	71	[fillcolor=lightyellow,
		height=0.94444,
		label="gini = 0.0\nsamples = 1\nvalue = [0, 0, 1, 0, 0]\nclass = 3",
		pos="2069,294.5",
		width=1.9444];
	69 -> 71	[label="> 0.08",
		lp="2052.5,361.5",
		op=">",
		param=0.08,
		pos="e,2049.6,328.74 2015.7,386.82 2024.8,371.24 2035.2,353.45 2044.4,337.73",
		style=solid];
	74	[fillcolor=lightyellow,
		height=0.94444,
		label="gini = 0.0\nsamples = 3\nvalue = [0, 0, 3, 0, 0]\nclass = 3",
		pos="2156,562.5",
		width=1.9444];
	73 -> 74	[label="<= 168.333",
		lp="2191,629.5",
		op="<=",
		param=168.333,
		pos="e,2156,596.74 2156,654.82 2156,639.68 2156,622.44 2156,607.05",
		style=solid];
	75	[fillcolor=lightcoral,
		height=0.94444,
		label="gini = 0.0\nsamples = 1\nvalue = [0, 0, 0, 0, 1]\nclass = 5",
		pos="2314,562.5",
		width=1.9444];
	73 -> 75	[label="> 168.333",
		lp="2277.5,629.5",
		op=">",
		param=168.333,
		pos="e,2276.7,596.83 2208,654.91 2215.4,648.96 2222.9,642.87 2230,637 2242.8,626.33 2256.5,614.52 2269.1,603.54",
		style=solid];
	77	[fillcolor=lightyellow,
		height=0.94444,
		label="gini = 0.0\nsamples = 5\nvalue = [0, 0, 5, 0, 0]\nclass = 3",
		pos="2314,696.5",
		width=1.9444];
	76 -> 77	[label="<= 18.5",
		lp="2337.5,763.5",
		op="<=",
		param=18.5,
		pos="e,2314,730.74 2314,788.82 2314,773.68 2314,756.44 2314,741.05",
		style=solid];
	78	[fillcolor=lightcoral,
		height=0.94444,
		label="gini = 0.0\nsamples = 2\nvalue = [0, 0, 0, 0, 2]\nclass = 5",
		pos="2472,696.5",
		width=1.9444];
	76 -> 78	[label="> 18.5",
		lp="2417.5,763.5",
		op=">",
		param=18.5,
		pos="e,2432.5,730.53 2362.7,788.82 2382.4,772.37 2405,753.46 2424.6,737.12",
		style=solid];
}
