strict digraph Tree {
	graph [bb="0,0,4934.5,2078"];
	node [color=black,
		fontname=helvetica,
		label="\N",
		shape=box,
		style="filled, rounded"
	];
	edge [fontname=helvetica];
	0	[fillcolor=lightyellow,
		height=1.1528,
		label="Gender\ngini = 0.742\nsamples = 335\nvalue = [75, 72, 125, 47, 16]\nclass = 3",
		pos="4125,2036.5",
		width=2.5694];
	1	[fillcolor=lightyellow,
		height=1.1528,
		label="PRAPRat\ngini = 0.615\nsamples = 247\nvalue = [75, 0, 125, 47, 0]\nclass = 3",
		pos="3962,1902.5",
		width=2.3611];
	0 -> 1	[label="<= 1.5",
		labelangle=45,
		labeldistance=2.5,
		lp="4069,1969.5",
		op="<=",
		param=1.5,
		pos="e,4012.1,1944 4074.8,1994.8 4057.5,1980.8 4038,1965 4020.1,1950.6",
		style=solid];
	122	[fillcolor=honeydew,
		height=1.1528,
		label="Age\ngini = 0.298\nsamples = 88\nvalue = [0, 72, 0, 0, 16]\nclass = 2",
		pos="4277,1902.5",
		width=2.1528];
	0 -> 122	[label="> 1.5",
		labelangle=-45,
		labeldistance=2.5,
		lp="4221.5,1969.5",
		op=">",
		param=1.5,
		pos="e,4230.3,1944 4171.8,1994.8 4187.8,1981 4205.8,1965.3 4222.3,1951",
		style=solid];
	2	[fillcolor=lightyellow,
		height=1.1528,
		label="CPP\ngini = 0.602\nsamples = 213\nvalue = [51, 0, 115, 47, 0]\nclass = 3",
		pos="3334,1768.5",
		width=2.3611];
	1 -> 2	[label="<= 9.562",
		lp="3694.5,1835.5",
		op="<=",
		param=9.562,
		pos="e,3419,1787.4 3877,1883.6 3760.2,1859.1 3550.9,1815.1 3429.1,1789.5",
		style=solid];
	107	[fillcolor=palegreen,
		height=1.1528,
		label="PPRatio\ngini = 0.415\nsamples = 34\nvalue = [24, 0, 10, 0, 0]\nclass = 1",
		pos="3962,1768.5",
		width=2.1528];
	1 -> 107	[label="> 9.562",
		lp="3985,1835.5",
		op=">",
		param=9.562,
		pos="e,3962,1810.3 3962,1860.8 3962,1848 3962,1833.7 3962,1820.3",
		style=solid];
	3	[fillcolor=lightyellow,
		height=1.1528,
		label="EjF\ngini = 0.62\nsamples = 146\nvalue = [29, 0, 73, 44, 0]\nclass = 3",
		pos="2292,1634.5",
		width=2.25];
	2 -> 3	[label="<= 47.5",
		lp="2868.5,1701.5",
		op="<=",
		param=47.5,
		pos="e,2373,1645.8 3248.7,1756.7 3054.9,1732.1 2582.5,1672.3 2383.2,1647",
		style=solid];
	76	[fillcolor=lightyellow,
		height=1.1528,
		label="Race\ngini = 0.497\nsamples = 67\nvalue = [22, 0, 42, 3, 0]\nclass = 3",
		pos="3334,1634.5",
		width=2.1528];
	2 -> 76	[label="> 47.5",
		lp="3353.5,1701.5",
		op=">",
		param=47.5,
		pos="e,3334,1676.3 3334,1726.8 3334,1714 3334,1699.7 3334,1686.3",
		style=solid];
	4	[fillcolor=lightyellow,
		height=1.1528,
		label="EjF\ngini = 0.575\nsamples = 119\nvalue = [15, 0, 66, 38, 0]\nclass = 3",
		pos="1491,1500.5",
		width=2.25];
	3 -> 4	[label="<= 20.5",
		lp="1939.5,1567.5",
		op="<=",
		param=20.5,
		pos="e,1572.1,1514.9 2210.8,1620.1 2060.5,1595.3 1739.8,1542.5 1582.3,1516.5",
		style=solid];
	63	[fillcolor=palegreen,
		height=1.1528,
		label="Age\ngini = 0.615\nsamples = 27\nvalue = [14, 0, 7, 6, 0]\nclass = 1",
		pos="2292,1500.5",
		width=2.0417];
	3 -> 63	[label="> 20.5",
		lp="2311.5,1567.5",
		op=">",
		param=20.5,
		pos="e,2292,1542.3 2292,1592.8 2292,1580 2292,1565.7 2292,1552.3",
		style=dashed];
	5	[fillcolor=mistyrose,
		height=1.1528,
		label="CPP\ngini = 0.627\nsamples = 25\nvalue = [5, 0, 8, 12, 0]\nclass = 4",
		pos="621,1366.5",
		width=2.0417];
	4 -> 5	[label="<= 11.0",
		lp="1106.5,1433.5",
		op="<=",
		param=11.0,
		pos="e,694.73,1378.7 1409.9,1487.2 1245,1462.2 871.85,1405.6 704.71,1380.2",
		style=solid];
	18	[fillcolor=lightyellow,
		height=1.1528,
		label="CPI\ngini = 0.531\nsamples = 94\nvalue = [10, 0, 58, 26, 0]\nclass = 3",
		pos="1491,1366.5",
		width=2.25];
	4 -> 18	[label="> 11.0",
		lp="1510.5,1433.5",
		op=">",
		param=11.0,
		pos="e,1491,1408.3 1491,1458.8 1491,1446 1491,1431.7 1491,1418.3",
		style=solid];
	6	[fillcolor=mistyrose,
		height=1.1528,
		label="CPP\ngini = 0.408\nsamples = 14\nvalue = [4, 0, 0, 10, 0]\nclass = 4",
		pos="386,1232.5",
		width=2.0417];
	5 -> 6	[label="<= 36.0",
		lp="534.5,1299.5",
		op="<=",
		param=36.0,
		pos="e,458.37,1274.2 548.9,1325 523.08,1310.5 493.8,1294.1 467.26,1279.1",
		style=solid];
	11	[fillcolor=lightyellow,
		height=1.1528,
		label="PPRatio\ngini = 0.43\nsamples = 11\nvalue = [1, 0, 8, 2, 0]\nclass = 3",
		pos="621,1232.5",
		width=1.9444];
	5 -> 11	[label="> 36.0",
		lp="640.5,1299.5",
		op=">",
		param=36.0,
		pos="e,621,1274.3 621,1324.8 621,1312 621,1297.7 621,1284.3",
		style=dashed];
	7	[fillcolor=palegreen,
		height=1.1528,
		label="EjF\ngini = 0.444\nsamples = 6\nvalue = [4, 0, 0, 2, 0]\nclass = 1",
		pos="228,1098.5",
		width=1.9444];
	6 -> 7	[label="<= 28.5",
		lp="335.5,1165.5",
		op="<=",
		param=28.5,
		pos="e,276.53,1140 337.31,1190.8 320.56,1176.8 301.67,1161 284.36,1146.6",
		style=solid];
	10	[fillcolor=mistyrose,
		height=0.94444,
		label="gini = 0.0\nsamples = 8\nvalue = [0, 0, 0, 8, 0]\nclass = 4",
		pos="386,1098.5",
		width=1.9444];
	6 -> 10	[label="> 28.5",
		lp="405.5,1165.5",
		op=">",
		param=28.5,
		pos="e,386,1132.7 386,1190.8 386,1175.7 386,1158.4 386,1143.1",
		style=solid];
	8	[fillcolor=mistyrose,
		height=0.94444,
		label="gini = 0.0\nsamples = 2\nvalue = [0, 0, 0, 2, 0]\nclass = 4",
		pos="70,964.5",
		width=1.9444];
	7 -> 8	[label="<= 2.5",
		lp="174,1031.5",
		op="<=",
		param=2.5,
		pos="e,109.53,998.53 179.31,1056.8 159.62,1040.4 136.98,1021.5 117.43,1005.1",
		style=solid];
	9	[fillcolor=palegreen,
		height=0.94444,
		label="gini = 0.0\nsamples = 4\nvalue = [4, 0, 0, 0, 0]\nclass = 1",
		pos="228,964.5",
		width=1.9444];
	7 -> 9	[label="> 2.5",
		lp="243.5,1031.5",
		op=">",
		param=2.5,
		pos="e,228,998.74 228,1056.8 228,1041.7 228,1024.4 228,1009.1",
		style=solid];
	12	[fillcolor=mistyrose,
		height=1.1528,
		label="Age\ngini = 0.444\nsamples = 3\nvalue = [0, 0, 1, 2, 0]\nclass = 4",
		pos="544,1098.5",
		width=1.9444];
	11 -> 12	[label="<= 0.323",
		lp="612.5,1165.5",
		op="<=",
		param=0.323,
		pos="e,566.25,1140.1 595.6,1190.7 592,1184.8 588.38,1178.8 585,1173 580.49,1165.3 575.8,1157.1 571.27,1149.1",
		style=dashed];
	15	[fillcolor=lightyellow,
		height=1.1528,
		label="CPP\ngini = 0.219\nsamples = 8\nvalue = [1, 0, 7, 0, 0]\nclass = 3",
		pos="702,1098.5",
		width=1.9444];
	11 -> 15	[label="> 0.323",
		lp="687,1165.5",
		op=">",
		param=0.323,
		pos="e,676.98,1140.3 645.96,1190.8 654.05,1177.6 663.1,1162.9 671.54,1149.1",
		style=dashed];
	13	[fillcolor=lightyellow,
		height=0.94444,
		label="gini = 0.0\nsamples = 1\nvalue = [0, 0, 1, 0, 0]\nclass = 3",
		pos="386,964.5",
		width=1.9444];
	12 -> 13	[label="<= 43.5",
		lp="493.5,1031.5",
		op="<=",
		param=43.5,
		pos="e,425.53,998.53 495.31,1056.8 475.62,1040.4 452.98,1021.5 433.43,1005.1",
		style=solid];
	14	[fillcolor=mistyrose,
		height=0.94444,
		label="gini = 0.0\nsamples = 2\nvalue = [0, 0, 0, 2, 0]\nclass = 4",
		pos="544,964.5",
		width=1.9444];
	12 -> 14	[label="> 43.5",
		lp="563.5,1031.5",
		op=">",
		param=43.5,
		pos="e,544,998.74 544,1056.8 544,1041.7 544,1024.4 544,1009.1",
		style=solid];
	16	[fillcolor=lightyellow,
		height=0.94444,
		label="gini = 0.0\nsamples = 7\nvalue = [0, 0, 7, 0, 0]\nclass = 3",
		pos="702,964.5",
		width=1.9444];
	15 -> 16	[label="<= 41.5",
		lp="725.5,1031.5",
		op="<=",
		param=41.5,
		pos="e,702,998.74 702,1056.8 702,1041.7 702,1024.4 702,1009.1",
		style=solid];
	17	[fillcolor=palegreen,
		height=0.94444,
		label="gini = 0.0\nsamples = 1\nvalue = [1, 0, 0, 0, 0]\nclass = 1",
		pos="860,964.5",
		width=1.9444];
	15 -> 17	[label="> 41.5",
		lp="805.5,1031.5",
		op=">",
		param=41.5,
		pos="e,820.47,998.53 750.69,1056.8 770.38,1040.4 793.02,1021.5 812.57,1005.1",
		style=solid];
	19	[fillcolor=lightyellow,
		height=1.1528,
		label="BPSYS\ngini = 0.425\nsamples = 67\nvalue = [6, 0, 49, 12, 0]\nclass = 3",
		pos="1439,1232.5",
		width=2.1528];
	18 -> 19	[label="<= 0.706",
		lp="1494.5,1299.5",
		op="<=",
		param=0.706,
		pos="e,1455.1,1274.3 1475,1324.8 1469.9,1311.9 1464.2,1297.4 1458.9,1283.9",
		style=solid];
	52	[fillcolor=mistyrose,
		height=1.1528,
		label="PPRatio\ngini = 0.598\nsamples = 27\nvalue = [4, 0, 9, 14, 0]\nclass = 4",
		pos="1617,1232.5",
		width=2.0417];
	18 -> 52	[label="> 0.706",
		lp="1581,1299.5",
		op=">",
		param=0.706,
		pos="e,1578.1,1274.3 1529.8,1324.8 1542.9,1311.1 1557.6,1295.8 1571.1,1281.6",
		style=solid];
	20	[fillcolor=palegreen,
		height=1.1528,
		label="RAP\ngini = 0.642\nsamples = 9\nvalue = [4, 0, 3, 2, 0]\nclass = 1",
		pos="1204,1098.5",
		width=1.9444];
	19 -> 20	[label="<= 70.0",
		lp="1352.5,1165.5",
		op="<=",
		param=70.0,
		pos="e,1274.4,1139 1366.9,1191 1340.5,1176.2 1310.4,1159.3 1283.4,1144.1",
		style=solid];
	27	[fillcolor=lightyellow,
		height=1.1528,
		label="PP\ngini = 0.34\nsamples = 58\nvalue = [2, 0, 46, 10, 0]\nclass = 3",
		pos="1439,1098.5",
		width=2.1528];
	19 -> 27	[label="> 70.0",
		lp="1458.5,1165.5",
		op=">",
		param=70.0,
		pos="e,1439,1140.3 1439,1190.8 1439,1178 1439,1163.7 1439,1150.3",
		style=dashed];
	21	[fillcolor=lightyellow,
		height=1.1528,
		label="CPP\ngini = 0.611\nsamples = 6\nvalue = [1, 0, 3, 2, 0]\nclass = 3",
		pos="1018,964.5",
		width=1.9444];
	20 -> 21	[label="<= 1.5",
		lp="1137,1031.5",
		op="<=",
		param=1.5,
		pos="e,1075.3,1006.2 1146.9,1057 1126.9,1042.8 1104.3,1026.8 1083.7,1012.1",
		style=dashed];
	26	[fillcolor=palegreen,
		height=0.94444,
		label="gini = 0.0\nsamples = 3\nvalue = [3, 0, 0, 0, 0]\nclass = 1",
		pos="1204,964.5",
		width=1.9444];
	20 -> 26	[label="> 1.5",
		lp="1219.5,1031.5",
		op=">",
		param=1.5,
		pos="e,1204,998.74 1204,1056.8 1204,1041.7 1204,1024.4 1204,1009.1",
		style=solid];
	22	[fillcolor=lightyellow,
		height=0.94444,
		label="gini = 0.0\nsamples = 3\nvalue = [0, 0, 3, 0, 0]\nclass = 3",
		pos="792,830.5",
		width=1.9444];
	21 -> 22	[label="<= 36.5",
		lp="935.5,897.5",
		op="<=",
		param=36.5,
		pos="e,848.7,864.62 948.66,923 919.61,906.03 886.02,886.41 857.41,869.7",
		style=solid];
	23	[fillcolor=mistyrose,
		height=1.1528,
		label="Age\ngini = 0.444\nsamples = 3\nvalue = [1, 0, 0, 2, 0]\nclass = 4",
		pos="950,830.5",
		width=1.9444];
	21 -> 23	[label="> 36.5",
		lp="1006.5,897.5",
		op=">",
		param=36.5,
		pos="e,971,872.27 997.04,922.82 990.32,909.77 982.8,895.17 975.77,881.53",
		style=dashed];
	24	[fillcolor=palegreen,
		height=0.94444,
		label="gini = 0.0\nsamples = 1\nvalue = [1, 0, 0, 0, 0]\nclass = 1",
		pos="765,696.5",
		width=1.9444];
	23 -> 24	[label="<= 37.0",
		lp="887.5,763.5",
		op="<=",
		param=37.0,
		pos="e,811.41,730.62 893.24,789 869.87,772.33 842.91,753.09 819.76,736.57",
		style=solid];
	25	[fillcolor=mistyrose,
		height=0.94444,
		label="gini = 0.0\nsamples = 2\nvalue = [0, 0, 0, 2, 0]\nclass = 4",
		pos="923,696.5",
		width=1.9444];
	23 -> 25	[label="> 37.0",
		lp="957.5,763.5",
		op=">",
		param=37.0,
		pos="e,929.8,730.74 941.68,788.82 938.55,773.53 934.99,756.11 931.82,740.61",
		style=solid];
	28	[fillcolor=lightyellow,
		height=1.1528,
		label="PAD\ngini = 0.261\nsamples = 53\nvalue = [1, 0, 45, 7, 0]\nclass = 3",
		pos="1402,964.5",
		width=2.0417];
	27 -> 28	[label="<= 48.5",
		lp="1445.5,1031.5",
		op="<=",
		param=48.5,
		pos="e,1413.4,1006.3 1427.6,1056.8 1424,1043.9 1419.9,1029.4 1416.1,1015.9",
		style=solid];
	47	[fillcolor=mistyrose,
		height=1.1528,
		label="PAPi\ngini = 0.56\nsamples = 5\nvalue = [1, 0, 1, 3, 0]\nclass = 4",
		pos="1564,964.5",
		width=1.9444];
	27 -> 47	[label="> 48.5",
		lp="1525.5,1031.5",
		op=">",
		param=48.5,
		pos="e,1525.4,1006.3 1477.5,1056.8 1490.5,1043.1 1505,1027.8 1518.5,1013.6",
		style=solid];
	29	[fillcolor=lightyellow,
		height=1.1528,
		label="MIXED\ngini = 0.215\nsamples = 50\nvalue = [1, 0, 44, 5, 0]\nclass = 3",
		pos="1243,830.5",
		width=2.0417];
	28 -> 29	[label="<= 42.5",
		lp="1351.5,897.5",
		op="<=",
		param=42.5,
		pos="e,1291.8,872.05 1353,922.82 1336.1,908.83 1317.1,893.04 1299.7,878.59",
		style=solid];
	44	[fillcolor=mistyrose,
		height=1.1528,
		label="SVR\ngini = 0.444\nsamples = 3\nvalue = [0, 0, 1, 2, 0]\nclass = 4",
		pos="1405,830.5",
		width=1.9444];
	28 -> 44	[label="> 42.5",
		lp="1423.5,897.5",
		op=">",
		param=42.5,
		pos="e,1404.1,872.27 1402.9,922.82 1403.2,910.02 1403.5,895.73 1403.8,882.32",
		style=solid];
	30	[fillcolor=lightyellow,
		height=1.1528,
		label="HRTRT\ngini = 0.158\nsamples = 47\nvalue = [1, 0, 43, 3, 0]\nclass = 3",
		pos="1085,696.5",
		width=2.0417];
	29 -> 30	[label="<= 71.5",
		lp="1192.5,763.5",
		op="<=",
		param=71.5,
		pos="e,1133.5,738.05 1194.3,788.82 1177.6,774.83 1158.7,759.04 1141.4,744.59",
		style=solid];
	41	[fillcolor=mistyrose,
		height=1.1528,
		label="PCWP\ngini = 0.444\nsamples = 3\nvalue = [0, 0, 1, 2, 0]\nclass = 4",
		pos="1247,696.5",
		width=1.9444];
	29 -> 41	[label="> 71.5",
		lp="1265.5,763.5",
		op=">",
		param=71.5,
		pos="e,1245.8,738.27 1244.2,788.82 1244.6,776.02 1245.1,761.73 1245.5,748.32",
		style=solid];
	31	[fillcolor=lightyellow,
		height=1.1528,
		label="EjF\ngini = 0.122\nsamples = 46\nvalue = [0, 0, 43, 3, 0]\nclass = 3",
		pos="925,562.5",
		width=2.0417];
	30 -> 31	[label="<= 110.5",
		lp="1037.5,629.5",
		op="<=",
		param=110.5,
		pos="e,974.15,604.05 1035.7,654.82 1018.7,640.83 999.6,625.04 982.07,610.59",
		style=solid];
	40	[fillcolor=palegreen,
		height=0.94444,
		label="gini = 0.0\nsamples = 1\nvalue = [1, 0, 0, 0, 0]\nclass = 1",
		pos="1087,562.5",
		width=1.9444];
	30 -> 40	[label="> 110.5",
		lp="1110,629.5",
		op=">",
		param=110.5,
		pos="e,1086.5,596.74 1085.6,654.82 1085.8,639.68 1086.1,622.44 1086.3,607.05",
		style=solid];
	32	[fillcolor=lightyellow,
		height=0.94444,
		label="gini = 0.0\nsamples = 23\nvalue = [0, 0, 23, 0, 0]\nclass = 3",
		pos="890,428.5",
		width=2.0417];
	31 -> 32	[label="<= 19.0",
		lp="932.5,495.5",
		op="<=",
		param=19.0,
		pos="e,898.81,462.74 914.21,520.82 910.16,505.53 905.54,488.11 901.43,472.61",
		style=solid];
	33	[fillcolor=lightyellow,
		height=1.1528,
		label="CO\ngini = 0.227\nsamples = 23\nvalue = [0, 0, 20, 3, 0]\nclass = 3",
		pos="1055,428.5",
		width=2.0417];
	31 -> 33	[label="> 19.0",
		lp="1013.5,495.5",
		op=">",
		param=19.0,
		pos="e,1014.8,470.27 965.07,520.82 978.53,507.14 993.69,491.76 1007.7,477.57",
		style=solid];
	34	[fillcolor=lightyellow,
		height=1.1528,
		label="CO\ngini = 0.397\nsamples = 11\nvalue = [0, 0, 8, 3, 0]\nclass = 3",
		pos="953,294.5",
		width=1.9444];
	33 -> 34	[label="<= 4.015",
		lp="1035.5,361.5",
		op="<=",
		param=4.015,
		pos="e,984.51,336.27 1023.6,386.82 1013.2,373.39 1001.5,358.32 990.75,344.35",
		style=solid];
	39	[fillcolor=lightyellow,
		height=0.94444,
		label="gini = 0.0\nsamples = 12\nvalue = [0, 0, 12, 0, 0]\nclass = 3",
		pos="1115,294.5",
		width=2.0417];
	33 -> 39	[label="> 4.015",
		lp="1110,361.5",
		op=">",
		param=4.015,
		pos="e,1099.9,328.74 1073.5,386.82 1080.5,371.39 1088.5,353.78 1095.6,338.17",
		style=solid];
	35	[fillcolor=lightyellow,
		height=0.94444,
		label="gini = 0.0\nsamples = 5\nvalue = [0, 0, 5, 0, 0]\nclass = 3",
		pos="918,160.5",
		width=1.9444];
	34 -> 35	[label="<= 3.55",
		lp="960.5,227.5",
		op="<=",
		param=3.55,
		pos="e,926.81,194.74 942.21,252.82 938.16,237.53 933.54,220.11 929.43,204.61",
		style=solid];
	36	[fillcolor=lightyellow,
		height=1.1528,
		label="PCWP\ngini = 0.5\nsamples = 6\nvalue = [0, 0, 3, 3, 0]\nclass = 3",
		pos="1076,160.5",
		width=1.9444];
	34 -> 36	[label="> 3.55",
		lp="1038.5,227.5",
		op=">",
		param=3.55,
		pos="e,1038,202.27 990.91,252.82 1003.5,239.27 1017.7,224.04 1030.8,209.96",
		style=solid];
	37	[fillcolor=mistyrose,
		height=0.94444,
		label="gini = 0.0\nsamples = 3\nvalue = [0, 0, 0, 3, 0]\nclass = 4",
		pos="997,34",
		width=1.9444];
	36 -> 37	[label="<= 30.5",
		lp="1062.5,93.5",
		op="<=",
		param=30.5,
		pos="e,1018.2,68.379 1050.1,118.73 1041.6,105.35 1032.2,90.465 1023.6,76.995",
		style=solid];
	38	[fillcolor=lightyellow,
		height=0.94444,
		label="gini = 0.0\nsamples = 3\nvalue = [0, 0, 3, 0, 0]\nclass = 3",
		pos="1155,34",
		width=1.9444];
	36 -> 38	[label="> 30.5",
		lp="1142.5,93.5",
		op=">",
		param=30.5,
		pos="e,1133.8,68.379 1101.9,118.73 1110.4,105.35 1119.8,90.465 1128.4,76.995",
		style=solid];
	42	[fillcolor=lightyellow,
		height=0.94444,
		label="gini = 0.0\nsamples = 1\nvalue = [0, 0, 1, 0, 0]\nclass = 3",
		pos="1246,562.5",
		width=1.9444];
	41 -> 42	[label="<= 29.5",
		lp="1270.5,629.5",
		op="<=",
		param=29.5,
		pos="e,1246.3,596.74 1246.7,654.82 1246.6,639.68 1246.4,622.44 1246.3,607.05",
		style=solid];
	43	[fillcolor=mistyrose,
		height=0.94444,
		label="gini = 0.0\nsamples = 2\nvalue = [0, 0, 0, 2, 0]\nclass = 4",
		pos="1404,562.5",
		width=1.9444];
	41 -> 43	[label="> 29.5",
		lp="1350.5,629.5",
		op=">",
		param=29.5,
		pos="e,1364.7,596.53 1295.4,654.82 1314.9,638.37 1337.4,619.46 1356.9,603.12",
		style=solid];
	45	[fillcolor=lightyellow,
		height=0.94444,
		label="gini = 0.0\nsamples = 1\nvalue = [0, 0, 1, 0, 0]\nclass = 3",
		pos="1405,696.5",
		width=1.9444];
	44 -> 45	[label="<= 3400.643",
		lp="1443.5,763.5",
		op="<=",
		param=3400.643,
		pos="e,1405,730.74 1405,788.82 1405,773.68 1405,756.44 1405,741.05",
		style=solid];
	46	[fillcolor=mistyrose,
		height=0.94444,
		label="gini = 0.0\nsamples = 2\nvalue = [0, 0, 0, 2, 0]\nclass = 4",
		pos="1563,696.5",
		width=1.9444];
	44 -> 46	[label="> 3400.643",
		lp="1536.5,763.5",
		op=">",
		param=3400.643,
		pos="e,1530.2,730.73 1463.3,788.9 1471,783.06 1478.8,776.99 1486,771 1498.4,760.72 1511.2,748.95 1522.8,737.88",
		style=solid];
	48	[fillcolor=mistyrose,
		height=0.94444,
		label="gini = 0.0\nsamples = 3\nvalue = [0, 0, 0, 3, 0]\nclass = 4",
		pos="1563,830.5",
		width=1.9444];
	47 -> 48	[label="<= 2.336",
		lp="1591.5,897.5",
		op="<=",
		param=2.336,
		pos="e,1563.3,864.74 1563.7,922.82 1563.6,907.68 1563.4,890.44 1563.3,875.05",
		style=solid];
	49	[fillcolor=palegreen,
		height=1.1528,
		label="CPP\ngini = 0.5\nsamples = 2\nvalue = [1, 0, 1, 0, 0]\nclass = 1",
		pos="1721,830.5",
		width=1.9444];
	47 -> 49	[label="> 2.336",
		lp="1671,897.5",
		op=">",
		param=2.336,
		pos="e,1672.8,872.05 1612.4,922.82 1629,908.83 1647.8,893.04 1665,878.59",
		style=solid];
	50	[fillcolor=lightyellow,
		height=0.94444,
		label="gini = 0.0\nsamples = 1\nvalue = [0, 0, 1, 0, 0]\nclass = 3",
		pos="1721,696.5",
		width=1.9444];
	49 -> 50	[label="<= 29.0",
		lp="1744.5,763.5",
		op="<=",
		param=29.0,
		pos="e,1721,730.74 1721,788.82 1721,773.68 1721,756.44 1721,741.05",
		style=solid];
	51	[fillcolor=palegreen,
		height=0.94444,
		label="gini = 0.0\nsamples = 1\nvalue = [1, 0, 0, 0, 0]\nclass = 1",
		pos="1879,696.5",
		width=1.9444];
	49 -> 51	[label="> 29.0",
		lp="1824.5,763.5",
		op=">",
		param=29.0,
		pos="e,1839.5,730.53 1769.7,788.82 1789.4,772.37 1812,753.46 1831.6,737.12",
		style=solid];
	53	[fillcolor=mistyrose,
		height=0.94444,
		label="gini = 0.0\nsamples = 10\nvalue = [0, 0, 0, 10, 0]\nclass = 4",
		pos="1617,1098.5",
		width=2.0417];
	52 -> 53	[label="<= 0.529",
		lp="1644.5,1165.5",
		op="<=",
		param=0.529,
		pos="e,1617,1132.7 1617,1190.8 1617,1175.7 1617,1158.4 1617,1143.1",
		style=solid];
	54	[fillcolor=lightyellow,
		height=1.1528,
		label="PAMN\ngini = 0.609\nsamples = 17\nvalue = [4, 0, 9, 4, 0]\nclass = 3",
		pos="1814,1098.5",
		width=1.9444];
	52 -> 54	[label="> 0.529",
		lp="1745,1165.5",
		op=">",
		param=0.529,
		pos="e,1753.3,1140.2 1677.4,1191 1698.8,1176.7 1723,1160.5 1745,1145.7",
		style=dashed];
	55	[fillcolor=lightyellow,
		height=1.1528,
		label="Age\ngini = 0.5\nsamples = 14\nvalue = [4, 0, 9, 1, 0]\nclass = 3",
		pos="1860,964.5",
		width=1.9444];
	54 -> 55	[label="<= 46.0",
		lp="1862.5,1031.5",
		op="<=",
		param=46.0,
		pos="e,1845.8,1006.3 1828.2,1056.8 1832.7,1043.9 1837.7,1029.4 1842.4,1015.9",
		style=solid];
	62	[fillcolor=mistyrose,
		height=0.94444,
		label="gini = 0.0\nsamples = 3\nvalue = [0, 0, 0, 3, 0]\nclass = 4",
		pos="2018,964.5",
		width=1.9444];
	54 -> 62	[label="> 46.0",
		lp="1942.5,1031.5",
		op=">",
		param=46.0,
		pos="e,1966.8,998.62 1876.6,1057 1902.6,1040.2 1932.6,1020.8 1958.3,1004.1",
		style=solid];
	56	[fillcolor=lightyellow,
		height=0.94444,
		label="gini = 0.0\nsamples = 7\nvalue = [0, 0, 7, 0, 0]\nclass = 3",
		pos="1879,830.5",
		width=1.9444];
	55 -> 56	[label="<= 54.0",
		lp="1894.5,897.5",
		op="<=",
		param=54.0,
		pos="e,1874.2,864.74 1865.9,922.82 1868,907.68 1870.5,890.44 1872.7,875.05",
		style=solid];
	57	[fillcolor=palegreen,
		height=1.1528,
		label="PAPi\ngini = 0.571\nsamples = 7\nvalue = [4, 0, 2, 1, 0]\nclass = 1",
		pos="2037,830.5",
		width=1.9444];
	55 -> 57	[label="> 54.0",
		lp="1973.5,897.5",
		op=">",
		param=54.0,
		pos="e,1982.6,872.05 1914.6,922.82 1933.5,908.7 1954.9,892.76 1974.4,878.2",
		style=dashed];
	58	[fillcolor=palegreen,
		height=1.1528,
		label="PPP\ngini = 0.32\nsamples = 5\nvalue = [4, 0, 0, 1, 0]\nclass = 1",
		pos="2037,696.5",
		width=1.9444];
	57 -> 58	[label="<= 2.583",
		lp="2064.5,763.5",
		op="<=",
		param=2.583,
		pos="e,2037,738.27 2037,788.82 2037,776.02 2037,761.73 2037,748.32",
		style=dashed];
	61	[fillcolor=lightyellow,
		height=0.94444,
		label="gini = 0.0\nsamples = 2\nvalue = [0, 0, 2, 0, 0]\nclass = 3",
		pos="2195,696.5",
		width=1.9444];
	57 -> 61	[label="> 2.583",
		lp="2144,763.5",
		op=">",
		param=2.583,
		pos="e,2155.5,730.53 2085.7,788.82 2105.4,772.37 2128,753.46 2147.6,737.12",
		style=solid];
	59	[fillcolor=palegreen,
		height=0.94444,
		label="gini = 0.0\nsamples = 4\nvalue = [4, 0, 0, 0, 0]\nclass = 1",
		pos="1958,562.5",
		width=1.9444];
	58 -> 59	[label="<= 0.6",
		lp="2020,629.5",
		op="<=",
		param=0.6,
		pos="e,1977.9,596.74 2012.7,654.82 2003.3,639.24 1992.7,621.45 1983.3,605.73",
		style=solid];
	60	[fillcolor=mistyrose,
		height=0.94444,
		label="gini = 0.0\nsamples = 1\nvalue = [0, 0, 0, 1, 0]\nclass = 4",
		pos="2116,562.5",
		width=1.9444];
	58 -> 60	[label="> 0.6",
		lp="2094.5,629.5",
		op=">",
		param=0.6,
		pos="e,2096.1,596.74 2061.3,654.82 2070.7,639.24 2081.3,621.45 2090.7,605.73",
		style=solid];
	64	[fillcolor=palegreen,
		height=1.1528,
		label="Age\ngini = 0.544\nsamples = 23\nvalue = [14, 0, 3, 6, 0]\nclass = 1",
		pos="2211,1366.5",
		width=2.0417];
	63 -> 64	[label="<= 76.0",
		lp="2277.5,1433.5",
		op="<=",
		param=76.0,
		pos="e,2236,1408.3 2267,1458.8 2259,1445.6 2249.9,1430.9 2241.5,1417.1",
		style=solid];
	75	[fillcolor=lightyellow,
		height=0.94444,
		label="gini = 0.0\nsamples = 4\nvalue = [0, 0, 4, 0, 0]\nclass = 3",
		pos="2373,1366.5",
		width=1.9444];
	63 -> 75	[label="> 76.0",
		lp="2354.5,1433.5",
		op=">",
		param=76.0,
		pos="e,2352.6,1400.7 2317,1458.8 2326.6,1443.1 2337.6,1425.1 2347.4,1409.3",
		style=solid];
	65	[fillcolor=mistyrose,
		height=1.1528,
		label="HRTRT\ngini = 0.49\nsamples = 7\nvalue = [0, 0, 3, 4, 0]\nclass = 4",
		pos="2130,1232.5",
		width=1.9444];
	64 -> 65	[label="<= 54.5",
		lp="2196.5,1299.5",
		op="<=",
		param=54.5,
		pos="e,2155,1274.3 2186,1324.8 2178,1311.6 2168.9,1296.9 2160.5,1283.1",
		style=dashed];
	68	[fillcolor=palegreen,
		height=1.1528,
		label="SVR\ngini = 0.219\nsamples = 16\nvalue = [14, 0, 0, 2, 0]\nclass = 1",
		pos="2292,1232.5",
		width=2.0417];
	64 -> 68	[label="> 54.5",
		lp="2273.5,1299.5",
		op=">",
		param=54.5,
		pos="e,2267,1274.3 2236,1324.8 2244,1311.6 2253.1,1296.9 2261.5,1283.1",
		style=solid];
	66	[fillcolor=mistyrose,
		height=0.94444,
		label="gini = 0.0\nsamples = 4\nvalue = [0, 0, 0, 4, 0]\nclass = 4",
		pos="1972,1098.5",
		width=1.9444];
	65 -> 66	[label="<= 75.5",
		lp="2079.5,1165.5",
		op="<=",
		param=75.5,
		pos="e,2011.5,1132.5 2081.3,1190.8 2061.6,1174.4 2039,1155.5 2019.4,1139.1",
		style=solid];
	67	[fillcolor=lightyellow,
		height=0.94444,
		label="gini = 0.0\nsamples = 3\nvalue = [0, 0, 3, 0, 0]\nclass = 3",
		pos="2130,1098.5",
		width=1.9444];
	65 -> 67	[label="> 75.5",
		lp="2149.5,1165.5",
		op=">",
		param=75.5,
		pos="e,2130,1132.7 2130,1190.8 2130,1175.7 2130,1158.4 2130,1143.1",
		style=solid];
	69	[fillcolor=palegreen,
		height=1.1528,
		label="MAP\ngini = 0.124\nsamples = 15\nvalue = [14, 0, 0, 1, 0]\nclass = 1",
		pos="2292,1098.5",
		width=2.0417];
	68 -> 69	[label="<= 2897.283",
		lp="2330.5,1165.5",
		op="<=",
		param=2897.283,
		pos="e,2292,1140.3 2292,1190.8 2292,1178 2292,1163.7 2292,1150.3",
		style=solid];
	74	[fillcolor=mistyrose,
		height=0.94444,
		label="gini = 0.0\nsamples = 1\nvalue = [0, 0, 0, 1, 0]\nclass = 4",
		pos="2454,1098.5",
		width=1.9444];
	68 -> 74	[label="> 2897.283",
		lp="2424.5,1165.5",
		op=">",
		param=2897.283,
		pos="e,2419.3,1132.6 2350.1,1190.7 2357.9,1184.9 2365.7,1178.9 2373,1173 2385.9,1162.5 2399.5,1150.6 2411.8,1139.4",
		style=solid];
	70	[fillcolor=palegreen,
		height=1.1528,
		label="PRAPRat\ngini = 0.5\nsamples = 2\nvalue = [1, 0, 0, 1, 0]\nclass = 1",
		pos="2228,964.5",
		width=1.9444];
	69 -> 70	[label="<= 112.833",
		lp="2297,1031.5",
		op="<=",
		param=112.833,
		pos="e,2247.8,1006.3 2272.3,1056.8 2265.9,1043.8 2258.9,1029.2 2252.3,1015.5",
		style=solid];
	73	[fillcolor=palegreen,
		height=0.94444,
		label="gini = 0.0\nsamples = 13\nvalue = [13, 0, 0, 0, 0]\nclass = 1",
		pos="2390,964.5",
		width=2.0417];
	69 -> 73	[label="> 112.833",
		lp="2377.5,1031.5",
		op=">",
		param=112.833,
		pos="e,2365.6,998.85 2322.6,1056.9 2327.1,1050.9 2331.7,1044.8 2336,1039 2343.7,1028.7 2351.9,1017.5 2359.6,1007",
		style=solid];
	71	[fillcolor=palegreen,
		height=0.94444,
		label="gini = 0.0\nsamples = 1\nvalue = [1, 0, 0, 0, 0]\nclass = 1",
		pos="2206,830.5",
		width=1.9444];
	70 -> 71	[label="<= 1.531",
		lp="2245.5,897.5",
		op="<=",
		param=1.531,
		pos="e,2211.5,864.74 2221.2,922.82 2218.7,907.53 2215.8,890.11 2213.2,874.61",
		style=solid];
	72	[fillcolor=mistyrose,
		height=0.94444,
		label="gini = 0.0\nsamples = 1\nvalue = [0, 0, 0, 1, 0]\nclass = 4",
		pos="2364,830.5",
		width=1.9444];
	70 -> 72	[label="> 1.531",
		lp="2324,897.5",
		op=">",
		param=1.531,
		pos="e,2329.7,864.74 2269.9,922.82 2286.6,906.66 2305.7,888.11 2322.3,871.97",
		style=solid];
	77	[fillcolor=lightyellow,
		height=1.1528,
		label="CPP\ngini = 0.429\nsamples = 60\nvalue = [17, 0, 42, 1, 0]\nclass = 3",
		pos="3251,1500.5",
		width=2.1528];
	76 -> 77	[label="<= 3.0",
		lp="3315,1567.5",
		op="<=",
		param=3.0,
		pos="e,3276.6,1542.3 3308.4,1592.8 3300.1,1579.5 3290.7,1564.6 3282,1550.7",
		style=solid];
	104	[fillcolor=palegreen,
		height=1.1528,
		label="MIXED\ngini = 0.408\nsamples = 7\nvalue = [5, 0, 0, 2, 0]\nclass = 1",
		pos="3417,1500.5",
		width=1.9444];
	76 -> 104	[label="> 3.0",
		lp="3393.5,1567.5",
		op=">",
		param=3.0,
		pos="e,3391.4,1542.3 3359.6,1592.8 3367.9,1579.5 3377.3,1564.6 3386,1550.7",
		style=solid];
	78	[fillcolor=lightyellow,
		height=1.1528,
		label="CO\ngini = 0.198\nsamples = 27\nvalue = [3, 0, 24, 0, 0]\nclass = 3",
		pos="3009,1366.5",
		width=2.0417];
	77 -> 78	[label="<= 57.5",
		lp="3161.5,1433.5",
		op="<=",
		param=57.5,
		pos="e,3082.7,1407.7 3176.7,1459 3149.8,1444.3 3119.2,1427.6 3091.6,1412.5",
		style=solid];
	87	[fillcolor=lightyellow,
		height=1.1528,
		label="PAPi\ngini = 0.522\nsamples = 33\nvalue = [14, 0, 18, 1, 0]\nclass = 3",
		pos="3251,1366.5",
		width=2.1528];
	77 -> 87	[label="> 57.5",
		lp="3270.5,1433.5",
		op=">",
		param=57.5,
		pos="e,3251,1408.3 3251,1458.8 3251,1446 3251,1431.7 3251,1418.3",
		style=solid];
	79	[fillcolor=palegreen,
		height=1.1528,
		label="PAD\ngini = 0.444\nsamples = 3\nvalue = [2, 0, 1, 0, 0]\nclass = 1",
		pos="2770,1232.5",
		width=1.9444];
	78 -> 79	[label="<= 2.69",
		lp="2920.5,1299.5",
		op="<=",
		param=2.69,
		pos="e,2840.3,1272.3 2935.7,1325 2908.3,1309.9 2877.1,1292.7 2849.3,1277.3",
		style=solid];
	82	[fillcolor=lightyellow,
		height=1.1528,
		label="CI\ngini = 0.08\nsamples = 24\nvalue = [1, 0, 23, 0, 0]\nclass = 3",
		pos="3009,1232.5",
		width=2.0417];
	78 -> 82	[label="> 2.69",
		lp="3028.5,1299.5",
		op=">",
		param=2.69,
		pos="e,3009,1274.3 3009,1324.8 3009,1312 3009,1297.7 3009,1284.3",
		style=solid];
	80	[fillcolor=palegreen,
		height=0.94444,
		label="gini = 0.0\nsamples = 2\nvalue = [2, 0, 0, 0, 0]\nclass = 1",
		pos="2612,1098.5",
		width=1.9444];
	79 -> 80	[label="<= 23.5",
		lp="2719.5,1165.5",
		op="<=",
		param=23.5,
		pos="e,2651.5,1132.5 2721.3,1190.8 2701.6,1174.4 2679,1155.5 2659.4,1139.1",
		style=solid];
	81	[fillcolor=lightyellow,
		height=0.94444,
		label="gini = 0.0\nsamples = 1\nvalue = [0, 0, 1, 0, 0]\nclass = 3",
		pos="2770,1098.5",
		width=1.9444];
	79 -> 81	[label="> 23.5",
		lp="2789.5,1165.5",
		op=">",
		param=23.5,
		pos="e,2770,1132.7 2770,1190.8 2770,1175.7 2770,1158.4 2770,1143.1",
		style=solid];
	83	[fillcolor=lightyellow,
		height=0.94444,
		label="gini = 0.0\nsamples = 20\nvalue = [0, 0, 20, 0, 0]\nclass = 3",
		pos="2932,1098.5",
		width=2.0417];
	82 -> 83	[label="<= 2.845",
		lp="3000.5,1165.5",
		op="<=",
		param=2.845,
		pos="e,2951.4,1132.7 2985.3,1190.8 2976.2,1175.2 2965.8,1157.4 2956.6,1141.7",
		style=solid];
	84	[fillcolor=lightyellow,
		height=1.1528,
		label="CI\ngini = 0.375\nsamples = 4\nvalue = [1, 0, 3, 0, 0]\nclass = 3",
		pos="3094,1098.5",
		width=1.9444];
	82 -> 84	[label="> 2.845",
		lp="3078,1165.5",
		op=">",
		param=2.845,
		pos="e,3067.7,1140.3 3035.2,1190.8 3043.8,1177.5 3053.4,1162.6 3062.3,1148.7",
		style=dashed];
	85	[fillcolor=palegreen,
		height=0.94444,
		label="gini = 0.0\nsamples = 1\nvalue = [1, 0, 0, 0, 0]\nclass = 1",
		pos="2936,964.5",
		width=1.9444];
	84 -> 85	[label="<= 3.06",
		lp="3043.5,1031.5",
		op="<=",
		param=3.06,
		pos="e,2975.5,998.53 3045.3,1056.8 3025.6,1040.4 3003,1021.5 2983.4,1005.1",
		style=solid];
	86	[fillcolor=lightyellow,
		height=0.94444,
		label="gini = 0.0\nsamples = 3\nvalue = [0, 0, 3, 0, 0]\nclass = 3",
		pos="3094,964.5",
		width=1.9444];
	84 -> 86	[label="> 3.06",
		lp="3113.5,1031.5",
		op=">",
		param=3.06,
		pos="e,3094,998.74 3094,1056.8 3094,1041.7 3094,1024.4 3094,1009.1",
		style=solid];
	88	[fillcolor=lightyellow,
		height=1.1528,
		label="PAPP\ngini = 0.153\nsamples = 12\nvalue = [1, 0, 11, 0, 0]\nclass = 3",
		pos="3252,1232.5",
		width=2.0417];
	87 -> 88	[label="<= 1.479",
		lp="3279.5,1299.5",
		op="<=",
		param=1.479,
		pos="e,3251.7,1274.3 3251.3,1324.8 3251.4,1312 3251.5,1297.7 3251.6,1284.3",
		style=solid];
	95	[fillcolor=palegreen,
		height=1.1528,
		label="PAMN\ngini = 0.503\nsamples = 21\nvalue = [13, 0, 7, 1, 0]\nclass = 1",
		pos="3568,1232.5",
		width=2.0417];
	87 -> 95	[label="> 1.479",
		lp="3437,1299.5",
		op=">",
		param=1.479,
		pos="e,3494.3,1261.6 3328.7,1329.1 3331.8,1327.7 3334.9,1326.3 3338,1325 3386.3,1304.2 3440.9,1282.4 3484.8,1265.3",
		style=dashed];
	89	[fillcolor=lightyellow,
		height=1.1528,
		label="Race\ngini = 0.375\nsamples = 4\nvalue = [1, 0, 3, 0, 0]\nclass = 3",
		pos="3252,1098.5",
		width=1.9444];
	88 -> 89	[label="<= 0.171",
		lp="3279.5,1165.5",
		op="<=",
		param=0.171,
		pos="e,3252,1140.3 3252,1190.8 3252,1178 3252,1163.7 3252,1150.3",
		style=solid];
	94	[fillcolor=lightyellow,
		height=0.94444,
		label="gini = 0.0\nsamples = 8\nvalue = [0, 0, 8, 0, 0]\nclass = 3",
		pos="3410,1098.5",
		width=1.9444];
	88 -> 94	[label="> 0.171",
		lp="3359,1165.5",
		op=">",
		param=0.171,
		pos="e,3370.5,1132.5 3300.7,1190.8 3320.4,1174.4 3343,1155.5 3362.6,1139.1",
		style=solid];
	90	[fillcolor=lightyellow,
		height=0.94444,
		label="gini = 0.0\nsamples = 2\nvalue = [0, 0, 2, 0, 0]\nclass = 3",
		pos="3252,964.5",
		width=1.9444];
	89 -> 90	[label="<= 1.5",
		lp="3272,1031.5",
		op="<=",
		param=1.5,
		pos="e,3252,998.74 3252,1056.8 3252,1041.7 3252,1024.4 3252,1009.1",
		style=solid];
	91	[fillcolor=palegreen,
		height=1.1528,
		label="Age\ngini = 0.5\nsamples = 2\nvalue = [1, 0, 1, 0, 0]\nclass = 1",
		pos="3410,964.5",
		width=1.9444];
	89 -> 91	[label="> 1.5",
		lp="3351.5,1031.5",
		op=">",
		param=1.5,
		pos="e,3361.5,1006 3300.7,1056.8 3317.4,1042.8 3336.3,1027 3353.6,1012.6",
		style=solid];
	92	[fillcolor=lightyellow,
		height=0.94444,
		label="gini = 0.0\nsamples = 1\nvalue = [0, 0, 1, 0, 0]\nclass = 3",
		pos="3253,830.5",
		width=1.9444];
	91 -> 92	[label="<= 49.0",
		lp="3360.5,897.5",
		op="<=",
		param=49.0,
		pos="e,3292.3,864.53 3361.6,922.82 3342.1,906.37 3319.6,887.46 3300.1,871.12",
		style=solid];
	93	[fillcolor=palegreen,
		height=0.94444,
		label="gini = 0.0\nsamples = 1\nvalue = [1, 0, 0, 0, 0]\nclass = 1",
		pos="3411,830.5",
		width=1.9444];
	91 -> 93	[label="> 49.0",
		lp="3430.5,897.5",
		op=">",
		param=49.0,
		pos="e,3410.7,864.74 3410.3,922.82 3410.4,907.68 3410.6,890.44 3410.7,875.05",
		style=solid];
	96	[fillcolor=lightyellow,
		height=0.94444,
		label="gini = 0.0\nsamples = 4\nvalue = [0, 0, 4, 0, 0]\nclass = 3",
		pos="3568,1098.5",
		width=1.9444];
	95 -> 96	[label="<= 23.0",
		lp="3591.5,1165.5",
		op="<=",
		param=23.0,
		pos="e,3568,1132.7 3568,1190.8 3568,1175.7 3568,1158.4 3568,1143.1",
		style=solid];
	97	[fillcolor=palegreen,
		height=1.1528,
		label="HRTRT\ngini = 0.381\nsamples = 17\nvalue = [13, 0, 3, 1, 0]\nclass = 1",
		pos="3730,1098.5",
		width=2.0417];
	95 -> 97	[label="> 23.0",
		lp="3673.5,1165.5",
		op=">",
		param=23.0,
		pos="e,3680.2,1140 3617.9,1190.8 3635.1,1176.8 3654.5,1161 3672.2,1146.6",
		style=dashed];
	98	[fillcolor=lightyellow,
		height=1.1528,
		label="MPAP\ngini = 0.375\nsamples = 4\nvalue = [1, 0, 3, 0, 0]\nclass = 3",
		pos="3729,964.5",
		width=1.9444];
	97 -> 98	[label="<= 80.5",
		lp="3753.5,1031.5",
		op="<=",
		param=80.5,
		pos="e,3729.3,1006.3 3729.7,1056.8 3729.6,1044 3729.5,1029.7 3729.4,1016.3",
		style=dashed];
	101	[fillcolor=palegreen,
		height=1.1528,
		label="PAPP\ngini = 0.142\nsamples = 13\nvalue = [12, 0, 0, 1, 0]\nclass = 1",
		pos="3891,964.5",
		width=2.0417];
	97 -> 101	[label="> 80.5",
		lp="3835.5,1031.5",
		op=">",
		param=80.5,
		pos="e,3841.5,1006 3779.6,1056.8 3796.7,1042.8 3815.9,1027 3833.6,1012.6",
		style=solid];
	99	[fillcolor=palegreen,
		height=0.94444,
		label="gini = 0.0\nsamples = 1\nvalue = [1, 0, 0, 0, 0]\nclass = 1",
		pos="3573,830.5",
		width=1.9444];
	98 -> 99	[label="<= 65.5",
		lp="3679.5,897.5",
		op="<=",
		param=65.5,
		pos="e,3612,864.53 3680.9,922.82 3661.5,906.37 3639.1,887.46 3619.8,871.12",
		style=solid];
	100	[fillcolor=lightyellow,
		height=0.94444,
		label="gini = 0.0\nsamples = 3\nvalue = [0, 0, 3, 0, 0]\nclass = 3",
		pos="3731,830.5",
		width=1.9444];
	98 -> 100	[label="> 65.5",
		lp="3750.5,897.5",
		op=">",
		param=65.5,
		pos="e,3730.5,864.74 3729.6,922.82 3729.8,907.68 3730.1,890.44 3730.3,875.05",
		style=solid];
	102	[fillcolor=mistyrose,
		height=0.94444,
		label="gini = 0.0\nsamples = 1\nvalue = [0, 0, 0, 1, 0]\nclass = 4",
		pos="3891,830.5",
		width=1.9444];
	101 -> 102	[label="<= 0.412",
		lp="3918.5,897.5",
		op="<=",
		param=0.412,
		pos="e,3891,864.74 3891,922.82 3891,907.68 3891,890.44 3891,875.05",
		style=solid];
	103	[fillcolor=palegreen,
		height=0.94444,
		label="gini = 0.0\nsamples = 12\nvalue = [12, 0, 0, 0, 0]\nclass = 1",
		pos="4053,830.5",
		width=2.0417];
	101 -> 103	[label="> 0.412",
		lp="4000,897.5",
		op=">",
		param=0.412,
		pos="e,4012.5,864.53 3940.9,922.82 3961.2,906.3 3984.5,887.29 4004.6,870.9",
		style=solid];
	105	[fillcolor=palegreen,
		height=0.94444,
		label="gini = 0.0\nsamples = 5\nvalue = [5, 0, 0, 0, 0]\nclass = 1",
		pos="3417,1366.5",
		width=1.9444];
	104 -> 105	[label="<= 16.5",
		lp="3440.5,1433.5",
		op="<=",
		param=16.5,
		pos="e,3417,1400.7 3417,1458.8 3417,1443.7 3417,1426.4 3417,1411.1",
		style=solid];
	106	[fillcolor=mistyrose,
		height=0.94444,
		label="gini = 0.0\nsamples = 2\nvalue = [0, 0, 0, 2, 0]\nclass = 4",
		pos="3575,1366.5",
		width=1.9444];
	104 -> 106	[label="> 16.5",
		lp="3520.5,1433.5",
		op=">",
		param=16.5,
		pos="e,3535.5,1400.5 3465.7,1458.8 3485.4,1442.4 3508,1423.5 3527.6,1407.1",
		style=solid];
	108	[fillcolor=lightyellow,
		height=1.1528,
		label="PPP\ngini = 0.473\nsamples = 13\nvalue = [5, 0, 8, 0, 0]\nclass = 3",
		pos="3887,1634.5",
		width=1.9444];
	107 -> 108	[label="<= 0.675",
		lp="3954.5,1701.5",
		op="<=",
		param=0.675,
		pos="e,3910.2,1676.3 3938.9,1726.8 3931.4,1713.6 3923,1698.9 3915.2,1685.1",
		style=solid];
	115	[fillcolor=palegreen,
		height=1.1528,
		label="PAMN\ngini = 0.172\nsamples = 21\nvalue = [19, 0, 2, 0, 0]\nclass = 1",
		pos="4049,1634.5",
		width=2.0417];
	107 -> 115	[label="> 0.675",
		lp="4032,1701.5",
		op=">",
		param=0.675,
		pos="e,4022.1,1676.3 3988.8,1726.8 3997.6,1713.5 4007.4,1698.6 4016.5,1684.7",
		style=dashed];
	109	[fillcolor=palegreen,
		height=0.94444,
		label="gini = 0.0\nsamples = 3\nvalue = [3, 0, 0, 0, 0]\nclass = 1",
		pos="3729,1500.5",
		width=1.9444];
	108 -> 109	[label="<= 0.408",
		lp="3840.5,1567.5",
		op="<=",
		param=0.408,
		pos="e,3768.5,1534.5 3838.3,1592.8 3818.6,1576.4 3796,1557.5 3776.4,1541.1",
		style=solid];
	110	[fillcolor=lightyellow,
		height=1.1528,
		label="PAD\ngini = 0.32\nsamples = 10\nvalue = [2, 0, 8, 0, 0]\nclass = 3",
		pos="3887,1500.5",
		width=1.9444];
	108 -> 110	[label="> 0.408",
		lp="3910,1567.5",
		op=">",
		param=0.408,
		pos="e,3887,1542.3 3887,1592.8 3887,1580 3887,1565.7 3887,1552.3",
		style=dashed];
	111	[fillcolor=palegreen,
		height=1.1528,
		label="SAPi\ngini = 0.444\nsamples = 3\nvalue = [2, 0, 1, 0, 0]\nclass = 1",
		pos="3733,1366.5",
		width=1.9444];
	110 -> 111	[label="<= 11.0",
		lp="3838.5,1433.5",
		op="<=",
		param=11.0,
		pos="e,3780.3,1408 3839.5,1458.8 3823.2,1444.8 3804.8,1429 3787.9,1414.6",
		style=solid];
	114	[fillcolor=lightyellow,
		height=0.94444,
		label="gini = 0.0\nsamples = 7\nvalue = [0, 0, 7, 0, 0]\nclass = 3",
		pos="3891,1366.5",
		width=1.9444];
	110 -> 114	[label="> 11.0",
		lp="3909.5,1433.5",
		op=">",
		param=11.0,
		pos="e,3890,1400.7 3888.2,1458.8 3888.7,1443.7 3889.2,1426.4 3889.7,1411.1",
		style=solid];
	112	[fillcolor=palegreen,
		height=0.94444,
		label="gini = 0.0\nsamples = 2\nvalue = [2, 0, 0, 0, 0]\nclass = 1",
		pos="3732,1232.5",
		width=1.9444];
	111 -> 112	[label="<= 9.438",
		lp="3760.5,1299.5",
		op="<=",
		param=9.438,
		pos="e,3732.3,1266.7 3732.7,1324.8 3732.6,1309.7 3732.4,1292.4 3732.3,1277.1",
		style=solid];
	113	[fillcolor=lightyellow,
		height=0.94444,
		label="gini = 0.0\nsamples = 1\nvalue = [0, 0, 1, 0, 0]\nclass = 3",
		pos="3890,1232.5",
		width=1.9444];
	111 -> 113	[label="> 9.438",
		lp="3840,1299.5",
		op=">",
		param=9.438,
		pos="e,3850.7,1266.5 3781.4,1324.8 3800.9,1308.4 3823.4,1289.5 3842.9,1273.1",
		style=solid];
	116	[fillcolor=palegreen,
		height=1.1528,
		label="MPAP\ngini = 0.095\nsamples = 20\nvalue = [19, 0, 1, 0, 0]\nclass = 1",
		pos="4049,1500.5",
		width=2.0417];
	115 -> 116	[label="<= 39.5",
		lp="4072.5,1567.5",
		op="<=",
		param=39.5,
		pos="e,4049,1542.3 4049,1592.8 4049,1580 4049,1565.7 4049,1552.3",
		style=solid];
	121	[fillcolor=lightyellow,
		height=0.94444,
		label="gini = 0.0\nsamples = 1\nvalue = [0, 0, 1, 0, 0]\nclass = 3",
		pos="4211,1500.5",
		width=1.9444];
	115 -> 121	[label="> 39.5",
		lp="4154.5,1567.5",
		op=">",
		param=39.5,
		pos="e,4170.5,1534.5 4098.9,1592.8 4119.2,1576.3 4142.5,1557.3 4162.6,1540.9",
		style=solid];
	117	[fillcolor=palegreen,
		height=1.1528,
		label="PAMN\ngini = 0.444\nsamples = 3\nvalue = [2, 0, 1, 0, 0]\nclass = 1",
		pos="4049,1366.5",
		width=1.9444];
	116 -> 117	[label="<= 18.167",
		lp="4080,1433.5",
		op="<=",
		param=18.167,
		pos="e,4049,1408.3 4049,1458.8 4049,1446 4049,1431.7 4049,1418.3",
		style=solid];
	120	[fillcolor=palegreen,
		height=0.94444,
		label="gini = 0.0\nsamples = 17\nvalue = [17, 0, 0, 0, 0]\nclass = 1",
		pos="4211,1366.5",
		width=2.0417];
	116 -> 120	[label="> 18.167",
		lp="4162,1433.5",
		op=">",
		param=18.167,
		pos="e,4170.5,1400.5 4098.9,1458.8 4119.2,1442.3 4142.5,1423.3 4162.6,1406.9",
		style=solid];
	118	[fillcolor=lightyellow,
		height=0.94444,
		label="gini = 0.0\nsamples = 1\nvalue = [0, 0, 1, 0, 0]\nclass = 3",
		pos="4049,1232.5",
		width=1.9444];
	117 -> 118	[label="<= 20.5",
		lp="4072.5,1299.5",
		op="<=",
		param=20.5,
		pos="e,4049,1266.7 4049,1324.8 4049,1309.7 4049,1292.4 4049,1277.1",
		style=solid];
	119	[fillcolor=palegreen,
		height=0.94444,
		label="gini = 0.0\nsamples = 2\nvalue = [2, 0, 0, 0, 0]\nclass = 1",
		pos="4207,1232.5",
		width=1.9444];
	117 -> 119	[label="> 20.5",
		lp="4152.5,1299.5",
		op=">",
		param=20.5,
		pos="e,4167.5,1266.5 4097.7,1324.8 4117.4,1308.4 4140,1289.5 4159.6,1273.1",
		style=solid];
	123	[fillcolor=honeydew,
		height=1.1528,
		label="EjF\ngini = 0.062\nsamples = 62\nvalue = [0, 60, 0, 0, 2]\nclass = 2",
		pos="4277,1768.5",
		width=2.0417];
	122 -> 123	[label="<= 61.0",
		lp="4300.5,1835.5",
		op="<=",
		param=61.0,
		pos="e,4277,1810.3 4277,1860.8 4277,1848 4277,1833.7 4277,1820.3",
		style=solid];
	126	[fillcolor=lightcoral,
		height=1.1528,
		label="PAMN\ngini = 0.497\nsamples = 26\nvalue = [0, 12, 0, 0, 14]\nclass = 5",
		pos="4538,1768.5",
		width=2.1528];
	122 -> 126	[label="> 61.0",
		lp="4435.5,1835.5",
		op=">",
		param=61.0,
		pos="e,4460.2,1808.8 4354.6,1862.3 4385,1846.9 4419.9,1829.2 4451.1,1813.4",
		style=solid];
	124	[fillcolor=honeydew,
		height=0.94444,
		label="gini = 0.0\nsamples = 60\nvalue = [0, 60, 0, 0, 0]\nclass = 2",
		pos="4214,1634.5",
		width=2.0417];
	123 -> 124	[label="<= 34.0",
		lp="4271.5,1701.5",
		op="<=",
		param=34.0,
		pos="e,4229.9,1668.7 4257.6,1726.8 4250.2,1711.4 4241.8,1693.8 4234.4,1678.2",
		style=solid];
	125	[fillcolor=lightcoral,
		height=0.94444,
		label="gini = 0.0\nsamples = 2\nvalue = [0, 0, 0, 0, 2]\nclass = 5",
		pos="4376,1634.5",
		width=1.9444];
	123 -> 125	[label="> 34.0",
		lp="4349.5,1701.5",
		op=">",
		param=34.0,
		pos="e,4351.1,1668.7 4307.5,1726.8 4319.4,1710.9 4333,1692.8 4345,1676.8",
		style=solid];
	127	[fillcolor=honeydew,
		height=1.1528,
		label="CI\ngini = 0.337\nsamples = 14\nvalue = [0, 11, 0, 0, 3]\nclass = 2",
		pos="4538,1634.5",
		width=2.0417];
	126 -> 127	[label="<= 27.0",
		lp="4561.5,1701.5",
		op="<=",
		param=27.0,
		pos="e,4538,1676.3 4538,1726.8 4538,1714 4538,1699.7 4538,1686.3",
		style=solid];
	134	[fillcolor=lightcoral,
		height=1.1528,
		label="BPSYS\ngini = 0.153\nsamples = 12\nvalue = [0, 1, 0, 0, 11]\nclass = 5",
		pos="4703,1634.5",
		width=2.0417];
	126 -> 134	[label="> 27.0",
		lp="4645.5,1701.5",
		op=">",
		param=27.0,
		pos="e,4652.3,1676 4588.9,1726.8 4606.3,1712.8 4626.1,1697 4644.1,1682.6",
		style=solid];
	128	[fillcolor=honeydew,
		height=1.1528,
		label="PPP\ngini = 0.5\nsamples = 6\nvalue = [0, 3, 0, 0, 3]\nclass = 2",
		pos="4381,1500.5",
		width=1.9444];
	127 -> 128	[label="<= 1.9",
		lp="4485,1567.5",
		op="<=",
		param=1.9,
		pos="e,4429.2,1542 4489.6,1592.8 4473,1578.8 4454.2,1563 4437,1548.6",
		style=solid];
	133	[fillcolor=honeydew,
		height=0.94444,
		label="gini = 0.0\nsamples = 8\nvalue = [0, 8, 0, 0, 0]\nclass = 2",
		pos="4539,1500.5",
		width=1.9444];
	127 -> 133	[label="> 1.9",
		lp="4554.5,1567.5",
		op=">",
		param=1.9,
		pos="e,4538.7,1534.7 4538.3,1592.8 4538.4,1577.7 4538.6,1560.4 4538.7,1545.1",
		style=solid];
	129	[fillcolor=lightcoral,
		height=1.1528,
		label="EjF\ngini = 0.375\nsamples = 4\nvalue = [0, 1, 0, 0, 3]\nclass = 5",
		pos="4375,1366.5",
		width=1.9444];
	128 -> 129	[label="<= 0.42",
		lp="4402.5,1433.5",
		op="<=",
		param=0.42,
		pos="e,4376.9,1408.3 4379.2,1458.8 4378.6,1446 4377.9,1431.7 4377.3,1418.3",
		style=solid];
	132	[fillcolor=honeydew,
		height=0.94444,
		label="gini = 0.0\nsamples = 2\nvalue = [0, 2, 0, 0, 0]\nclass = 2",
		pos="4533,1366.5",
		width=1.9444];
	128 -> 132	[label="> 0.42",
		lp="4481.5,1433.5",
		op=">",
		param=0.42,
		pos="e,4494.7,1400.7 4427.8,1458.8 4446.6,1442.5 4468.2,1423.8 4486.9,1407.5",
		style=solid];
	130	[fillcolor=lightcoral,
		height=0.94444,
		label="gini = 0.0\nsamples = 3\nvalue = [0, 0, 0, 0, 3]\nclass = 5",
		pos="4370,1232.5",
		width=1.9444];
	129 -> 130	[label="<= 22.5",
		lp="4396.5,1299.5",
		op="<=",
		param=22.5,
		pos="e,4371.3,1266.7 4373.5,1324.8 4372.9,1309.7 4372.2,1292.4 4371.6,1277.1",
		style=solid];
	131	[fillcolor=honeydew,
		height=0.94444,
		label="gini = 0.0\nsamples = 1\nvalue = [0, 1, 0, 0, 0]\nclass = 2",
		pos="4528,1232.5",
		width=1.9444];
	129 -> 131	[label="> 22.5",
		lp="4476.5,1299.5",
		op=">",
		param=22.5,
		pos="e,4489.5,1266.7 4422.2,1324.8 4441.1,1308.4 4463,1289.6 4481.8,1273.3",
		style=solid];
	135	[fillcolor=honeydew,
		height=1.1528,
		label="SVR\ngini = 0.5\nsamples = 2\nvalue = [0, 1, 0, 0, 1]\nclass = 2",
		pos="4699,1500.5",
		width=1.9444];
	134 -> 135	[label="<= 101.5",
		lp="4729.5,1567.5",
		op="<=",
		param=101.5,
		pos="e,4700.2,1542.3 4701.8,1592.8 4701.4,1580 4700.9,1565.7 4700.5,1552.3",
		style=solid];
	138	[fillcolor=lightcoral,
		height=0.94444,
		label="gini = 0.0\nsamples = 10\nvalue = [0, 0, 0, 0, 10]\nclass = 5",
		pos="4861,1500.5",
		width=2.0417];
	134 -> 138	[label="> 101.5",
		lp="4810,1567.5",
		op=">",
		param=101.5,
		pos="e,4821.5,1534.5 4751.7,1592.8 4771.4,1576.4 4794,1557.5 4813.6,1541.1",
		style=solid];
	136	[fillcolor=lightcoral,
		height=0.94444,
		label="gini = 0.0\nsamples = 1\nvalue = [0, 0, 0, 0, 1]\nclass = 5",
		pos="4695,1366.5",
		width=1.9444];
	135 -> 136	[label="<= 3481.119",
		lp="4736.5,1433.5",
		op="<=",
		param=3481.119,
		pos="e,4696,1400.7 4697.8,1458.8 4697.3,1443.7 4696.8,1426.4 4696.3,1411.1",
		style=solid];
	137	[fillcolor=honeydew,
		height=0.94444,
		label="gini = 0.0\nsamples = 1\nvalue = [0, 1, 0, 0, 0]\nclass = 2",
		pos="4853,1366.5",
		width=1.9444];
	135 -> 137	[label="> 3481.119",
		lp="4828.5,1433.5",
		op=">",
		param=3481.119,
		pos="e,4821.6,1400.8 4756.6,1459 4764.3,1453.1 4771.9,1447 4779,1441 4791,1430.8 4803.4,1419 4814.5,1407.9",
		style=solid];
}
