strict digraph Tree {
	graph [bb="0,0,3192.5,1542"];
	node [color=black,
		fontname=helvetica,
		label="\N",
		shape=box,
		style="filled, rounded"
	];
	edge [fontname=helvetica];
	0	[fillcolor=honeydew,
		height=1.1528,
		label="PCWP\ngini = 0.739\nsamples = 418\nvalue = [48, 142, 34, 137, 57]\nclass = 2",
		pos="876.5,1500.5",
		width=2.6667];
	1	[fillcolor=honeydew,
		height=1.1528,
		label="HRTRT\ngini = 0.587\nsamples = 205\nvalue = [32, 122, 34, 17, 0]\nclass = 2",
		pos="639.5,1366.5",
		width=2.4583];
	0 -> 1	[label="<= 18.5",
		labelangle=45,
		labeldistance=2.5,
		lp="789,1433.5",
		op="<=",
		param=18.5,
		pos="e,712.49,1408.2 803.78,1459 777.74,1444.5 748.22,1428.1 721.45,1413.1",
		style=solid];
	34	[fillcolor=mistyrose,
		height=1.1528,
		label="PCWPMod\ngini = 0.597\nsamples = 213\nvalue = [16, 20, 0, 120, 57]\nclass = 4",
		pos="1339.5,1366.5",
		width=2.4583];
	0 -> 34	[label="> 18.5",
		labelangle=-45,
		labeldistance=2.5,
		lp="1142,1433.5",
		op=">",
		param=18.5,
		pos="e,1250.9,1392.8 972.72,1472.1 1051.2,1449.7 1161.7,1418.2 1240.9,1395.6",
		style=dashed];
	2	[fillcolor=lightyellow,
		height=1.1528,
		label="MPAP\ngini = 0.056\nsamples = 35\nvalue = [1, 0, 34, 0, 0]\nclass = 3",
		pos="394.5,1232.5",
		width=2.0417];
	1 -> 2	[label="<= 25.5",
		lp="548,1299.5",
		op="<=",
		param=25.5,
		pos="e,468.27,1273.2 564.33,1325 536.78,1310.2 505.47,1293.3 477.3,1278.1",
		style=solid];
	5	[fillcolor=honeydew,
		height=1.1528,
		label="CPI\ngini = 0.442\nsamples = 170\nvalue = [31, 122, 0, 17, 0]\nclass = 2",
		pos="639.5,1232.5",
		width=2.3611];
	1 -> 5	[label="> 25.5",
		lp="659,1299.5",
		op=">",
		param=25.5,
		pos="e,639.5,1274.3 639.5,1324.8 639.5,1312 639.5,1297.7 639.5,1284.3",
		style=dashed];
	3	[fillcolor=lightyellow,
		height=0.94444,
		label="gini = 0.0\nsamples = 34\nvalue = [0, 0, 34, 0, 0]\nclass = 3",
		pos="232.5,1098.5",
		width=2.0417];
	2 -> 3	[label="<= 35.167",
		lp="349.5,1165.5",
		op="<=",
		param=35.167,
		pos="e,273.04,1132.5 344.57,1190.8 324.3,1174.3 300.97,1155.3 280.86,1138.9",
		style=solid];
	4	[fillcolor=palegreen,
		height=0.94444,
		label="gini = 0.0\nsamples = 1\nvalue = [1, 0, 0, 0, 0]\nclass = 1",
		pos="394.5,1098.5",
		width=1.9444];
	2 -> 4	[label="<= 35.167",
		lp="425.5,1165.5",
		op="<=",
		param=35.167,
		pos="e,394.5,1132.7 394.5,1190.8 394.5,1175.7 394.5,1158.4 394.5,1143.1",
		style=solid];
	6	[fillcolor=palegreen,
		height=1.1528,
		label="PAD\ngini = 0.443\nsamples = 32\nvalue = [23, 5, 0, 4, 0]\nclass = 1",
		pos="556.5,1098.5",
		width=2.0417];
	5 -> 6	[label="<= 0.497",
		lp="628,1165.5",
		op="<=",
		param=0.497,
		pos="e,582.14,1140.3 613.92,1190.8 605.56,1177.5 596.18,1162.6 587.46,1148.7",
		style=solid];
	15	[fillcolor=honeydew,
		height=1.1528,
		label="PAD\ngini = 0.269\nsamples = 138\nvalue = [8, 117, 0, 13, 0]\nclass = 2",
		pos="729.5,1098.5",
		width=2.25];
	5 -> 15	[label="> 0.497",
		lp="710.5,1165.5",
		op=">",
		param=0.497,
		pos="e,701.7,1140.3 667.24,1190.8 676.3,1177.5 686.47,1162.6 695.92,1148.7",
		style=dashed];
	7	[fillcolor=palegreen,
		height=1.1528,
		label="EjF\ngini = 0.293\nsamples = 28\nvalue = [23, 5, 0, 0, 0]\nclass = 1",
		pos="394.5,964.5",
		width=2.0417];
	6 -> 7	[label="<= 29.5",
		lp="504,1031.5",
		op="<=",
		param=29.5,
		pos="e,444.26,1006 506.57,1056.8 489.4,1042.8 470.03,1027 452.29,1012.6",
		style=solid];
	14	[fillcolor=mistyrose,
		height=0.94444,
		label="gini = 0.0\nsamples = 4\nvalue = [0, 0, 0, 4, 0]\nclass = 4",
		pos="556.5,964.5",
		width=1.9444];
	6 -> 14	[label="<= 29.5",
		lp="580,1031.5",
		op="<=",
		param=29.5,
		pos="e,556.5,998.74 556.5,1056.8 556.5,1041.7 556.5,1024.4 556.5,1009.1",
		style=solid];
	8	[fillcolor=palegreen,
		height=1.1528,
		label="MAP\ngini = 0.147\nsamples = 25\nvalue = [23, 2, 0, 0, 0]\nclass = 1",
		pos="233.5,830.5",
		width=2.0417];
	7 -> 8	[label="<= 29.5",
		lp="343,897.5",
		op="<=",
		param=29.5,
		pos="e,282.96,872.05 344.88,922.82 327.81,908.83 308.57,893.04 290.93,878.59",
		style=solid];
	13	[fillcolor=honeydew,
		height=0.94444,
		label="gini = 0.0\nsamples = 3\nvalue = [0, 3, 0, 0, 0]\nclass = 2",
		pos="395.5,830.5",
		width=1.9444];
	7 -> 13	[label="<= 29.5",
		lp="419,897.5",
		op="<=",
		param=29.5,
		pos="e,395.25,864.74 394.81,922.82 394.92,907.68 395.05,890.44 395.17,875.05",
		style=solid];
	9	[fillcolor=palegreen,
		height=0.94444,
		label="gini = 0.0\nsamples = 22\nvalue = [22, 0, 0, 0, 0]\nclass = 1",
		pos="73.5,696.5",
		width=2.0417];
	8 -> 9	[label="<= 148.5",
		lp="186,763.5",
		op="<=",
		param=148.5,
		pos="e,113.54,730.53 184.19,788.82 164.17,772.3 141.12,753.29 121.26,736.9",
		style=solid];
	10	[fillcolor=honeydew,
		height=1.1528,
		label="PAD\ngini = 0.444\nsamples = 3\nvalue = [1, 2, 0, 0, 0]\nclass = 2",
		pos="235.5,696.5",
		width=1.9444];
	8 -> 10	[label="> 148.5",
		lp="258.5,763.5",
		op=">",
		param=148.5,
		pos="e,234.88,738.27 234.12,788.82 234.31,776.02 234.53,761.73 234.73,748.32",
		style=dashed];
	11	[fillcolor=palegreen,
		height=0.94444,
		label="gini = 0.0\nsamples = 1\nvalue = [1, 0, 0, 0, 0]\nclass = 1",
		pos="77.5,562.5",
		width=1.9444];
	10 -> 11	[label="<= 18.0",
		lp="185,629.5",
		op="<=",
		param=18.0,
		pos="e,117.03,596.53 186.81,654.82 167.12,638.37 144.48,619.46 124.93,603.12",
		style=solid];
	12	[fillcolor=honeydew,
		height=0.94444,
		label="gini = 0.0\nsamples = 2\nvalue = [0, 2, 0, 0, 0]\nclass = 2",
		pos="235.5,562.5",
		width=1.9444];
	10 -> 12	[label="<= 18.0",
		lp="259,629.5",
		op="<=",
		param=18.0,
		pos="e,235.5,596.74 235.5,654.82 235.5,639.68 235.5,622.44 235.5,607.05",
		style=solid];
	16	[fillcolor=honeydew,
		height=1.1528,
		label="PAPP\ngini = 0.219\nsamples = 133\nvalue = [8, 117, 0, 8, 0]\nclass = 2",
		pos="722.5,964.5",
		width=2.1528];
	15 -> 16	[label="<= 31.5",
		lp="750,1031.5",
		op="<=",
		param=31.5,
		pos="e,724.66,1006.3 727.34,1056.8 726.66,1044 725.91,1029.7 725.19,1016.3",
		style=solid];
	33	[fillcolor=mistyrose,
		height=0.94444,
		label="gini = 0.0\nsamples = 5\nvalue = [0, 0, 0, 5, 0]\nclass = 4",
		pos="888.5,964.5",
		width=1.9444];
	15 -> 33	[label="<= 31.5",
		lp="838,1031.5",
		op="<=",
		param=31.5,
		pos="e,848.71,998.53 778.5,1056.8 798.31,1040.4 821.1,1021.5 840.77,1005.1",
		style=solid];
	17	[fillcolor=palegreen,
		height=0.94444,
		label="gini = 0.0\nsamples = 4\nvalue = [4, 0, 0, 0, 0]\nclass = 1",
		pos="556.5,830.5",
		width=1.9444];
	16 -> 17	[label="<= 0.155",
		lp="672,897.5",
		op="<=",
		param=0.155,
		pos="e,598.04,864.53 671.34,922.82 650.57,906.3 626.66,887.29 606.05,870.9",
		style=solid];
	18	[fillcolor=honeydew,
		height=1.1528,
		label="PCWPMN\ngini = 0.173\nsamples = 129\nvalue = [4, 117, 0, 8, 0]\nclass = 2",
		pos="722.5,830.5",
		width=2.1528];
	16 -> 18	[label="> 0.155",
		lp="745.5,897.5",
		op=">",
		param=0.155,
		pos="e,722.5,872.27 722.5,922.82 722.5,910.02 722.5,895.73 722.5,882.32",
		style=dashed];
	19	[fillcolor=honeydew,
		height=1.1528,
		label="CPI\ngini = 0.04\nsamples = 97\nvalue = [2, 95, 0, 0, 0]\nclass = 2",
		pos="557.5,696.5",
		width=2.0417];
	18 -> 19	[label="<= 14.5",
		lp="669,763.5",
		op="<=",
		param=14.5,
		pos="e,608.18,738.05 671.65,788.82 654.16,774.83 634.43,759.04 616.36,744.59",
		style=solid];
	24	[fillcolor=honeydew,
		height=1.1528,
		label="PAS\ngini = 0.461\nsamples = 32\nvalue = [2, 22, 0, 8, 0]\nclass = 2",
		pos="722.5,696.5",
		width=2.0417];
	18 -> 24	[label="> 14.5",
		lp="742,763.5",
		op=">",
		param=14.5,
		pos="e,722.5,738.27 722.5,788.82 722.5,776.02 722.5,761.73 722.5,748.32",
		style=dashed];
	20	[fillcolor=honeydew,
		height=1.1528,
		label="SVR\ngini = 0.444\nsamples = 6\nvalue = [2, 4, 0, 0, 0]\nclass = 2",
		pos="395.5,562.5",
		width=1.9444];
	19 -> 20	[label="<= 0.531",
		lp="509,629.5",
		op="<=",
		param=0.531,
		pos="e,445.26,604.05 507.57,654.82 490.4,640.83 471.03,625.04 453.29,610.59",
		style=solid];
	23	[fillcolor=honeydew,
		height=0.94444,
		label="gini = 0.0\nsamples = 91\nvalue = [0, 91, 0, 0, 0]\nclass = 2",
		pos="557.5,562.5",
		width=2.0417];
	19 -> 23	[label="<= 0.531",
		lp="585,629.5",
		op="<=",
		param=0.531,
		pos="e,557.5,596.74 557.5,654.82 557.5,639.68 557.5,622.44 557.5,607.05",
		style=solid];
	21	[fillcolor=palegreen,
		height=0.94444,
		label="gini = 0.0\nsamples = 2\nvalue = [2, 0, 0, 0, 0]\nclass = 1",
		pos="240.5,428.5",
		width=1.9444];
	20 -> 21	[label="<= 2750.461",
		lp="355,495.5",
		op="<=",
		param=2750.461,
		pos="e,272.91,462.67 338.69,520.84 331.11,515.01 323.53,508.96 316.5,503 304.32,492.68 291.65,480.89 280.22,469.82",
		style=solid];
	22	[fillcolor=honeydew,
		height=0.94444,
		label="gini = 0.0\nsamples = 4\nvalue = [0, 4, 0, 0, 0]\nclass = 2",
		pos="398.5,428.5",
		width=1.9444];
	20 -> 22	[label="<= 2750.461",
		lp="436,495.5",
		op="<=",
		param=2750.461,
		pos="e,397.74,462.74 396.42,520.82 396.77,505.68 397.16,488.44 397.51,473.05",
		style=solid];
	25	[fillcolor=honeydew,
		height=1.1528,
		label="CPI\ngini = 0.234\nsamples = 23\nvalue = [2, 20, 0, 1, 0]\nclass = 2",
		pos="722.5,562.5",
		width=2.0417];
	24 -> 25	[label="<= 48.5",
		lp="746,629.5",
		op="<=",
		param=48.5,
		pos="e,722.5,604.27 722.5,654.82 722.5,642.02 722.5,627.73 722.5,614.32",
		style=solid];
	30	[fillcolor=mistyrose,
		height=1.1528,
		label="SVR\ngini = 0.346\nsamples = 9\nvalue = [0, 2, 0, 7, 0]\nclass = 4",
		pos="884.5,562.5",
		width=1.9444];
	24 -> 30	[label="> 48.5",
		lp="828,629.5",
		op=">",
		param=48.5,
		pos="e,834.74,604.05 772.43,654.82 789.6,640.83 808.97,625.04 826.71,610.59",
		style=dashed];
	26	[fillcolor=palegreen,
		height=0.94444,
		label="gini = 0.0\nsamples = 2\nvalue = [2, 0, 0, 0, 0]\nclass = 1",
		pos="560.5,428.5",
		width=1.9444];
	25 -> 26	[label="<= 0.564",
		lp="674,495.5",
		op="<=",
		param=0.564,
		pos="e,601.04,462.53 672.57,520.82 652.3,504.3 628.97,485.29 608.86,468.9",
		style=solid];
	27	[fillcolor=honeydew,
		height=1.1528,
		label="RATHemo\ngini = 0.091\nsamples = 21\nvalue = [0, 20, 0, 1, 0]\nclass = 2",
		pos="722.5,428.5",
		width=2.0417];
	25 -> 27	[label="> 0.564",
		lp="745.5,495.5",
		op=">",
		param=0.564,
		pos="e,722.5,470.27 722.5,520.82 722.5,508.02 722.5,493.73 722.5,480.32",
		style=dashed];
	28	[fillcolor=honeydew,
		height=0.94444,
		label="gini = 0.0\nsamples = 20\nvalue = [0, 20, 0, 0, 0]\nclass = 2",
		pos="641.5,294.5",
		width=2.0417];
	27 -> 28	[label="<= 0.885",
		lp="712,361.5",
		op="<=",
		param=0.885,
		pos="e,661.9,328.74 697.54,386.82 687.89,371.1 676.85,353.11 667.14,337.29",
		style=solid];
	29	[fillcolor=mistyrose,
		height=0.94444,
		label="gini = 0.0\nsamples = 1\nvalue = [0, 0, 0, 1, 0]\nclass = 4",
		pos="803.5,294.5",
		width=1.9444];
	27 -> 29	[label="<= 0.885",
		lp="793,361.5",
		op="<=",
		param=0.885,
		pos="e,783.1,328.74 747.46,386.82 757.11,371.1 768.15,353.11 777.86,337.29",
		style=solid];
	31	[fillcolor=honeydew,
		height=0.94444,
		label="gini = 0.0\nsamples = 2\nvalue = [0, 2, 0, 0, 0]\nclass = 2",
		pos="884.5,428.5",
		width=1.9444];
	30 -> 31	[label="<= 1838.53",
		lp="919.5,495.5",
		op="<=",
		param=1838.53,
		pos="e,884.5,462.74 884.5,520.82 884.5,505.68 884.5,488.44 884.5,473.05",
		style=solid];
	32	[fillcolor=mistyrose,
		height=0.94444,
		label="gini = 0.0\nsamples = 7\nvalue = [0, 0, 0, 7, 0]\nclass = 4",
		pos="1042.5,428.5",
		width=1.9444];
	30 -> 32	[label="<= 1838.53",
		lp="1010.5,495.5",
		op="<=",
		param=1838.53,
		pos="e,1005.2,462.83 936.52,520.91 943.94,514.96 951.45,508.87 958.5,503 971.33,492.33 985.03,480.52 997.57,469.54",
		style=solid];
	35	[fillcolor=mistyrose,
		height=1.1528,
		label="MPAP\ngini = 0.422\nsamples = 148\nvalue = [11, 20, 0, 110, 7]\nclass = 4",
		pos="1339.5,1232.5",
		width=2.3611];
	34 -> 35	[label="<= 29.5",
		lp="1363,1299.5",
		op="<=",
		param=29.5,
		pos="e,1339.5,1274.3 1339.5,1324.8 1339.5,1312 1339.5,1297.7 1339.5,1284.3",
		style=solid];
	72	[fillcolor=lightcoral,
		height=1.1528,
		label="MPAP\ngini = 0.379\nsamples = 65\nvalue = [5, 0, 0, 10, 50]\nclass = 5",
		pos="2284.5,1232.5",
		width=2.1528];
	34 -> 72	[label="> 29.5",
		lp="1860,1299.5",
		op=">",
		param=29.5,
		pos="e,2206.9,1244.3 1428.4,1353.1 1609.1,1327.8 2017.4,1270.8 2197,1245.7",
		style=dashed];
	36	[fillcolor=palegreen,
		height=1.1528,
		label="PAS\ngini = 0.498\nsamples = 15\nvalue = [8, 7, 0, 0, 0]\nclass = 1",
		pos="1204.5,1098.5",
		width=1.9444];
	35 -> 36	[label="<= 51.167",
		lp="1307.5,1165.5",
		op="<=",
		param=51.167,
		pos="e,1246.2,1140.3 1297.9,1190.8 1283.9,1177.1 1268.2,1161.8 1253.7,1147.6",
		style=solid];
	41	[fillcolor=mistyrose,
		height=1.1528,
		label="PAD\ngini = 0.303\nsamples = 133\nvalue = [3, 13, 0, 110, 7]\nclass = 4",
		pos="1479.5,1098.5",
		width=2.25];
	35 -> 41	[label="> 51.167",
		lp="1441.5,1165.5",
		op=">",
		param=51.167,
		pos="e,1436.3,1140.3 1382.6,1190.8 1397.3,1177 1413.8,1161.5 1428.9,1147.2",
		style=dashed];
	37	[fillcolor=palegreen,
		height=0.94444,
		label="gini = 0.0\nsamples = 7\nvalue = [7, 0, 0, 0, 0]\nclass = 1",
		pos="1046.5,964.5",
		width=1.9444];
	36 -> 37	[label="<= 16.0",
		lp="1154,1031.5",
		op="<=",
		param=16.0,
		pos="e,1086,998.53 1155.8,1056.8 1136.1,1040.4 1113.5,1021.5 1093.9,1005.1",
		style=solid];
	38	[fillcolor=honeydew,
		height=1.1528,
		label="CI\ngini = 0.219\nsamples = 8\nvalue = [1, 7, 0, 0, 0]\nclass = 2",
		pos="1204.5,964.5",
		width=1.9444];
	36 -> 38	[label="> 16.0",
		lp="1224,1031.5",
		op=">",
		param=16.0,
		pos="e,1204.5,1006.3 1204.5,1056.8 1204.5,1044 1204.5,1029.7 1204.5,1016.3",
		style=dashed];
	39	[fillcolor=palegreen,
		height=0.94444,
		label="gini = 0.0\nsamples = 1\nvalue = [1, 0, 0, 0, 0]\nclass = 1",
		pos="1045.5,830.5",
		width=1.9444];
	38 -> 39	[label="<= 1.645",
		lp="1158,897.5",
		op="<=",
		param=1.645,
		pos="e,1085.3,864.53 1155.5,922.82 1135.7,906.37 1112.9,887.46 1093.2,871.12",
		style=solid];
	40	[fillcolor=honeydew,
		height=0.94444,
		label="gini = 0.0\nsamples = 7\nvalue = [0, 7, 0, 0, 0]\nclass = 2",
		pos="1203.5,830.5",
		width=1.9444];
	38 -> 40	[label="<= 1.645",
		lp="1232,897.5",
		op="<=",
		param=1.645,
		pos="e,1203.8,864.74 1204.2,922.82 1204.1,907.68 1203.9,890.44 1203.8,875.05",
		style=solid];
	42	[fillcolor=mistyrose,
		height=1.1528,
		label="CO\ngini = 0.242\nsamples = 125\nvalue = [3, 13, 0, 108, 1]\nclass = 4",
		pos="1479.5,964.5",
		width=2.25];
	41 -> 42	[label="<= 35.5",
		lp="1503,1031.5",
		op="<=",
		param=35.5,
		pos="e,1479.5,1006.3 1479.5,1056.8 1479.5,1044 1479.5,1029.7 1479.5,1016.3",
		style=solid];
	69	[fillcolor=lightcoral,
		height=1.1528,
		label="PPP\ngini = 0.375\nsamples = 8\nvalue = [0, 0, 0, 2, 6]\nclass = 5",
		pos="1692.5,964.5",
		width=1.9444];
	41 -> 69	[label="> 35.5",
		lp="1612,1031.5",
		op=">",
		param=35.5,
		pos="e,1626.9,1006.2 1544.9,1057 1568.1,1042.6 1594.3,1026.3 1618.2,1011.5",
		style=dashed];
	43	[fillcolor=mistyrose,
		height=1.1528,
		label="PPRatio\ngini = 0.128\nsamples = 104\nvalue = [3, 4, 0, 97, 0]\nclass = 4",
		pos="1365.5,830.5",
		width=2.0417];
	42 -> 43	[label="<= 5.35",
		lp="1450,897.5",
		op="<=",
		param=5.35,
		pos="e,1400.7,872.27 1444.4,922.82 1432.7,909.27 1419.5,894.04 1407.4,879.96",
		style=solid];
	58	[fillcolor=mistyrose,
		height=1.1528,
		label="PAD\ngini = 0.54\nsamples = 21\nvalue = [0, 9, 0, 11, 1]\nclass = 4",
		pos="1530.5,830.5",
		width=2.0417];
	42 -> 58	[label="> 5.35",
		lp="1527,897.5",
		op=">",
		param=5.35,
		pos="e,1514.7,872.27 1495.2,922.82 1500.2,909.9 1505.8,895.45 1511,881.92",
		style=dashed];
	44	[fillcolor=palegreen,
		height=0.94444,
		label="gini = 0.0\nsamples = 2\nvalue = [2, 0, 0, 0, 0]\nclass = 1",
		pos="1203.5,696.5",
		width=1.9444];
	43 -> 44	[label="<= 0.09",
		lp="1313,763.5",
		op="<=",
		param=0.09,
		pos="e,1244,730.53 1315.6,788.82 1295.3,772.3 1272,753.29 1251.9,736.9",
		style=solid];
	45	[fillcolor=mistyrose,
		height=1.1528,
		label="PAMN\ngini = 0.094\nsamples = 102\nvalue = [1, 4, 0, 97, 0]\nclass = 4",
		pos="1365.5,696.5",
		width=2.0417];
	43 -> 45	[label="> 0.09",
		lp="1385,763.5",
		op=">",
		param=0.09,
		pos="e,1365.5,738.27 1365.5,788.82 1365.5,776.02 1365.5,761.73 1365.5,748.32",
		style=dashed];
	46	[fillcolor=mistyrose,
		height=1.1528,
		label="RATHemo\ngini = 0.322\nsamples = 26\nvalue = [1, 4, 0, 21, 0]\nclass = 4",
		pos="1200.5,562.5",
		width=2.0417];
	45 -> 46	[label="<= 31.5",
		lp="1312,629.5",
		op="<=",
		param=31.5,
		pos="e,1251.2,604.05 1314.6,654.82 1297.2,640.83 1277.4,625.04 1259.4,610.59",
		style=solid];
	57	[fillcolor=mistyrose,
		height=0.94444,
		label="gini = 0.0\nsamples = 76\nvalue = [0, 0, 0, 76, 0]\nclass = 4",
		pos="1365.5,562.5",
		width=2.0417];
	45 -> 57	[label="<= 31.5",
		lp="1389,629.5",
		op="<=",
		param=31.5,
		pos="e,1365.5,596.74 1365.5,654.82 1365.5,639.68 1365.5,622.44 1365.5,607.05",
		style=solid];
	47	[fillcolor=honeydew,
		height=1.1528,
		label="PP\ngini = 0.375\nsamples = 4\nvalue = [0, 3, 0, 1, 0]\nclass = 2",
		pos="1200.5,428.5",
		width=1.9444];
	46 -> 47	[label="<= 0.33",
		lp="1224,495.5",
		op="<=",
		param=0.33,
		pos="e,1200.5,470.27 1200.5,520.82 1200.5,508.02 1200.5,493.73 1200.5,480.32",
		style=solid];
	50	[fillcolor=mistyrose,
		height=1.1528,
		label="MAP\ngini = 0.169\nsamples = 22\nvalue = [1, 1, 0, 20, 0]\nclass = 4",
		pos="1362.5,428.5",
		width=2.0417];
	46 -> 50	[label="> 0.33",
		lp="1306,495.5",
		op=">",
		param=0.33,
		pos="e,1312.7,470.05 1250.4,520.82 1267.6,506.83 1287,491.04 1304.7,476.59",
		style=dashed];
	48	[fillcolor=mistyrose,
		height=0.94444,
		label="gini = 0.0\nsamples = 1\nvalue = [0, 0, 0, 1, 0]\nclass = 4",
		pos="1043.5,294.5",
		width=1.9444];
	47 -> 48	[label="<= 30.5",
		lp="1151,361.5",
		op="<=",
		param=30.5,
		pos="e,1082.8,328.53 1152.1,386.82 1132.6,370.37 1110.1,351.46 1090.6,335.12",
		style=solid];
	49	[fillcolor=honeydew,
		height=0.94444,
		label="gini = 0.0\nsamples = 3\nvalue = [0, 3, 0, 0, 0]\nclass = 2",
		pos="1201.5,294.5",
		width=1.9444];
	47 -> 49	[label="<= 30.5",
		lp="1225,361.5",
		op="<=",
		param=30.5,
		pos="e,1201.2,328.74 1200.8,386.82 1200.9,371.68 1201.1,354.44 1201.2,339.05",
		style=solid];
	51	[fillcolor=palegreen,
		height=0.94444,
		label="gini = 0.0\nsamples = 1\nvalue = [1, 0, 0, 0, 0]\nclass = 1",
		pos="1361.5,294.5",
		width=1.9444];
	50 -> 51	[label="<= 115.667",
		lp="1397.5,361.5",
		op="<=",
		param=115.667,
		pos="e,1361.8,328.74 1362.2,386.82 1362.1,371.68 1361.9,354.44 1361.8,339.05",
		style=solid];
	52	[fillcolor=mistyrose,
		height=1.1528,
		label="CO\ngini = 0.091\nsamples = 21\nvalue = [0, 1, 0, 20, 0]\nclass = 4",
		pos="1523.5,294.5",
		width=2.0417];
	50 -> 52	[label="> 115.667",
		lp="1484,361.5",
		op=">",
		param=115.667,
		pos="e,1475.9,336.22 1414.4,386.8 1421.9,380.87 1429.4,374.8 1436.5,369 1446.7,360.62 1457.6,351.6 1468,342.85",
		style=dashed];
	53	[fillcolor=mistyrose,
		height=0.94444,
		label="gini = 0.0\nsamples = 18\nvalue = [0, 0, 0, 18, 0]\nclass = 4",
		pos="1465.5,160.5",
		width=2.0417];
	52 -> 53	[label="<= 4.59",
		lp="1520,227.5",
		op="<=",
		param=4.59,
		pos="e,1480.1,194.74 1505.6,252.82 1498.8,237.39 1491.1,219.78 1484.2,204.17",
		style=solid];
	54	[fillcolor=mistyrose,
		height=1.1528,
		label="RAP\ngini = 0.444\nsamples = 3\nvalue = [0, 1, 0, 2, 0]\nclass = 4",
		pos="1627.5,160.5",
		width=1.9444];
	52 -> 54	[label="> 4.59",
		lp="1599,227.5",
		op=">",
		param=4.59,
		pos="e,1595.4,202.27 1555.6,252.82 1566.1,239.39 1578,224.32 1589,210.35",
		style=dashed];
	55	[fillcolor=honeydew,
		height=0.94444,
		label="gini = 0.0\nsamples = 1\nvalue = [0, 1, 0, 0, 0]\nclass = 2",
		pos="1548.5,34",
		width=1.9444];
	54 -> 55	[label="<= 11.0",
		lp="1614,93.5",
		op="<=",
		param=11.0,
		pos="e,1569.7,68.379 1601.6,118.73 1593.1,105.35 1583.7,90.465 1575.1,76.995",
		style=solid];
	56	[fillcolor=mistyrose,
		height=0.94444,
		label="gini = 0.0\nsamples = 2\nvalue = [0, 0, 0, 2, 0]\nclass = 4",
		pos="1706.5,34",
		width=1.9444];
	54 -> 56	[label="<= 11.0",
		lp="1698,93.5",
		op="<=",
		param=11.0,
		pos="e,1685.3,68.379 1653.4,118.73 1661.9,105.35 1671.3,90.465 1679.9,76.995",
		style=solid];
	59	[fillcolor=honeydew,
		height=1.1528,
		label="MPAP\ngini = 0.219\nsamples = 8\nvalue = [0, 7, 0, 1, 0]\nclass = 2",
		pos="1530.5,696.5",
		width=1.9444];
	58 -> 59	[label="<= 21.0",
		lp="1554,763.5",
		op="<=",
		param=21.0,
		pos="e,1530.5,738.27 1530.5,788.82 1530.5,776.02 1530.5,761.73 1530.5,748.32",
		style=solid];
	62	[fillcolor=mistyrose,
		height=1.1528,
		label="PPRatio\ngini = 0.379\nsamples = 13\nvalue = [0, 2, 0, 10, 1]\nclass = 4",
		pos="1843.5,696.5",
		width=2.0417];
	58 -> 62	[label="> 21.0",
		lp="1709,763.5",
		op=">",
		param=21.0,
		pos="e,1769.9,725.16 1604.1,793.21 1607.3,791.77 1610.4,790.36 1613.5,789 1661.7,767.71 1716.4,745.84 1760.4,728.83",
		style=dashed];
	60	[fillcolor=honeydew,
		height=0.94444,
		label="gini = 0.0\nsamples = 7\nvalue = [0, 7, 0, 0, 0]\nclass = 2",
		pos="1527.5,562.5",
		width=1.9444];
	59 -> 60	[label="<= 81.833",
		lp="1560.5,629.5",
		op="<=",
		param=81.833,
		pos="e,1528.3,596.74 1529.6,654.82 1529.2,639.68 1528.8,622.44 1528.5,607.05",
		style=solid];
	61	[fillcolor=mistyrose,
		height=0.94444,
		label="gini = 0.0\nsamples = 1\nvalue = [0, 0, 0, 1, 0]\nclass = 4",
		pos="1685.5,562.5",
		width=1.9444];
	59 -> 61	[label="<= 81.833",
		lp="1644.5,629.5",
		op="<=",
		param=81.833,
		pos="e,1646.7,596.53 1578.3,654.82 1597.6,638.37 1619.8,619.46 1639,603.12",
		style=solid];
	63	[fillcolor=mistyrose,
		height=1.1528,
		label="PAD\ngini = 0.18\nsamples = 10\nvalue = [0, 0, 0, 9, 1]\nclass = 4",
		pos="1843.5,562.5",
		width=1.9444];
	62 -> 63	[label="<= 0.924",
		lp="1871,629.5",
		op="<=",
		param=0.924,
		pos="e,1843.5,604.27 1843.5,654.82 1843.5,642.02 1843.5,627.73 1843.5,614.32",
		style=solid];
	66	[fillcolor=honeydew,
		height=1.1528,
		label="Age\ngini = 0.444\nsamples = 3\nvalue = [0, 2, 0, 1, 0]\nclass = 2",
		pos="2001.5,562.5",
		width=1.9444];
	62 -> 66	[label="> 0.924",
		lp="1950.5,629.5",
		op=">",
		param=0.924,
		pos="e,1953,604.05 1892.2,654.82 1908.9,640.83 1927.8,625.04 1945.1,610.59",
		style=dashed];
	64	[fillcolor=mistyrose,
		height=0.94444,
		label="gini = 0.0\nsamples = 9\nvalue = [0, 0, 0, 9, 0]\nclass = 4",
		pos="1685.5,428.5",
		width=1.9444];
	63 -> 64	[label="<= 33.5",
		lp="1793,495.5",
		op="<=",
		param=33.5,
		pos="e,1725,462.53 1794.8,520.82 1775.1,504.37 1752.5,485.46 1732.9,469.12",
		style=solid];
	65	[fillcolor=lightcoral,
		height=0.94444,
		label="gini = 0.0\nsamples = 1\nvalue = [0, 0, 0, 0, 1]\nclass = 5",
		pos="1843.5,428.5",
		width=1.9444];
	63 -> 65	[label="<= 33.5",
		lp="1867,495.5",
		op="<=",
		param=33.5,
		pos="e,1843.5,462.74 1843.5,520.82 1843.5,505.68 1843.5,488.44 1843.5,473.05",
		style=solid];
	67	[fillcolor=mistyrose,
		height=0.94444,
		label="gini = 0.0\nsamples = 1\nvalue = [0, 0, 0, 1, 0]\nclass = 4",
		pos="2001.5,428.5",
		width=1.9444];
	66 -> 67	[label="<= 49.5",
		lp="2025,495.5",
		op="<=",
		param=49.5,
		pos="e,2001.5,462.74 2001.5,520.82 2001.5,505.68 2001.5,488.44 2001.5,473.05",
		style=solid];
	68	[fillcolor=honeydew,
		height=0.94444,
		label="gini = 0.0\nsamples = 2\nvalue = [0, 2, 0, 0, 0]\nclass = 2",
		pos="2159.5,428.5",
		width=1.9444];
	66 -> 68	[label="<= 49.5",
		lp="2109,495.5",
		op="<=",
		param=49.5,
		pos="e,2120,462.53 2050.2,520.82 2069.9,504.37 2092.5,485.46 2112.1,469.12",
		style=solid];
	70	[fillcolor=mistyrose,
		height=0.94444,
		label="gini = 0.0\nsamples = 2\nvalue = [0, 0, 0, 2, 0]\nclass = 4",
		pos="1692.5,830.5",
		width=1.9444];
	69 -> 70	[label="<= 0.297",
		lp="1720,897.5",
		op="<=",
		param=0.297,
		pos="e,1692.5,864.74 1692.5,922.82 1692.5,907.68 1692.5,890.44 1692.5,875.05",
		style=solid];
	71	[fillcolor=lightcoral,
		height=0.94444,
		label="gini = 0.0\nsamples = 6\nvalue = [0, 0, 0, 0, 6]\nclass = 5",
		pos="1850.5,830.5",
		width=1.9444];
	69 -> 71	[label="<= 0.297",
		lp="1804,897.5",
		op="<=",
		param=0.297,
		pos="e,1811,864.53 1741.2,922.82 1760.9,906.37 1783.5,887.46 1803.1,871.12",
		style=solid];
	73	[fillcolor=palegreen,
		height=1.1528,
		label="HRTRT\ngini = 0.663\nsamples = 14\nvalue = [5, 0, 0, 5, 4]\nclass = 1",
		pos="2284.5,1098.5",
		width=1.9444];
	72 -> 73	[label="<= 77.0",
		lp="2308,1165.5",
		op="<=",
		param=77.0,
		pos="e,2284.5,1140.3 2284.5,1190.8 2284.5,1178 2284.5,1163.7 2284.5,1150.3",
		style=solid];
	82	[fillcolor=lightcoral,
		height=1.1528,
		label="CO\ngini = 0.177\nsamples = 51\nvalue = [0, 0, 0, 5, 46]\nclass = 5",
		pos="2735.5,1098.5",
		width=2.0417];
	72 -> 82	[label="> 77.0",
		lp="2544,1165.5",
		op=">",
		param=77.0,
		pos="e,2662,1121 2362,1208.8 2442.9,1185.1 2569.4,1148.1 2652.3,1123.8",
		style=dashed];
	74	[fillcolor=palegreen,
		height=1.1528,
		label="BPDIAS\ngini = 0.278\nsamples = 6\nvalue = [5, 0, 0, 1, 0]\nclass = 1",
		pos="2166.5,964.5",
		width=1.9444];
	73 -> 74	[label="<= 84.0",
		lp="2253,1031.5",
		op="<=",
		param=84.0,
		pos="e,2202.9,1006.3 2248.1,1056.8 2236,1043.3 2222.4,1028 2209.8,1014",
		style=solid];
	77	[fillcolor=mistyrose,
		height=1.1528,
		label="PCWPA\ngini = 0.5\nsamples = 8\nvalue = [0, 0, 0, 4, 4]\nclass = 4",
		pos="2324.5,964.5",
		width=1.9444];
	73 -> 77	[label="> 84.0",
		lp="2326,1031.5",
		op=">",
		param=84.0,
		pos="e,2312.1,1006.3 2296.8,1056.8 2300.7,1043.9 2305.1,1029.4 2309.2,1015.9",
		style=dashed];
	75	[fillcolor=palegreen,
		height=0.94444,
		label="gini = 0.0\nsamples = 5\nvalue = [5, 0, 0, 0, 0]\nclass = 1",
		pos="2008.5,830.5",
		width=1.9444];
	74 -> 75	[label="<= 79.0",
		lp="2116,897.5",
		op="<=",
		param=79.0,
		pos="e,2048,864.53 2117.8,922.82 2098.1,906.37 2075.5,887.46 2055.9,871.12",
		style=solid];
	76	[fillcolor=mistyrose,
		height=0.94444,
		label="gini = 0.0\nsamples = 1\nvalue = [0, 0, 0, 1, 0]\nclass = 4",
		pos="2166.5,830.5",
		width=1.9444];
	74 -> 76	[label="<= 79.0",
		lp="2190,897.5",
		op="<=",
		param=79.0,
		pos="e,2166.5,864.74 2166.5,922.82 2166.5,907.68 2166.5,890.44 2166.5,875.05",
		style=solid];
	78	[fillcolor=mistyrose,
		height=0.94444,
		label="gini = 0.0\nsamples = 3\nvalue = [0, 0, 0, 3, 0]\nclass = 4",
		pos="2324.5,830.5",
		width=1.9444];
	77 -> 78	[label="<= 15.0",
		lp="2348,897.5",
		op="<=",
		param=15.0,
		pos="e,2324.5,864.74 2324.5,922.82 2324.5,907.68 2324.5,890.44 2324.5,875.05",
		style=solid];
	79	[fillcolor=lightcoral,
		height=1.1528,
		label="PCWPMN\ngini = 0.32\nsamples = 5\nvalue = [0, 0, 0, 1, 4]\nclass = 5",
		pos="2482.5,830.5",
		width=1.9444];
	77 -> 79	[label="> 15.0",
		lp="2428,897.5",
		op=">",
		param=15.0,
		pos="e,2434,872.05 2373.2,922.82 2389.9,908.83 2408.8,893.04 2426.1,878.59",
		style=dashed];
	80	[fillcolor=mistyrose,
		height=0.94444,
		label="gini = 0.0\nsamples = 1\nvalue = [0, 0, 0, 1, 0]\nclass = 4",
		pos="2324.5,696.5",
		width=1.9444];
	79 -> 80	[label="<= 14.5",
		lp="2432,763.5",
		op="<=",
		param=14.5,
		pos="e,2364,730.53 2433.8,788.82 2414.1,772.37 2391.5,753.46 2371.9,737.12",
		style=solid];
	81	[fillcolor=lightcoral,
		height=0.94444,
		label="gini = 0.0\nsamples = 4\nvalue = [0, 0, 0, 0, 4]\nclass = 5",
		pos="2482.5,696.5",
		width=1.9444];
	79 -> 81	[label="<= 14.5",
		lp="2506,763.5",
		op="<=",
		param=14.5,
		pos="e,2482.5,730.74 2482.5,788.82 2482.5,773.68 2482.5,756.44 2482.5,741.05",
		style=solid];
	83	[fillcolor=lightcoral,
		height=1.1528,
		label="PAS\ngini = 0.043\nsamples = 46\nvalue = [0, 0, 0, 1, 45]\nclass = 5",
		pos="2735.5,964.5",
		width=2.0417];
	82 -> 83	[label="<= 5.35",
		lp="2759,1031.5",
		op="<=",
		param=5.35,
		pos="e,2735.5,1006.3 2735.5,1056.8 2735.5,1044 2735.5,1029.7 2735.5,1016.3",
		style=solid];
	88	[fillcolor=mistyrose,
		height=1.1528,
		label="MIXED\ngini = 0.32\nsamples = 5\nvalue = [0, 0, 0, 4, 1]\nclass = 4",
		pos="2964.5,964.5",
		width=1.9444];
	82 -> 88	[label="> 5.35",
		lp="2877,1031.5",
		op=">",
		param=5.35,
		pos="e,2894.4,1005.9 2805.8,1057 2831,1042.4 2859.7,1025.9 2885.7,1010.9",
		style=dashed];
	84	[fillcolor=mistyrose,
		height=1.1528,
		label="PP\ngini = 0.5\nsamples = 2\nvalue = [0, 0, 0, 1, 1]\nclass = 4",
		pos="2640.5,830.5",
		width=1.9444];
	83 -> 84	[label="<= 55.5",
		lp="2715,897.5",
		op="<=",
		param=55.5,
		pos="e,2669.8,872.27 2706.2,922.82 2696.7,909.52 2685.9,894.6 2675.9,880.74",
		style=solid];
	87	[fillcolor=lightcoral,
		height=0.94444,
		label="gini = 0.0\nsamples = 44\nvalue = [0, 0, 0, 0, 44]\nclass = 5",
		pos="2802.5,830.5",
		width=2.0417];
	83 -> 87	[label="<= 55.5",
		lp="2795,897.5",
		op="<=",
		param=55.5,
		pos="e,2785.6,864.74 2756.1,922.82 2764.1,907.24 2773.1,889.45 2781.1,873.73",
		style=solid];
	85	[fillcolor=lightcoral,
		height=0.94444,
		label="gini = 0.0\nsamples = 1\nvalue = [0, 0, 0, 0, 1]\nclass = 5",
		pos="2640.5,696.5",
		width=1.9444];
	84 -> 85	[label="<= 32.5",
		lp="2664,763.5",
		op="<=",
		param=32.5,
		pos="e,2640.5,730.74 2640.5,788.82 2640.5,773.68 2640.5,756.44 2640.5,741.05",
		style=solid];
	86	[fillcolor=mistyrose,
		height=0.94444,
		label="gini = 0.0\nsamples = 1\nvalue = [0, 0, 0, 1, 0]\nclass = 4",
		pos="2798.5,696.5",
		width=1.9444];
	84 -> 86	[label="<= 32.5",
		lp="2748,763.5",
		op="<=",
		param=32.5,
		pos="e,2759,730.53 2689.2,788.82 2708.9,772.37 2731.5,753.46 2751.1,737.12",
		style=solid];
	89	[fillcolor=mistyrose,
		height=0.94444,
		label="gini = 0.0\nsamples = 4\nvalue = [0, 0, 0, 4, 0]\nclass = 4",
		pos="2964.5,830.5",
		width=1.9444];
	88 -> 89	[label="<= 71.5",
		lp="2988,897.5",
		op="<=",
		param=71.5,
		pos="e,2964.5,864.74 2964.5,922.82 2964.5,907.68 2964.5,890.44 2964.5,875.05",
		style=solid];
	90	[fillcolor=lightcoral,
		height=0.94444,
		label="gini = 0.0\nsamples = 1\nvalue = [0, 0, 0, 0, 1]\nclass = 5",
		pos="3122.5,830.5",
		width=1.9444];
	88 -> 90	[label="<= 71.5",
		lp="3072,897.5",
		op="<=",
		param=71.5,
		pos="e,3083,864.53 3013.2,922.82 3032.9,906.37 3055.5,887.46 3075.1,871.12",
		style=solid];
}
