strict digraph Tree {
	graph [bb="0,0,2416.5,1274"];
	node [color=black,
		fontname=helvetica,
		label="\N",
		shape=box,
		style="filled, rounded"
	];
	edge [fontname=helvetica];
	0	[fillcolor=lightyellow,
		height=1.1528,
		label="PCWP\nentropy = 2.12\nsamples = 334\nvalue = [38, 108, 111, 29, 48]\nclass = 3",
		pos="1017.5,1232.5",
		width=2.6528];
	1	[fillcolor=honeydew,
		height=1.1528,
		label="HRTRT\nentropy = 1.626\nsamples = 160\nvalue = [26, 92, 13, 29, 0]\nclass = 2",
		pos="748.5,1098.5",
		width=2.3611];
	0 -> 1	[label="<= 18.5",
		labelangle=45,
		labeldistance=2.5,
		lp="915,1165.5",
		op="<=",
		param=18.5,
		pos="e,831.34,1140.2 934.96,1191 905.02,1176.3 871.02,1159.6 840.33,1144.6",
		style=solid];
	28	[fillcolor=lightyellow,
		height=1.1528,
		label="PCWP\nentropy = 1.562\nsamples = 174\nvalue = [12, 16, 98, 0, 48]\nclass = 3",
		pos="1463.5,1098.5",
		width=2.3611];
	0 -> 28	[label="> 18.5",
		labelangle=-45,
		labeldistance=2.5,
		lp="1274,1165.5",
		op=">",
		param=18.5,
		pos="e,1378.2,1124.8 1113.2,1203.2 1188.5,1180.9 1293,1150 1368.2,1127.7",
		style=dashed];
	2	[fillcolor=mistyrose,
		height=1.1528,
		label="EjF\nentropy = 0.211\nsamples = 30\nvalue = [1, 0, 0, 29, 0]\nclass = 4",
		pos="235.5,964.5",
		width=2.0417];
	1 -> 2	[label="<= 25.5",
		lp="531,1031.5",
		op="<=",
		param=25.5,
		pos="e,309.33,984.5 663.21,1075.6 567.73,1051 413.99,1011.4 319.17,987.03",
		style=solid];
	7	[fillcolor=honeydew,
		height=1.1528,
		label="CPI\nentropy = 1.143\nsamples = 130\nvalue = [25, 92, 13, 0, 0]\nclass = 2",
		pos="748.5,964.5",
		width=2.25];
	1 -> 7	[label="> 25.5",
		lp="768,1031.5",
		op=">",
		param=25.5,
		pos="e,748.5,1006.3 748.5,1056.8 748.5,1044 748.5,1029.7 748.5,1016.3",
		style=dashed];
	3	[fillcolor=mistyrose,
		height=0.94444,
		label="entropy\nsamples = 20\nvalue = [0, 0, 0, 20, 0]\nclass = 4",
		pos="73.5,830.5",
		width=2.0417];
	2 -> 3	[label="<= 24.0",
		lp="183,897.5",
		op="<=",
		param=24.0,
		pos="e,114.04,864.53 185.57,922.82 165.3,906.3 141.97,887.29 121.86,870.9",
		style=solid];
	4	[fillcolor=mistyrose,
		height=1.1528,
		label="Age\nentropy = 0.469\nsamples = 10\nvalue = [1, 0, 0, 9, 0]\nclass = 4",
		pos="235.5,830.5",
		width=1.9444];
	2 -> 4	[label="> 24.0",
		lp="255,897.5",
		op=">",
		param=24.0,
		pos="e,235.5,872.27 235.5,922.82 235.5,910.02 235.5,895.73 235.5,882.32",
		style=dashed];
	5	[fillcolor=mistyrose,
		height=0.94444,
		label="entropy\nsamples = 5\nvalue = [1, 0, 0, 4, 0]\nclass = 4",
		pos="77.5,696.5",
		width=1.9444];
	4 -> 5	[label="<= 63.0",
		lp="185,763.5",
		op="<=",
		param=63.0,
		pos="e,117.03,730.53 186.81,788.82 167.12,772.37 144.48,753.46 124.93,737.12",
		style=solid];
	6	[fillcolor=mistyrose,
		height=0.94444,
		label="entropy\nsamples = 5\nvalue = [0, 0, 0, 5, 0]\nclass = 4",
		pos="235.5,696.5",
		width=1.9444];
	4 -> 6	[label="<= 63.0",
		lp="259,763.5",
		op="<=",
		param=63.0,
		pos="e,235.5,730.74 235.5,788.82 235.5,773.68 235.5,756.44 235.5,741.05",
		style=solid];
	8	[fillcolor=palegreen,
		height=1.1528,
		label="MAP\nentropy = 1.376\nsamples = 40\nvalue = [22, 13, 5, 0, 0]\nclass = 1",
		pos="643.5,830.5",
		width=2.1528];
	7 -> 8	[label="<= 0.555",
		lp="727,897.5",
		op="<=",
		param=0.555,
		pos="e,675.93,872.27 716.14,922.82 705.46,909.39 693.47,894.32 682.36,880.35",
		style=solid];
	17	[fillcolor=honeydew,
		height=1.1528,
		label="MPAP\nentropy = 0.639\nsamples = 90\nvalue = [3, 79, 8, 0, 0]\nclass = 2",
		pos="843.5,830.5",
		width=2.0417];
	7 -> 17	[label="> 0.555",
		lp="822.5,897.5",
		op=">",
		param=0.555,
		pos="e,814.15,872.27 777.78,922.82 787.35,909.52 798.08,894.6 808.06,880.74",
		style=dashed];
	9	[fillcolor=palegreen,
		height=1.1528,
		label="PCWPMod\nentropy = 0.575\nsamples = 22\nvalue = [19, 3, 0, 0, 0]\nclass = 1",
		pos="397.5,696.5",
		width=2.0417];
	8 -> 9	[label="<= 135.0",
		lp="556,763.5",
		op="<=",
		param=135.0,
		pos="e,471.15,737.02 568.02,789 540.24,774.09 508.63,757.13 480.24,741.9",
		style=solid];
	12	[fillcolor=honeydew,
		height=1.1528,
		label="PAD\nentropy = 1.415\nsamples = 18\nvalue = [3, 10, 5, 0, 0]\nclass = 2",
		pos="643.5,696.5",
		width=2.0417];
	8 -> 12	[label="> 135.0",
		lp="666.5,763.5",
		op=">",
		param=135.0,
		pos="e,643.5,738.27 643.5,788.82 643.5,776.02 643.5,761.73 643.5,748.32",
		style=dashed];
	10	[fillcolor=honeydew,
		height=0.94444,
		label="entropy\nsamples = 5\nvalue = [2, 3, 0, 0, 0]\nclass = 2",
		pos="175.5,562.5",
		width=1.9444];
	9 -> 10	[label="<= 11.0",
		lp="317,629.5",
		op="<=",
		param=11.0,
		pos="e,231.2,596.62 329.38,655 300.98,638.11 268.14,618.58 240.12,601.92",
		style=solid];
	11	[fillcolor=palegreen,
		height=0.94444,
		label="entropy\nsamples = 17\nvalue = [17, 0, 0, 0, 0]\nclass = 1",
		pos="337.5,562.5",
		width=2.0417];
	9 -> 11	[label="<= 11.0",
		lp="393,629.5",
		op="<=",
		param=11.0,
		pos="e,352.61,596.74 379.01,654.82 371.99,639.39 363.99,621.78 356.89,606.17",
		style=solid];
	13	[fillcolor=honeydew,
		height=1.1528,
		label="SVRHemo\nentropy = 0.779\nsamples = 13\nvalue = [3, 10, 0, 0, 0]\nclass = 2",
		pos="502.5,562.5",
		width=2.0417];
	12 -> 13	[label="<= 24.0",
		lp="601,629.5",
		op="<=",
		param=24.0,
		pos="e,546.05,604.27 600.04,654.82 585.3,641.02 568.7,625.48 553.43,611.18",
		style=solid];
	16	[fillcolor=lightyellow,
		height=0.94444,
		label="entropy\nsamples = 5\nvalue = [0, 0, 5, 0, 0]\nclass = 3",
		pos="664.5,562.5",
		width=1.9444];
	12 -> 16	[label="<= 24.0",
		lp="679,629.5",
		op="<=",
		param=24.0,
		pos="e,659.21,596.74 649.97,654.82 652.38,639.68 655.12,622.44 657.57,607.05",
		style=solid];
	14	[fillcolor=honeydew,
		height=0.94444,
		label="entropy\nsamples = 7\nvalue = [3, 4, 0, 0, 0]\nclass = 2",
		pos="424.5,428.5",
		width=1.9444];
	13 -> 14	[label="<= 1142.5",
		lp="497.5,495.5",
		op="<=",
		param=1142.5,
		pos="e,444.14,462.74 478.46,520.82 469.26,505.24 458.74,487.45 449.45,471.73",
		style=solid];
	15	[fillcolor=honeydew,
		height=0.94444,
		label="entropy\nsamples = 6\nvalue = [0, 6, 0, 0, 0]\nclass = 2",
		pos="582.5,428.5",
		width=1.9444];
	13 -> 15	[label="<= 1142.5",
		lp="576.5,495.5",
		op="<=",
		param=1142.5,
		pos="e,562.35,462.74 527.16,520.82 536.6,505.24 547.38,487.45 556.91,471.73",
		style=solid];
	18	[fillcolor=honeydew,
		height=1.1528,
		label="PAPP\nentropy = 0.344\nsamples = 75\nvalue = [3, 71, 1, 0, 0]\nclass = 2",
		pos="843.5,696.5",
		width=2.0417];
	17 -> 18	[label="<= 67.667",
		lp="874.5,763.5",
		op="<=",
		param=67.667,
		pos="e,843.5,738.27 843.5,788.82 843.5,776.02 843.5,761.73 843.5,748.32",
		style=solid];
	23	[fillcolor=honeydew,
		height=1.1528,
		label="PCWPMN\nentropy = 0.997\nsamples = 15\nvalue = [0, 8, 7, 0, 0]\nclass = 2",
		pos="1066.5,696.5",
		width=1.9444];
	17 -> 23	[label="> 67.667",
		lp="989.5,763.5",
		op=">",
		param=67.667,
		pos="e,997.82,738.15 911.92,789 936.32,774.56 963.96,758.19 989.06,743.34",
		style=dashed];
	19	[fillcolor=palegreen,
		height=0.94444,
		label="entropy\nsamples = 5\nvalue = [3, 2, 0, 0, 0]\nclass = 1",
		pos="822.5,562.5",
		width=1.9444];
	18 -> 19	[label="<= 0.375",
		lp="862,629.5",
		op="<=",
		param=0.375,
		pos="e,827.79,596.74 837.03,654.82 834.62,639.68 831.88,622.44 829.43,607.05",
		style=solid];
	20	[fillcolor=honeydew,
		height=1.1528,
		label="RAP\nentropy = 0.108\nsamples = 70\nvalue = [0, 69, 1, 0, 0]\nclass = 2",
		pos="984.5,562.5",
		width=2.0417];
	18 -> 20	[label="> 0.375",
		lp="941.5,629.5",
		op=">",
		param=0.375,
		pos="e,940.95,604.27 886.96,654.82 901.7,641.02 918.3,625.48 933.57,611.18",
		style=dashed];
	21	[fillcolor=honeydew,
		height=0.94444,
		label="entropy\nsamples = 65\nvalue = [0, 65, 0, 0, 0]\nclass = 2",
		pos="823.5,428.5",
		width=2.0417];
	20 -> 21	[label="<= 14.0",
		lp="933,495.5",
		op="<=",
		param=14.0,
		pos="e,863.79,462.53 934.88,520.82 914.73,504.3 891.55,485.29 871.56,468.9",
		style=solid];
	22	[fillcolor=honeydew,
		height=0.94444,
		label="entropy\nsamples = 5\nvalue = [0, 4, 1, 0, 0]\nclass = 2",
		pos="985.5,428.5",
		width=1.9444];
	20 -> 22	[label="<= 14.0",
		lp="1009,495.5",
		op="<=",
		param=14.0,
		pos="e,985.25,462.74 984.81,520.82 984.92,505.68 985.05,488.44 985.17,473.05",
		style=solid];
	24	[fillcolor=honeydew,
		height=1.1528,
		label="MPAP\nentropy = 0.722\nsamples = 10\nvalue = [0, 8, 2, 0, 0]\nclass = 2",
		pos="1146.5,562.5",
		width=1.9444];
	23 -> 24	[label="<= 16.5",
		lp="1133,629.5",
		op="<=",
		param=16.5,
		pos="e,1121.8,604.27 1091.2,654.82 1099.1,641.64 1108.1,626.89 1116.4,613.14",
		style=solid];
	27	[fillcolor=lightyellow,
		height=0.94444,
		label="entropy\nsamples = 5\nvalue = [0, 0, 5, 0, 0]\nclass = 3",
		pos="1304.5,562.5",
		width=1.9444];
	23 -> 27	[label="<= 16.5",
		lp="1217,629.5",
		op="<=",
		param=16.5,
		pos="e,1244.9,596.54 1136.6,656.61 1167.9,639.24 1204.7,618.83 1235.9,601.56",
		style=solid];
	25	[fillcolor=honeydew,
		height=0.94444,
		label="entropy\nsamples = 5\nvalue = [0, 5, 0, 0, 0]\nclass = 2",
		pos="1145.5,428.5",
		width=1.9444];
	24 -> 25	[label="<= 81.0",
		lp="1170,495.5",
		op="<=",
		param=81.0,
		pos="e,1145.8,462.74 1146.2,520.82 1146.1,505.68 1145.9,488.44 1145.8,473.05",
		style=solid];
	26	[fillcolor=honeydew,
		height=0.94444,
		label="entropy\nsamples = 5\nvalue = [0, 3, 2, 0, 0]\nclass = 2",
		pos="1303.5,428.5",
		width=1.9444];
	24 -> 26	[label="<= 81.0",
		lp="1254,495.5",
		op="<=",
		param=81.0,
		pos="e,1264.2,462.53 1194.9,520.82 1214.4,504.37 1236.9,485.46 1256.4,469.12",
		style=solid];
	29	[fillcolor=lightyellow,
		height=1.1528,
		label="MPAP\nentropy = 1.159\nsamples = 116\nvalue = [9, 16, 87, 0, 4]\nclass = 3",
		pos="1463.5,964.5",
		width=2.1528];
	28 -> 29	[label="<= 28.5",
		lp="1487,1031.5",
		op="<=",
		param=28.5,
		pos="e,1463.5,1006.3 1463.5,1056.8 1463.5,1044 1463.5,1029.7 1463.5,1016.3",
		style=solid];
	48	[fillcolor=lightcoral,
		height=1.1528,
		label="MPAP\nentropy = 0.978\nsamples = 58\nvalue = [3, 0, 11, 0, 44]\nclass = 5",
		pos="1921.5,964.5",
		width=2.1528];
	28 -> 48	[label="> 28.5",
		lp="1726,1031.5",
		op=">",
		param=28.5,
		pos="e,1843.8,987.91 1548.6,1073 1629.9,1049.6 1751.8,1014.4 1833.9,990.74",
		style=dashed];
	30	[fillcolor=honeydew,
		height=1.1528,
		label="PAPP\nentropy = 0.996\nsamples = 13\nvalue = [6, 7, 0, 0, 0]\nclass = 2",
		pos="1382.5,830.5",
		width=1.9444];
	29 -> 30	[label="<= 51.167",
		lp="1453.5,897.5",
		op="<=",
		param=51.167,
		pos="e,1403.5,872.02 1434.2,922.98 1430.2,917.02 1426.2,910.9 1422.5,905 1417.7,897.29 1412.9,888.97 1408.3,880.8",
		style=solid];
	33	[fillcolor=lightyellow,
		height=1.1528,
		label="PAD\nentropy = 0.844\nsamples = 103\nvalue = [3, 9, 87, 0, 4]\nclass = 3",
		pos="1544.5,830.5",
		width=2.0417];
	29 -> 33	[label="> 51.167",
		lp="1533.5,897.5",
		op=">",
		param=51.167,
		pos="e,1519.5,872.27 1488.5,922.82 1496.5,909.64 1505.6,894.89 1514,881.14",
		style=dashed];
	31	[fillcolor=palegreen,
		height=0.94444,
		label="entropy\nsamples = 7\nvalue = [6, 1, 0, 0, 0]\nclass = 1",
		pos="1224.5,696.5",
		width=1.9444];
	30 -> 31	[label="<= 0.464",
		lp="1336,763.5",
		op="<=",
		param=0.464,
		pos="e,1264,730.53 1333.8,788.82 1314.1,772.37 1291.5,753.46 1271.9,737.12",
		style=solid];
	32	[fillcolor=honeydew,
		height=0.94444,
		label="entropy\nsamples = 6\nvalue = [0, 6, 0, 0, 0]\nclass = 2",
		pos="1382.5,696.5",
		width=1.9444];
	30 -> 32	[label="<= 0.464",
		lp="1410,763.5",
		op="<=",
		param=0.464,
		pos="e,1382.5,730.74 1382.5,788.82 1382.5,773.68 1382.5,756.44 1382.5,741.05",
		style=solid];
	34	[fillcolor=lightyellow,
		height=1.1528,
		label="MAP\nentropy = 0.636\nsamples = 98\nvalue = [3, 9, 86, 0, 0]\nclass = 3",
		pos="1544.5,696.5",
		width=2.0417];
	33 -> 34	[label="<= 35.5",
		lp="1568,763.5",
		op="<=",
		param=35.5,
		pos="e,1544.5,738.27 1544.5,788.82 1544.5,776.02 1544.5,761.73 1544.5,748.32",
		style=solid];
	47	[fillcolor=lightcoral,
		height=0.94444,
		label="entropy\nsamples = 5\nvalue = [0, 0, 1, 0, 4]\nclass = 5",
		pos="1706.5,696.5",
		width=1.9444];
	33 -> 47	[label="<= 35.5",
		lp="1654,763.5",
		op="<=",
		param=35.5,
		pos="e,1666,730.53 1594.4,788.82 1614.7,772.3 1638,753.29 1658.1,736.9",
		style=solid];
	35	[fillcolor=palegreen,
		height=0.94444,
		label="entropy\nsamples = 6\nvalue = [3, 1, 2, 0, 0]\nclass = 1",
		pos="1466.5,562.5",
		width=1.9444];
	34 -> 35	[label="<= 109.833",
		lp="1537.5,629.5",
		op="<=",
		param=109.833,
		pos="e,1481.3,596.68 1514,654.85 1510,648.97 1506,642.9 1502.5,637 1496.6,627.2 1490.9,616.3 1485.8,605.97",
		style=solid];
	36	[fillcolor=lightyellow,
		height=1.1528,
		label="PCWP\nentropy = 0.426\nsamples = 92\nvalue = [0, 8, 84, 0, 0]\nclass = 3",
		pos="1628.5,562.5",
		width=2.0417];
	34 -> 36	[label="> 109.833",
		lp="1620,629.5",
		op=">",
		param=109.833,
		pos="e,1602.6,604.27 1570.4,654.82 1578.9,641.52 1588.3,626.6 1597.2,612.74",
		style=dashed];
	37	[fillcolor=lightyellow,
		height=1.1528,
		label="PAMN\nentropy = 0.693\nsamples = 43\nvalue = [0, 8, 35, 0, 0]\nclass = 3",
		pos="1466.5,428.5",
		width=2.0417];
	36 -> 37	[label="<= 22.5",
		lp="1576,495.5",
		op="<=",
		param=22.5,
		pos="e,1516.3,470.05 1578.6,520.82 1561.4,506.83 1542,491.04 1524.3,476.59",
		style=solid];
	46	[fillcolor=lightyellow,
		height=0.94444,
		label="entropy\nsamples = 49\nvalue = [0, 0, 49, 0, 0]\nclass = 3",
		pos="1631.5,428.5",
		width=2.0417];
	36 -> 46	[label="<= 22.5",
		lp="1654,495.5",
		op="<=",
		param=22.5,
		pos="e,1630.7,462.74 1629.4,520.82 1629.8,505.68 1630.2,488.44 1630.5,473.05",
		style=solid];
	38	[fillcolor=lightyellow,
		height=1.1528,
		label="HRTRT\nentropy = 0.964\nsamples = 18\nvalue = [0, 7, 11, 0, 0]\nclass = 3",
		pos="1372.5,294.5",
		width=2.0417];
	37 -> 38	[label="<= 32.5",
		lp="1446,361.5",
		op="<=",
		param=32.5,
		pos="e,1401.5,336.27 1437.5,386.82 1428.1,373.52 1417.4,358.6 1407.6,344.74",
		style=solid];
	43	[fillcolor=lightyellow,
		height=1.1528,
		label="HRTRT\nentropy = 0.242\nsamples = 25\nvalue = [0, 1, 24, 0, 0]\nclass = 3",
		pos="1537.5,294.5",
		width=2.0417];
	37 -> 43	[label="> 32.5",
		lp="1524,361.5",
		op=">",
		param=32.5,
		pos="e,1515.6,336.27 1488.4,386.82 1495.5,373.64 1503.4,358.89 1510.8,345.14",
		style=dashed];
	39	[fillcolor=honeydew,
		height=0.94444,
		label="entropy\nsamples = 6\nvalue = [0, 5, 1, 0, 0]\nclass = 2",
		pos="1212.5,160.5",
		width=1.9444];
	38 -> 39	[label="<= 73.0",
		lp="1321,227.5",
		op="<=",
		param=73.0,
		pos="e,1252.5,194.53 1323.2,252.82 1303.2,236.3 1280.1,217.29 1260.3,200.9",
		style=solid];
	40	[fillcolor=lightyellow,
		height=1.1528,
		label="PAPP\nentropy = 0.65\nsamples = 12\nvalue = [0, 2, 10, 0, 0]\nclass = 3",
		pos="1374.5,160.5",
		width=2.0417];
	38 -> 40	[label="> 73.0",
		lp="1394,227.5",
		op=">",
		param=73.0,
		pos="e,1373.9,202.27 1373.1,252.82 1373.3,240.02 1373.5,225.73 1373.7,212.32",
		style=dashed];
	41	[fillcolor=lightyellow,
		height=0.94444,
		label="entropy\nsamples = 7\nvalue = [0, 0, 7, 0, 0]\nclass = 3",
		pos="1295.5,34",
		width=1.9444];
	40 -> 41	[label="<= 0.512",
		lp="1365,93.5",
		op="<=",
		param=0.512,
		pos="e,1316.7,68.379 1348.6,118.73 1340.1,105.35 1330.7,90.465 1322.1,76.995",
		style=solid];
	42	[fillcolor=lightyellow,
		height=0.94444,
		label="entropy\nsamples = 5\nvalue = [0, 2, 3, 0, 0]\nclass = 3",
		pos="1453.5,34",
		width=1.9444];
	40 -> 42	[label="<= 0.512",
		lp="1449,93.5",
		op="<=",
		param=0.512,
		pos="e,1432.3,68.379 1400.4,118.73 1408.9,105.35 1418.3,90.465 1426.9,76.995",
		style=solid];
	44	[fillcolor=lightyellow,
		height=0.94444,
		label="entropy\nsamples = 5\nvalue = [0, 1, 4, 0, 0]\nclass = 3",
		pos="1536.5,160.5",
		width=1.9444];
	43 -> 44	[label="<= 64.5",
		lp="1561,227.5",
		op="<=",
		param=64.5,
		pos="e,1536.8,194.74 1537.2,252.82 1537.1,237.68 1536.9,220.44 1536.8,205.05",
		style=solid];
	45	[fillcolor=lightyellow,
		height=0.94444,
		label="entropy\nsamples = 20\nvalue = [0, 0, 20, 0, 0]\nclass = 3",
		pos="1698.5,160.5",
		width=2.0417];
	43 -> 45	[label="<= 64.5",
		lp="1647,227.5",
		op="<=",
		param=64.5,
		pos="e,1658.2,194.53 1587.1,252.82 1607.3,236.3 1630.5,217.29 1650.4,200.9",
		style=solid];
	49	[fillcolor=lightyellow,
		height=1.1528,
		label="HRTRT\nentropy = 1.481\nsamples = 18\nvalue = [3, 0, 8, 0, 7]\nclass = 3",
		pos="1921.5,830.5",
		width=1.9444];
	48 -> 49	[label="<= 81.0",
		lp="1945,897.5",
		op="<=",
		param=81.0,
		pos="e,1921.5,872.27 1921.5,922.82 1921.5,910.02 1921.5,895.73 1921.5,882.32",
		style=solid];
	54	[fillcolor=lightcoral,
		height=1.1528,
		label="CPI\nentropy = 0.384\nsamples = 40\nvalue = [0, 0, 3, 0, 37]\nclass = 5",
		pos="2184.5,830.5",
		width=2.0417];
	48 -> 54	[label="> 81.0",
		lp="2081,897.5",
		op=">",
		param=81.0,
		pos="e,2110.9,868.43 1999.3,924.43 2031.6,908.24 2069.1,889.44 2101.8,873",
		style=dashed];
	50	[fillcolor=palegreen,
		height=0.94444,
		label="entropy\nsamples = 6\nvalue = [3, 0, 3, 0, 0]\nclass = 1",
		pos="1864.5,696.5",
		width=1.9444];
	49 -> 50	[label="<= 85.5",
		lp="1919,763.5",
		op="<=",
		param=85.5,
		pos="e,1878.9,730.74 1903.9,788.82 1897.3,773.39 1889.7,755.78 1882.9,740.17",
		style=solid];
	51	[fillcolor=lightcoral,
		height=1.1528,
		label="CI\nentropy = 0.98\nsamples = 12\nvalue = [0, 0, 5, 0, 7]\nclass = 5",
		pos="2022.5,696.5",
		width=1.9444];
	49 -> 51	[label="> 85.5",
		lp="1995,763.5",
		op=">",
		param=85.5,
		pos="e,1991.3,738.27 1952.6,788.82 1962.9,775.39 1974.4,760.32 1985.1,746.35",
		style=dashed];
	52	[fillcolor=lightcoral,
		height=0.94444,
		label="entropy\nsamples = 5\nvalue = [0, 0, 0, 0, 5]\nclass = 5",
		pos="1943.5,562.5",
		width=1.9444];
	51 -> 52	[label="<= 1.835",
		lp="2013,629.5",
		op="<=",
		param=1.835,
		pos="e,1963.4,596.74 1998.2,654.82 1988.8,639.24 1978.2,621.45 1968.8,605.73",
		style=solid];
	53	[fillcolor=lightyellow,
		height=0.94444,
		label="entropy\nsamples = 7\nvalue = [0, 0, 5, 0, 2]\nclass = 3",
		pos="2101.5,562.5",
		width=1.9444];
	51 -> 53	[label="<= 1.835",
		lp="2092,629.5",
		op="<=",
		param=1.835,
		pos="e,2081.6,596.74 2046.8,654.82 2056.2,639.24 2066.8,621.45 2076.2,605.73",
		style=solid];
	55	[fillcolor=lightcoral,
		height=0.94444,
		label="entropy\nsamples = 35\nvalue = [0, 0, 0, 0, 35]\nclass = 5",
		pos="2184.5,696.5",
		width=2.0417];
	54 -> 55	[label="<= 0.871",
		lp="2212,763.5",
		op="<=",
		param=0.871,
		pos="e,2184.5,730.74 2184.5,788.82 2184.5,773.68 2184.5,756.44 2184.5,741.05",
		style=solid];
	56	[fillcolor=lightyellow,
		height=0.94444,
		label="entropy\nsamples = 5\nvalue = [0, 0, 3, 0, 2]\nclass = 3",
		pos="2346.5,696.5",
		width=1.9444];
	54 -> 56	[label="<= 0.871",
		lp="2297,763.5",
		op="<=",
		param=0.871,
		pos="e,2306,730.53 2234.4,788.82 2254.7,772.3 2278,753.29 2298.1,736.9",
		style=solid];
}
